0.0664748
-3.00573
0.234626
-1.24955
0.838306
0.267654
2.22098
-1.82814
1.31622
-0.590939
0.115755
1.68736
-0.0292574
0.676303
0.147412
-0.677905
-3.05586
-0.340759
0.85192
0.850016
-0.0170961
0.958526
-1.48023
1.60955
-1.75133
-0.121401
1.67239
-2.41963
-1.81525
-1.24775
-0.210622
0.333386
0.311719
-0.786106
1.99162
1.07671
-2.37187
0.926529
-0.811041
0.275948
-0.240682
-1.38613
-0.384774
-0.424855
0.255811
-0.57124
-2.18975
2.32363
0.493879
0.438229
0.00395021
-1.2375
1.56694
0.188618
-1.39467
2.09425
-1.29571
1.06885
-0.653693
0.599612
0.148928
-3.1876
0.824647
2.0854
-3.33743
1.24123
1.28653
-0.23285
-1.61312
0.219106
0.619688
1.41486
-1.00711
-0.89129
-2.07897
0.343606
1.76042
-0.159897
1.13572
-0.910067
-0.498234
-0.954621
1.69092
-0.669156
-1.35896
1.34427
0.456941
0.575693
-0.405927
1.30418
0.260963
0.696057
0.736995
-0.706615
1.54929
1.79131
-0.981501
2.17489
-0.96112
-0.281779
0.384867
-0.793602
-0.392518
1.13095
0.169103
-2.88119
-0.952216
-0.158245
1.89709
0.29914
-0.374083
1.5679
1.98017
-0.577921
-2.37448
-1.44158
-2.92001
2.40709
0.310511
-0.0566387
0.0584824
1.26468
-0.278385
0.960244
0.0178226
-0.58097
-0.445676
-2.11308
-0.350274
-0.616755
0.0583909
-2.49159
0.431554
-0.682784
-0.945626
0.916689
-1.01443
1.4075
1.11677
-0.201234
-0.21478
-0.856339
-1.26867
1.06583
1.5298
-2.34105
-1.20637
-0.459485
0.433427
-0.324509
0.0803036
1.89965
-0.835538
0.843206
-1.34143
-1.47878
0.79895
-0.190732
-1.33961
-0.592328
-0.0195328
-1.46217
-0.719469
0.17079
-0.476476
0.561453
-1.67972
1.56235
-0.672121
0.410242
0.362347
1.59955
0.461358
0.332955
-2.18421
-0.130169
4.12982
-0.362468
-3.08477
-0.104851
-0.403838
-0.241725
0.538855
-0.190792
-1.68264
-1.22162
1.6969
3.04132
-2.29844
0.665652
-0.323576
-0.471828
1.54361
0.935439
0.634551
-1.32282
0.504259
-1.92739
0.0818006
0.886183
-0.438743
0.388626
1.31953
1.36337
-3.79711
-1.15171
2.342
0.151448
-1.26232
-0.527915
-0.13524
3.07002
-0.250808
-0.525768
0.00297172
-1.98214
-0.297936
-0.508595
0.142263
-1.38279
-0.214004
-2.56227
0.421294
-0.453735
0.795328
-0.616705
1.63629
-0.343301
0.721003
0.150046
0.155052
-0.730899
-1.3001
1.17588
-1.19655
0.485554
1.8363
-1.3585
-0.696394
0.197106
-0.397948
0.714788
0.902218
-0.46453
2.63756
0.608921
2.09737
-2.10577
-0.943807
-1.07009
0.12104
0.394784
-0.931668
-0.157147
2.65855
1.62181
-0.0268957
-2.62924
-0.278844
-0.972935
0.342082
-4.19723
0.639431
0.0789323
0.111256
0.97752
0.538156
0.324796
-0.0382777
-0.267921
0.321704
-1.39212
-1.89729
-0.757724
2.41419
-2.95099
2.07987
3.16334
-2.55823
-0.0209367
-0.797061
1.77769
2.55829
-0.214843
0.742397
0.597273
1.30615
-1.66119
-0.504711
0.211233
0.106413
-1.40491
0.29521
0.179708
-0.780951
2.4836
-0.942386
-0.857518
-0.70226
-0.686663
-0.168044
-2.29163
0.0471926
-0.337041
-1.94069
1.90579
-0.0912281
-0.673107
0.388221
0.867788
-0.353672
-0.949841
0.0235153
0.861112
3.59957
-0.899502
0.284256
0.108809
-1.04703
-0.449282
0.820637
-0.145381
-1.94264
0.447159
-1.68581
-0.0587729
-0.784849
-0.149408
-0.48671
-0.794016
0.63006
0.680501
-0.39363
-0.139024
-0.79682
-3.68778
-0.476826
0.465489
1.08373
-0.574808
-0.279631
0.446733
-0.0220828
0.310844
0.633741
1.11152
-0.817331
0.334238
-1.55316
-0.775209
-0.704032
1.5192
0.55439
1.82928
2.25684
-0.0214107
-1.42327
-1.0489
0.0498778
0.23357
0.055883
2.40166
1.08368
0.434388
-2.11285
-3.46232
-0.71017
0.885928
0.155328
-0.779144
0.135968
2.94069
0.367088
-1.77894
1.02741
1.64633
2.17278
-1.50197
0.499438
-0.269742
0.517661
0.534856
-0.909777
0.756157
-2.67269
-0.347934
0.659348
-0.795557
-1.59906
-0.414417
-0.291161
0.534965
-0.616467
-0.883798
0.780134
0.498994
2.91014
-1.07871
0.0785056
-0.919135
