0.520983
0.0442635
0.0557725
0.21449
-0.115238
-0.380904
0.670477
-0.248931
0.16663
1.08544
0.182376
0.36846
-0.0455858
0.345236
0.109755
-0.228665
-0.346578
0.128479
-0.249023
0.531713
0.326769
-0.17404
-0.317381
0.345079
0.931476
0.343651
0.505225
0.444826
0.609685
0.394255
0.21873
-0.390508
0.0554439
0.233262
0.67665
1.08861
-0.341427
-0.0225852
0.0706972
0.370659
0.716228
0.279877
0.202512
0.552452
0.191589
-0.399401
0.197028
0.311137
0.49254
0.296552
0.369927
-0.113484
0.013341
0.0132641
0.182605
0.47538
-0.222272
0.641948
0.24901
-0.00697205
0.222337
-0.527365
-0.0659722
0.310863
0.610997
0.671164
0.00680294
-0.321013
0.902282
0.0469279
0.241305
-0.469795
-0.179427
0.0843283
0.455025
1.17678
0.555867
0.886683
0.22974
0.106181
0.0500209
-0.316776
0.0114724
0.844259
0.0533238
-0.309184
0.0747421
0.213231
-0.0808544
1.13067
-0.389031
-0.32634
-0.00287893
0.213898
0.417542
-0.286494
-0.225139
-0.180494
0.144977
0.231556
-0.138517
-0.229309
-0.355218
0.303934
1.2399
0.625803
-0.0850715
0.614403
0.763612
-0.219548
0.404128
0.20655
0.364568
-0.43714
0.52997
0.751707
0.0116738
-0.0528998
0.464898
0.171371
0.392758
0.35292
0.167667
0.694404
-0.315213
0.413998
0.294283
-0.155742
0.0116791
0.601087
-0.0904173
0.356921
-0.0873273
0.0593573
-0.0596858
-0.258486
-0.235687
-0.084312
-0.000828357
-0.52704
-0.332794
0.0725869
-0.304185
0.194972
0.797152
0.107173
-0.0689541
0.348585
-0.196988
0.496986
-0.367511
0.292952
0.425709
-0.196571
0.541341
1.03199
-0.410712
0.0196809
-0.097782
0.0130155
-0.0172159
0.43284
0.278955
0.297143
-0.455229
0.380003
-0.467666
-0.264919
0.381045
0.812301
0.388986
-0.171734
0.302232
-0.0700376
0.589947
0.233903
-0.117228
-0.262091
-0.338751
0.263018
-0.398998
0.582871
0.344058
0.673996
0.801006
0.39322
-0.389643
-0.151328
-0.0148866
0.226382
-0.625424
0.332099
0.262805
0.255595
0.434934
0.679919
0.464891
0.322908
0.00776606
0.306741
0.395725
-0.201568
0.0793341
0.149268
-0.612755
-0.602463
0.178951
-0.290477
0.0560854
0.634546
-0.0874222
-0.0182097
-0.26237
-0.437115
0.015857
0.18941
-0.269798
-0.0449235
0.263053
0.281814
-0.312826
0.542064
-0.44042
-0.337008
0.757322
0.817579
-0.177114
0.526041
0.0361642
0.358344
-0.448298
0.203707
0.257543
0.117133
0.782614
-0.0246738
0.336496
0.710246
0.790776
-0.162106
-0.158199
0.216867
-0.0452863
0.683456
-0.127184
-0.300456
-0.294689
0.165259
0.46715
0.71716
0.640723
-0.175535
-0.463205
0.149872
0.506859
-0.304886
0.184802
0.466269
-0.244622
0.136084
0.0692067
-0.136543
-0.569758
0.0827281
0.125149
0.130515
-0.510728
0.472205
0.101326
0.448631
-0.00392141
0.0259342
-0.131818
0.0808999
0.0521792
0.633773
0.0472523
0.309617
-0.106012
-0.106915
-0.0306946
0.362001
-0.0432608
0.236379
0.0174603
-0.349278
-0.0630294
-0.0151438
0.468807
0.11191
0.623075
0.488226
-0.577572
-0.395106
0.569624
0.0416038
-0.727156
0.837254
0.276937
-0.183305
0.276079
-0.270284
0.048147
0.0926191
-0.0060179
0.262121
0.250208
0.254204
0.219715
-0.0967277
-0.569844
0.338725
-0.539703
0.180123
0.447177
-0.221394
0.0303234
0.212118
0.674582
0.361676
0.537778
-0.059828
0.398991
0.49182
-0.309092
0.147068
-0.102008
0.338366
0.345161
-0.0120632
-0.384
0.10608
0.0509493
0.00182121
-0.427226
0.316605
-0.0846574
-0.0754785
0.170846
-0.011878
0.463847
-0.333086
0.101236
0.295869
0.381587
-0.539134
-0.354699
0.35656
0.0519641
0.0787667
-0.25875
-0.337458
-0.345539
-0.188417
-0.31065
0.369028
0.287623
-0.0545478
0.0907633
0.0589942
0.179304
0.0226841
0.163856
-0.339712
-0.747119
0.346908
-0.0425809
-0.0635084
-0.0778268
0.708263
0.350591
0.640686
-0.0644761
-0.518407
-0.345318
0.394505
0.0269839
-0.0535885
-0.0917799
-0.0374172
-0.258542
0.534433
-0.184744
0.0111493
0.569738
0.409808
-0.0134222
0.207434
0.42475
-0.514511
-0.217857
-0.117998
-0.148702
0.261549
0.0546853
0.292158
-0.33592
0.139018
-0.238364
0.319849
0.0941661
-0.0674027
-0.0234754
0.452441
-0.0836998
-0.179038
0.134798
0.194321
0.0973495
0.364413
0.356788
0.590196
-0.0605749
-0.150336
0.115383
0.241793
0.269945
0.41174
0.433034
0.258365
0.0496234
0.572312
-0.0279304
-0.153098
-0.329487
-0.219194
-0.389736
0.806992
0.258409
0.0699892
-0.188544
-0.065334
-0.578101
0.107285
-0.147568
0.0304082
0.0484504
-0.253011
0.21075
0.46281
0.613566
0.0277286
-0.0455611
-0.439073
-0.231548
-0.150318
0.116336
0.0395196
0.451413
-0.163849
-0.0709886
-0.103547
0.265016
-0.348723
-0.334364
-0.0273155
0.0444381
0.0385042
-0.175825
-0.045389
0.37136
0.165227
0.382932
-0.0734299
0.179337
-0.568449
-0.0740011
0.0619913
0.232156
-0.0642675
-0.0196473
-0.15717
0.064065
-0.332029
0.384101
0.204886
0.0225798
-0.0297301
-0.476906
-0.184564
0.073054
0.0943191
-0.184295
-0.52003
0.0574414
-0.395664
-0.39164
0.307753
-0.0908105
0.637093
0.264116
-0.31269
0.097846
-0.527809
-0.341419
-0.0900918
-0.158707
0.0285507
-0.0940115
-0.0472273
0.348239
-0.181894
-0.206079
-0.0717198
-0.496666
0.205116
-0.240062
-0.704218
0.369461
-0.475832
0.380028
0.102568
-0.615814
-0.0158058
-0.522969
-0.187387
0.26684
-0.0929539
-0.383206
-0.370135
0.219879
0.00983078
-0.022003
0.214783
0.00737733
-0.144474
-0.52797
-0.118519
0.563789
0.508153
-0.238731
-0.129473
-0.293708
-0.82744
0.305277
0.561678
-0.165867
0.2723
0.0403742
0.865897
-0.302491
-0.0708597
0.30651
-0.418956
-0.159524
-0.267288
-0.171036
-0.730435
0.0496085
0.209146
0.152953
0.382245
0.370265
0.275881
0.014907
0.235369
0.111667
-0.0559247
-0.46111
0.041108
0.690714
-0.207323
-0.0819872
0.0883484
-0.316642
-0.805706
0.235075
0.0439718
0.106525
-0.0371481
0.469431
-0.176284
-0.703373
-0.881378
-0.435121
0.115623
0.187223
0.20766
-0.356427
0.296436
0.443484
-0.701751
-0.115799
-0.696529
0.316573
-0.205853
-0.557525
-0.35629
0.292742
0.132889
0.0572369
-0.462967
-0.352677
-0.515645
-0.506817
0.259366
-0.0339334
-0.0432239
0.0897128
-0.432663
0.0283396
-0.352601
-0.268964
0.355761
0.0375152
-0.126422
0.154621
0.716407
0.463762
0.300408
-0.0883431
0.477443
-0.449702
-1.01784
-0.425585
0.633527
0.37439
0.43617
-0.203921
0.351805
-0.0376749
-0.342101
0.0365799
-0.285035
-0.490888
-0.603616
-0.624186
0.00226547
0.332772
0.00627474
0.313176
0.0143107
0.105986
-0.483003
0.213682
0.428847
0.355357
-0.174423
-0.405913
-0.460238
0.123072
-0.273287
-0.387603
-0.422251
-0.41017
-0.11037
-0.160192
0.109688
0.75756
0.682628
0.439153
0.321458
-0.495991
-0.51045
0.596207
0.060554
0.294979
0.321107
0.352805
-0.23924
0.0589873
-0.280583
0.129587
-0.409609
0.00576501
-0.684706
0.0871367
-0.27967
-0.204301
-0.0961479
0.647289
0.0970634
-0.324413
-0.544552
-0.166116
0.120833
0.527139
0.1785
-0.0132696
0.378016
-0.148893
-0.0992832
-0.814466
0.491604
-0.383142
-0.239743
-0.259756
-0.439746
0.635931
0.154049
0.0370514
0.253731
-0.560254
-0.635848
0.434669
0.147004
0.0705917
0.150443
0.415331
0.129318
0.136109
0.189107
-0.163423
-0.425329
-0.0963974
-0.588684
-0.256317
-0.00599706
0.54283
0.2134
-0.390262
-0.416093
-0.721218
0.00473506
-0.601686
0.258817
0.488452
0.281617
-0.147491
0.61821
-0.224666
-0.169553
-0.70858
0.50537
0.229771
0.267177
-0.189106
-0.31252
0.489264
0.303495
-0.0710953
0.391729
-0.369517
-0.615693
0.561118
0.323068
0.645698
0.0771398
-0.129323
0.507185
-0.162306
-0.586504
0.0756072
-0.0639833
-0.378031
0.0986228
0.296279
-0.403815
0.382367
0.0369393
0.540878
-0.277535
-0.274111
0.231812
-0.539611
0.276445
0.327541
0.197949
-0.654967
0.629487
-0.239155
-0.285771
-0.979026
-0.464105
-0.116358
0.367188
-0.234171
0.221143
0.677962
-0.131655
-0.366811
-0.201495
-0.178959
-0.353136
0.235714
0.273895
0.41893
0.406525
-0.451994
0.102447
-0.0648962
-0.289073
-0.765479
-0.253572
-0.546757
0.203557
-0.453857
-0.189165
0.078801
-0.235375
0.290372
-0.0294883
-0.697946
-0.589686
-0.347995
0.369565
-0.21959
0.209092
-0.261626
0.120868
0.688704
-0.161771
-0.766547
-0.19036
0.0671
0.370349
0.175921
0.186286
0.00863096
0.126012
-0.144949
-0.304538
-0.919205
-1.3133
-0.0346102
0.210547
0.716019
0.523543
0.0989866
0.355391
0.115225
-0.435928
-0.0954047
0.216095
-0.246414
-0.303852
-0.136336
-0.285799
0.66971
-0.58092
0.698202
-0.747407
-0.171766
-0.284228
0.104819
-0.1256
0.0964925
0.433526
0.196314
0.220058
0.707471
-0.265884
-0.420274
0.196193
0.306851
-0.178648
0.272949
0.252414
-0.094759
0.207087
-0.355906
-0.448578
-0.358849
-0.458125
0.570592
0.0510711
0.58115
0.289703
0.0620051
0.447377
0.119304
-0.181426
0.146053
0.321109
0.360068
-0.584852
0.2112
-0.337025
0.246992
-0.408641
0.656815
-0.650417
-0.24597
0.19825
-0.223996
-0.115799
-0.355863
0.0795797
0.526525
0.168969
0.266979
-0.151417
-0.23407
0.325431
0.603602
0.117452
0.440597
-0.180827
0.574032
0.325605
-0.129136
-0.24646
-0.266196
-0.351275
0.000552291
-0.00773256
0.151513
0.79192
0.822611
0.0558548
0.262729
0.178752
-0.338036
-0.00278327
-0.104953
-0.905497
-0.0610039
-0.386125
0.414364
0.134689
0.63417
-0.0411666
-0.702824
-0.0988702
-0.02366
-0.0965372
0.236772
0.749791
0.414158
0.60478
0.2305
-0.424085
0.467207
0.486107
0.502781
-0.0498693
0.156496
0.468392
0.0650647
0.193098
-0.0840784
-0.42881
0.127576
-0.540254
-0.038595
-0.606078
0.505123
0.027477
0.918949
-0.322927
-0.170631
-0.344134
-0.245879
0.575495
0.245642
-0.870239
0.000278642
-0.29733
0.58145
0.0912777
0.29498
-0.419974
-0.336468
0.226797
-0.168466
0.330165
0.0817798
-0.0114824
0.14905
-0.0471371
0.436454
0.244565
0.604327
0.439435
0.501513
-0.238755
0.486285
0.0898603
0.630014
0.3659
0.230063
-0.55511
-0.169815
-0.258482
-0.221542
-0.236806
0.61041
0.426295
0.46155
-0.375416
0.431671
0.247012
-0.204505
0.738009
-0.133427
-0.200332
-0.121099
-0.0659669
0.230924
-0.178823
0.197352
-0.44665
-0.216203
0.016849
-0.00807574
0.762979
0.015891
0.406485
0.174169
0.120335
-0.298443
0.138642
0.276186
0.213291
-0.240644
0.004228
0.55295
-0.593459
-0.123983
0.334216
0.157087
-0.310412
0.0169363
0.402314
0.109641
-0.741521
-0.330866
0.123712
0.493176
-0.510975
-0.20772
0.307693
0.0397539
0.524983
0.040135
0.197507
0.0755543
-0.332345
0.635557
0.416648
-0.521361
0.116899
-0.134888
-0.0206625
0.0783222
0.182771
-0.326694
0.732746
0.822842
0.199054
-0.253603
-0.220876
0.554639
0.68185
0.354801
-0.0409437
0.222456
-0.606678
-0.320646
0.413959
0.0763533
0.10433
0.0809528
0.727375
0.723444
-0.361821
0.418128
0.214618
0.514427
-0.493748
-0.538362
0.258001
0.114148
0.178899
0.107674
0.461319
-0.396117
-0.520494
0.425567
-0.197888
-0.34858
0.282337
0.340735
-0.142955
0.630524
0.27023
0.19773
-0.0398155
0.341733
0.139119
0.408241
-0.0186458
0.402445
0.0632842
-0.0593506
0.241304
0.325951
0.295758
-0.190378
0.121229
-0.500309
-0.283807
0.424742
-0.26667
-0.0408851
0.287018
0.032954
0.609513
0.600939
0.297416
-0.195204
0.191538
-0.351693
0.604964
0.0758947
0.355424
-0.198676
0.584916
0.250537
0.599204
0.243596
0.125285
-0.3434
0.0995837
0.575499
0.322495
-0.0626177
0.476766
0.602241
0.711185
0.657202
-0.141231
0.760311
0.639237
-0.615014
0.337231
0.766116
0.150292
0.320508
0.271179
0.495963
0.352518
-0.350055
0.292525
0.561949
0.0975736
-0.202245
0.327906
0.491823
-0.325738
0.851709
-0.527757
-0.355507
0.352742
0.483651
0.642318
0.184012
0.135661
0.727146
-0.163626
0.728464
-0.333962
-0.121965
-0.181152
0.0220995
1.12943
-0.182689
0.418061
0.169319
0.253964
0.21
0.0842968
0.92771
-0.0888835
-0.508459
-0.372979
0.487225
0.426079
0.634837
0.345161
0.0962241
0.125401
0.487132
-0.483681
-0.0527632
0.469963
0.0944747
0.167579
-0.0809889
-0.147607
0.336006
0.1526
0.0329969
0.328569
0.860568
0.268251
-0.229726
0.0523566
-0.0249703
-0.0691164
0.716306
-0.42889
0.438353
0.267077
-0.042831
0.953268
-0.402858
0.352909
0.728174
-0.0434233
0.222384
0.0198699
0.780215
0.326961
-0.409367
-0.115587
-0.211955
0.00153918
-0.0998133
0.462537
0.518222
0.358933
-0.100728
0.033687
0.0442245
-0.235532
-0.491542
0.660966
0.517314
-0.0171827
0.323953
-0.269194
0.25359
0.370479
1.25055
0.286619
0.00390921
-0.284955
0.690285
0.235885
0.510327
0.367806
-0.168102
0.119237
0.0425418
0.576319
-0.457534
-0.0953354
0.677473
0.604884
0.221684
0.457775
0.279752
0.928592
0.0121971
0.151386
0.100574
0.0893701
0.06558
0.639765
0.480314
0.018553
0.0427055
0.116895
0.337281
0.453637
0.443745
-0.282017
0.284358
-0.373962
0.591854
-0.134074
-0.556055
0.179154
0.227285
0.796926
0.535507
0.513119
-0.221532
0.620575
-0.39178
0.190308
0.184372
-0.622107
0.518561
0.376102
0.032557
-0.121404
-0.357791
-0.119091
-0.198536
-0.0624568
0.288993
0.768422
-0.314325
0.274049
-0.174964
-0.11835
0.35302
0.233025
0.0649714
0.377877
-0.159353
-0.519227
0.46772
0.386966
-0.14646
0.0960744
-0.478494
-0.228733
0.250609
0.125757
0.0843113
-0.0153885
0.485428
0.318196
-0.334578
-0.24013
-0.0886727
0.178181
-0.506137
-0.0305742
-0.107158
0.207079
0.817085
0.56761
-0.224967
0.718547
0.600082
0.0285408
-0.103942
-0.157807
0.316478
0.371444
-0.481163
-0.463832
0.039259
0.309669
0.459599
0.187741
0.144346
-0.263398
-0.609846
0.203292
-0.0624167
0.512969
-0.457479
0.36547
0.278942
0.0953496
-0.00726127
0.321523
0.0589135
-0.22555
1.06601
-0.049452
0.0862093
0.741715
0.0436112
-0.121107
-0.241232
0.197753
-0.252475
-0.51362
0.39606
0.51334
-0.19512
0.932043
0.0134022
0.208924
-0.34516
-0.049647
0.839905
0.26623
0.108538
0.143268
-0.31467
0.0953056
-0.283271
0.35957
0.00388349
0.197848
-0.39801
-0.173213
0.40772
-0.323267
-0.301618
0.341212
0.0734198
0.36058
-0.330386
0.292905
-0.39602
-0.265016
0.180646
-0.253984
0.42762
0.416078
-0.0441368
-0.0825219
-0.731516
-0.228345
0.237077
-0.289625
0.475119
0.730659
0.448811
-0.143951
-0.0936985
-0.122144
0.335984
0.00453841
-0.015448
0.231315
-0.167585
0.227926
0.280078
0.411533
0.53309
0.23955
0.0465753
-0.436952
0.0406834
-0.0924407
-0.318317
0.433302
-0.523255
0.69642
-0.320163
0.250786
0.390564
-0.391378
-0.451591
-0.634125
0.614195
0.0533603
-0.0872266
-0.0666336
-0.10499
-0.161296
-0.455885
-0.602461
0.316152
-0.228123
0.0719808
0.471237
0.503451
0.384718
0.117893
0.382196
-0.0860628
-0.117916
0.312801
0.259175
-0.121566
0.0525505
-0.618156
0.0399646
-0.171428
0.252289
-0.244875
0.0691794
-0.360024
0.200889
0.00262367
-0.0599296
0.474903
-0.0694102
0.221246
-0.329812
0.695873
0.223828
0.326046
0.0576544
-0.265309
0.00681874
-0.178296
-0.277435
0.0408031
-0.396629
0.283772
-0.522557
-0.406617
-0.203671
0.417057
-0.0494101
-0.394121
0.026014
0.110879
-0.0191696
0.197413
0.439711
0.323568
0.385171
0.172588
-0.576765
0.20032
-0.0380792
0.556028
0.270693
-0.359948
0.491222
-0.556496
-0.0221912
0.126973
-0.0477378
0.247759
0.275892
0.282524
0.340633
-0.031307
0.146728
0.0585889
-0.442514
-0.275969
0.0466843
0.00704852
0.254675
0.387088
-0.13699
0.138496
0.228314
0.049521
-0.458443
-0.477336
0.0837219
-0.210555
-0.385261
-0.174958
-0.272223
-0.369629
0.462484
0.197553
-0.496784
-0.42601
-0.53692
-0.0576815
-0.118577
0.129813
0.451779
-0.221309
0.516459
-0.327147
-0.379635
0.00725423
-0.228205
-0.285467
0.316524
-0.269955
-0.0587898
0.336227
-0.0160728
0.108078
-0.0488851
0.166862
-0.414592
-0.492005
0.100044
-0.157448
0.0915252
0.50336
0.25073
-0.0403196
0.290734
-0.0354782
0.489973
0.25787
0.400096
0.287228
-0.060767
0.348841
0.0444494
-0.353681
-0.0805271
-0.0540432
-0.0982521
0.158872
0.334186
0.694458
-0.0161671
0.258658
0.624979
-0.382355
0.218975
-0.109606
0.227931
-0.549701
0.318422
0.19299
-0.13899
0.433924
0.398624
-0.188219
-0.717716
-0.183466
0.00209425
-0.361471
0.3679
0.266658
-0.196496
0.268825
0.186099
0.216354
-0.037716
-0.239877
-0.0753549
-0.36076
0.242908
0.0104303
0.34047
-0.162116
-0.652734
0.258027
-0.3918
-0.0758496
0.337003
-0.021572
0.0927929
-0.0884425
-0.0532337
0.304179
-0.309469
-0.596397
-0.0301397
0.296218
0.0497288
-0.212711
0.419938
-0.0941969
-0.227702
0.269285
0.207801
-0.20779
-0.340776
-0.0489601
0.104428
-0.718122
0.0992701
-0.192703
0.275345
-0.219422
-0.340069
-0.550466
-0.0832012
-0.401711
0.0284551
0.127711
-0.113016
0.0256784
-0.612478
-0.231683
-0.360487
-0.314565
0.454136
0.0227031
-0.288981
-0.710966
-0.356232
0.266517
0.362805
0.0317721
0.513592
-1.00632
-0.196945
-0.176903
-0.0407861
0.483159
-0.0788321
0.149795
-0.0830513
0.521632
-0.598961
-0.142846
-0.169533
-0.626774
-0.78262
-0.697244
-0.174792
0.470285
0.0368261
0.701628
-0.438824
0.301954
0.0291343
-0.00321541
0.444958
0.00723212
-0.817671
-0.541866
-0.131578
0.823128
-0.219708
-0.12994
0.478767
-0.152946
-0.881411
-0.23585
0.502856
0.3861
0.369034
0.00675352
0.285691
-0.217504
-0.352369
-0.192462
0.728362
-0.150364
0.393602
0.544437
-0.130002
0.762616
-0.178143
0.310569
-0.702777
-0.415736
-0.0926228
-0.505708
0.0407897
-0.177318
0.560468
-0.172727
0.127832
0.199728
0.0771625
-0.352376
-0.0596561
0.295266
-0.0982134
-0.340475
0.0150763
0.13894
-0.277179
0.305663
0.00418574
-0.570865
-0.747029
-0.765049
0.277714
0.163951
-0.304987
0.5648
-0.190537
-0.708765
-0.832657
0.0802559
0.150106
0.0536901
0.0322749
-0.353372
0.578984
0.46827
-0.883797
0.0827565
-0.959851
-0.532753
-0.156405
0.0714424
0.241258
0.397426
0.385855
0.106873
0.0539731
0.216704
0.11154
0.222524
0.129122
0.518821
-0.0576154
-0.832755
-0.326874
-0.614401
-0.149384
-0.544694
-0.235297
0.463123
0.0381724
-0.0498533
0.048118
0.472486
0.160124
0.0267591
-0.389971
-0.927657
-0.689641
0.0105456
0.629702
0.319492
0.691773
-0.0845859
0.160391
0.00187249
-0.627379
-0.11354
-0.178295
-0.28981
-0.402692
0.00501257
-0.311014
0.25926
0.218221
0.0969647
-0.247845
-0.421292
-0.262209
-0.640819
-0.0306885
0.0571258
-0.00471255
0.0467828
-0.407424
-0.547734
0.168376
-1.03068
0.355855
-0.273846
0.0382456
0.168732
-0.297164
0.00475248
-0.313874
-0.390727
-0.312623
-0.597883
-0.393707
0.176623
0.108879
0.0827291
0.39312
-0.405947
-0.169589
0.378075
-0.043346
-0.939415
-0.215663
0.0559226
-0.201018
-0.535226
-0.464017
-0.204098
-0.172499
-0.0875459
0.337879
-0.0273921
0.0248064
-0.457418
0.241707
-0.0734446
-0.258358
0.0421486
0.243727
0.183701
-0.443759
-1.21286
-0.324477
0.137206
-0.0418434
-0.57946
-0.291649
-0.0970586
0.21171
0.468692
0.412308
0.0246946
-0.632803
0.141632
0.244784
0.202911
0.738417
-0.214376
-0.143906
0.234156
-0.686322
-0.0545674
-0.656085
-0.269758
-0.112339
-0.345809
-0.500681
0.166621
0.49228
-0.117415
-0.702924
-0.223012
0.023612
-0.348601
-0.142354
0.230564
-0.14842
-0.699656
-0.202291
0.0162622
-0.0597808
-0.542802
0.142982
0.430612
-0.211201
-0.000331256
0.415584
0.531425
0.472256
-0.175171
0.13658
-0.657368
-0.908858
0.701251
0.646079
0.130152
0.488331
0.325268
0.546209
0.200509
0.220831
-0.2213
0.0477798
-0.312483
-0.0521682
0.054939
0.0614709
0.28577
0.186972
-0.0616732
0.183815
-0.261685
0.225771
-0.531398
0.123701
0.374862
0.406798
0.475643
0.571156
0.52689
-0.156585
-0.143739
0.172686
0.511541
-0.249244
0.534452
0.4142
-0.308275
0.238585
-0.328242
0.3174
-0.852862
-1.05567
-0.249606
0.771451
-0.0856903
0.453261
0.00791491
0.134691
0.675245
-0.168744
-0.110063
0.356431
0.082908
-0.687651
-0.312843
-0.166556
0.230141
0.342198
0.40995
-0.120039
-0.0763163
0.434683
-0.00692407
0.151839
0.110537
-0.195376
-0.262521
-0.323893
0.308856
0.141189
-0.127467
0.316251
0.621857
0.105803
0.097352
0.671163
0.0748874
0.0833546
0.335951
-0.475003
-0.867108
-0.528757
0.0758579
0.326239
0.866214
-0.148048
0.273473
-0.219409
-0.0371456
-0.0176719
-0.0124273
0.142403
0.0539312
-0.408232
-0.372413
0.158994
0.0701761
0.328907
0.0139366
-0.146607
-0.151999
0.23013
-0.167751
0.401957
0.40953
-0.112911
0.284855
-0.148279
0.237549
0.413648
0.0846879
0.506315
0.611033
-0.0467233
-0.289938
-0.147208
-0.140713
0.363184
-0.00822689
-0.07753
-0.372351
-0.611219
0.246412
-0.261687
0.283809
0.409741
0.46695
0.227123
-0.0783793
-0.400539
-0.1443
-0.151991
-0.313282
-0.710935
-0.0692724
0.382865
0.236982
-0.650788
-0.29863
-0.110205
0.0797255
0.159735
-0.337676
0.466607
0.441195
-0.20946
0.602761
0.0399408
0.0611022
0.425992
0.171528
0.078183
0.297658
-0.127302
0.0225938
-0.11886
0.0911704
0.0951427
0.118866
-0.452621
-0.168879
-0.951187
0.0539003
0.102282
0.559123
0.480755
0.708374
0.337386
-0.00347311
-0.342064
-0.0606744
-0.0196438
-0.033903
-0.187909
-0.248151
0.20382
0.310988
-0.563396
0.273424
-0.0329782
-0.194043
-0.257107
0.2578
0.107703
-0.304389
0.306111
-0.119254
0.0387352
-0.132206
0.090139
0.429265
0.331093
-0.140362
0.0345266
0.58165
0.251985
-0.0180639
0.329598
-0.19626
-0.181337
-0.262311
-0.0792733
0.122204
-0.886202
0.533359
0.481194
0.754081
-0.448945
-0.342777
0.270122
-0.247042
0.645088
-0.0997574
-0.398161
-0.207178
-0.68806
0.268725
-0.0455945
-0.273977
-0.0351483
0.57409
0.406228
0.0742107
0.710786
0.0657435
0.39875
0.428264
0.380643
-0.153471
-0.783256
0.160968
1.08543
0.15137
-0.225707
-0.0908055
-0.627498
0.22517
0.64538
0.00821336
-0.469306
0.0173835
-0.118636
-0.0596997
0.107268
0.097704
0.44386
0.532287
0.114598
0.32892
0.40604
-0.340691
-0.11101
0.16496
0.00600526
0.196605
0.0796715
0.103832
0.308437
0.0189557
-0.401225
-0.145692
-0.576639
-0.174909
0.676116
-0.00734739
0.420104
0.0677949
-0.530522
-0.34882
-0.295708
0.486818
0.320886
0.424332
-0.652539
-0.0603886
-0.681615
-0.25749
0.300845
0.229171
-0.112581
-0.210682
0.637073
0.144346
-0.18277
-0.142229
0.0307039
0.348817
-0.129356
0.176491
-0.236239
0.173793
-0.617958
0.22553
0.0233712
0.26375
-0.132226
-0.168834
0.431159
0.188725
0.223687
0.048261
-0.289582
0.518527
0.220976
-0.601409
0.840089
0.110443
0.417904
0.145994
0.270734
0.246012
0.359612
-0.123482
-0.449075
0.221513
0.325493
0.0611233
0.755068
0.0903164
0.531454
-0.130231
-0.0995427
0.057425
0.374128
-0.202766
0.160693
0.0959413
0.168616
0.259679
0.649174
0.227607
0.468185
0.36396
0.52928
0.331247
-0.134314
0.359234
-0.0234887
-0.160284
-0.0734904
0.0167727
-0.499036
-0.249595
0.461288
-0.245028
0.105327
0.916747
0.39181
0.970474
0.0286278
0.606503
0.215237
-0.173442
0.183561
-0.258252
0.0445672
0.662955
0.463719
-0.414941
0.358772
-0.135274
-0.548405
-0.40075
-0.278576
-0.209129
0.84114
0.469338
-0.357197
0.463581
0.165908
-0.469967
-0.0387923
1.22092
0.166739
-0.42697
-0.0401272
0.458192
-0.342757
-0.0508865
-0.0676664
0.50351
0.137255
0.284515
0.426279
0.403848
0.688941
0.448874
0.627356
0.966283
0.137703
0.145124
0.340977
-0.293511
-0.0578332
0.0558451
-0.241669
0.592988
0.861066
-0.0696175
-0.0661813
0.401761
-0.151489
-0.0268281
0.164564
-0.0261088
0.825445
0.429896
-0.339882
0.290094
0.183444
-0.0681706
0.478977
1.0494
0.230681
-0.170466
-0.276753
0.51648
0.30091
0.415439
0.0042488
-0.108927
0.23629
-0.111872
0.82183
0.406686
0.405531
0.895171
0.520509
0.584003
0.42696
-0.115023
0.120542
0.174924
-0.342671
0.111085
0.438201
0.617034
0.902709
0.279966
-0.442394
-0.416513
0.253315
0.0254941
-0.371361
0.329511
-0.506063
-0.500064
-0.0679686
-0.099568
1.18754
0.111434
-0.382384
0.89091
0.830092
-0.389994
0.188405
0.49071
0.286533
-0.53527
0.142202
0.261805
-0.382047
0.0168082
0.476271
-0.245254
0.489488
-0.264638
-0.0265881
0.54189
0.647153
-0.235329
1.09926
0.102101
-0.299605
-0.261834
-0.295639
-0.29211
1.12477
-0.0154868
0.117211
0.0237186
0.596974
-0.154098
-0.312985
0.474502
-0.478151
-0.730182
-0.438079
0.309697
0.667395
0.161019
0.166831
1.1008
0.211967
-0.0877487
0.221445
0.324924
-0.0742877
-0.159043
0.654724
0.048358
-0.457551
0.671391
0.469205
0.280238
0.0342875
-0.677929
0.185907
0.165789
0.53376
-0.315243
0.492052
-0.507813
-0.335509
-0.242664
-0.120453
0.446635
0.141848
0.0418421
-0.382612
-0.319934
0.266213
-0.0144574
-0.177982
0.490733
-0.596794
-0.665484
0.00547023
-0.482172
0.792205
-0.170107
-0.470359
0.766419
0.383984
-0.52282
-0.00967529
0.230938
-0.343455
-1.01607
0.111148
0.32105
0.109664
0.871471
0.443818
-0.138707
0.629941
-0.0413607
-0.319887
0.31963
0.0712888
0.0134182
0.545813
-0.545201
0.147471
-0.317039
-0.141194
0.238003
0.572331
0.105027
0.132871
-0.0905478
-0.0732977
0.255222
-0.351699
0.16393
0.472402
-0.855962
-0.0407929
0.000109363
1.08694
-0.0869536
-0.549325
0.379334
0.685646
-0.040104
0.388955
-0.489435
-0.0764696
-1.17728
-0.0562576
-0.428621
0.221804
0.0735807
-0.0524971
-0.188189
0.202685
-0.212344
-0.141493
0.365441
0.153503
-0.252708
0.167639
-0.777723
-0.307036
-0.633546
-0.413091
0.0956706
0.75543
0.459482
-0.120368
-0.665493
-0.0218508
0.289072
0.135592
0.328367
-0.169389
-0.115503
0.104784
-0.564274
0.821865
0.3379
-0.387371
0.093031
0.174163
-0.0889086
0.0313217
0.065929
-0.387816
-0.318803
-0.0363566
-0.0645176
-0.447833
0.362949
0.0685717
0.146615
-0.306229
-0.581804
-0.154301
0.180109
0.217961
-0.0720343
-0.222472
-0.185926
-0.520904
-0.890701
0.378194
-0.0735382
0.504206
-0.268601
0.219969
-0.428122
0.132234
-0.34383
-0.373616
0.15035
-0.355358
-0.448029
-0.230528
-0.0275864
0.462713
0.35837
-1.22158
0.112872
0.150612
-0.121034
0.205864
0.407069
-0.679727
-0.506006
-0.533367
-0.763984
-0.0725586
-0.0292493
0.455336
-0.369881
-0.228293
-0.700415
0.086457
-0.194559
0.347678
-0.12678
0.938055
-0.0158203
0.324905
-0.473309
-0.111796
-0.309281
0.200163
-0.321506
-0.228992
-0.834944
-0.480115
-0.545236
-0.237353
0.266312
-0.453124
0.0740296
0.448948
-0.270794
0.202496
0.0602258
-0.709971
0.0221621
-0.191779
-0.851669
0.032817
0.311428
-0.600757
-0.706831
-0.0247786
-0.95885
-0.598273
0.671537
1.06087
-0.500755
0.26941
-0.411186
0.47398
-0.0928647
0.0808151
-0.717076
0.0211843
0.532905
0.374979
-0.220816
0.130405
0.318256
0.0579707
-0.394581
0.372785
-0.950123
0.219173
0.159987
-0.110552
-0.51443
-0.673259
-0.686193
-0.043203
-0.136681
0.0215389
0.0138544
-1.29979
-0.314746
-0.380226
0.251852
0.121656
0.440053
-0.336694
-0.164333
0.250869
-0.311991
-0.521072
0.204413
0.338695
0.213062
-0.269094
-0.974538
-0.515682
0.509538
-0.0893472
-0.0544356
0.289545
-0.301353
0.299628
-0.368567
0.316878
0.724742
0.936589
0.124979
-0.14241
-0.459634
-0.0666176
-0.118993
-0.0267194
-0.981518
-0.578903
-0.533069
0.216199
-0.230483
0.643143
0.159404
-1.18276
0.0870246
-0.229717
-0.565064
-0.250727
0.53785
-0.716453
-0.432631
-0.0806569
-0.572465
-0.493352
0.229363
0.671568
-0.297857
-0.00286153
-1.35231
0.290041
0.837991
0.55142
-0.0691674
0.0348547
-0.0103071
-0.0475655
-0.593106
0.0655768
0.418934
0.265792
-0.466778
0.799956
-0.687257
-0.256966
-0.0990742
-0.140182
-0.481756
-0.744777
-0.578207
0.101699
0.0605487
0.810074
0.0318101
-0.806547
-0.411325
-1.05029
-0.0846824
0.139868
-0.363893
-0.618937
-0.963763
-0.244979
-0.0535377
-0.318687
-0.136796
0.526698
0.405663
-0.323397
-0.970375
0.168818
1.13472
-0.25141
-0.567087
-0.0850039
-0.489988
-0.490739
-0.516864
0.0696232
0.233962
0.398414
0.308256
0.160152
-0.867646
-0.841587
0.100742
0.427524
0.289898
0.0381689
-0.457782
0.0267306
0.124786
0.453295
0.226822
-1.92637
-0.0704086
-0.815535
-0.349133
-0.132699
0.691173
0.116056
-0.555099
0.0287026
-0.495804
-0.541453
0.121005
0.357456
-0.275208
-0.156107
-1.5709
-0.102457
0.500372
0.280152
-0.102157
-0.238542
-0.205316
-0.0356195
-0.377969
-0.655797
0.836759
0.346132
-0.151041
0.29308
-1.31078
-0.948692
-0.00436399
-0.094174
-0.282809
-0.688933
-0.789634
-0.129622
-0.142331
0.31151
0.307585
-1.30734
-0.0304646
-0.917728
-0.433463
-0.495673
0.536999
-0.567644
-0.203056
-0.0283273
-0.358642
-0.167685
-0.598568
0.237905
-0.147426
0.194918
-1.48572
-0.680277
-0.270557
-0.185123
-1.09117
0.109328
0.0148366
-0.346228
0.190758
-0.123365
0.518436
0.20291
-0.314965
0.164586
-1.20218
0.0779672
-0.155428
0.313691
-0.180236
-0.421581
-0.277134
-0.263358
-0.108372
0.634909
0.143459
-0.801448
0.336498
-0.317161
-0.527362
0.0869174
0.121167
-0.245699
0.00223383
0.0262613
-0.130783
0.0990518
0.202902
0.671271
0.699308
-0.321414
-1.05837
0.0768964
-0.261619
-0.519972
-0.706261
-0.19301
-0.236093
-0.423419
-0.579887
0.065203
0.687445
0.880446
0.161455
0.0966201
-0.737779
-0.166709
-0.215888
0.133305
0.445245
-0.234632
-0.553666
-0.268944
-0.406769
0.373549
-0.0778565
-0.636957
0.554398
-0.793577
-0.378828
-0.41279
0.327908
-0.393346
-0.018155
-0.405538
-0.486742
0.0916624
-0.22751
0.2257
0.504157
-0.13072
-0.439916
-0.128122
-0.0847377
0.0786827
-1.51966
0.182909
0.608124
-0.0965227
-0.604394
-0.0766528
-0.0360198
0.800071
0.349799
0.411108
-1.67431
-0.694076
0.304702
0.162193
0.749839
0.157659
-0.3483
-0.178209
-0.410993
-0.172307
-0.571535
-1.29097
-0.197435
-0.807281
-0.140441
0.243788
0.0535732
-0.456402
0.654481
-0.452267
-1.22725
-0.175857
0.0884439
0.413129
-0.142431
-0.164698
-1.34592
0.0576483
0.0532285
-0.252032
-1.55578
0.388612
0.330378
-0.275514
-0.566614
-0.205988
0.0734357
0.442716
-0.141177
0.295477
-1.04505
-0.460368
0.498035
-0.298294
0.343404
-0.883373
-0.333915
-0.392334
0.156494
0.12526
-0.738076
-0.978345
0.304748
-1.30485
0.0499468
-0.355266
0.206602
-0.43785
-0.00619869
0.412487
-1.22835
-0.273731
-0.0220053
0.247794
0.176701
-0.0508775
-1.21556
0.597923
0.114156
0.161944
-1.20278
0.443793
0.959192
-0.143774
-0.279714
-0.222055
0.288506
0.209912
-0.346245
0.374688
-0.590932
-0.381297
0.270777
0.33495
0.838027
-0.161107
0.223551
0.345429
-0.0197836
0.026767
-0.119843
-0.734626
-0.490348
-1.3221
-0.0654394
-0.045339
0.332676
-0.882134
0.0591814
-0.0208849
-0.676026
0.434626
0.234485
0.398962
-0.0386677
-0.242612
-0.822294
0.129262
0.605072
-0.25053
-1.2428
-0.0370256
0.644243
0.193569
-0.470807
0.10497
0.226307
0.684062
-0.249877
0.419655
-0.563878
-0.215275
-0.340187
0.455535
0.277331
-0.725676
0.196898
-0.191224
0.281688
-0.88217
-0.354169
-1.1523
-0.351543
-1.16586
-0.791607
-0.356898
0.161672
-0.453402
-0.304744
0.0629312
-0.327534
-0.362636
-0.0691865
-0.0757322
0.152046
0.163395
-0.631424
0.334718
0.0664053
0.0571474
-0.955988
0.458176
0.759617
0.169611
-0.528222
-0.472529
0.596433
0.369311
0.0140801
-0.232119
-0.874942
0.00967565
0.282037
-0.582054
0.879387
0.139021
-0.318072
-0.484075
-0.778139
-0.14784
-0.220359
-1.11543
0.192983
-0.876539
-0.66778
-0.38746
0.355728
-0.113701
-0.581837
-0.0402917
-0.887606
0.128967
0.38924
0.489324
-0.243258
0.293284
-0.675774
0.385321
-0.0967297
0.0760229
-0.581325
0.0587869
0.890225
-0.508862
-0.164368
-0.179268
-0.139672
0.272033
0.228795
-0.31012
-0.657162
0.089685
0.0273428
-0.160356
0.900288
0.171029
0.392669
0.0931423
-0.0738889
0.0407785
-0.404419
-0.713334
0.276074
-0.680175
-0.293533
-0.988753
0.624435
-0.0841649
-0.527039
-0.028148
-0.598602
0.243227
0.0484361
0.288362
-0.483504
0.313551
-0.658501
0.141287
-0.526201
-0.425039
-0.23758
0.434289
1.19535
-0.054356
-0.277377
-0.100282
-0.252072
0.191339
-0.490131
-0.383167
-0.564974
-0.0961269
0.642586
-0.444578
0.134605
-0.0384465
0.38324
-0.1735
-0.167842
-0.00679893
0.256248
-0.476285
0.00994274
-0.547666
-0.375209
-0.242716
0.147542
-0.331755
-0.68337
-0.210844
-0.100745
0.0384075
0.239985
-0.296567
-0.253055
-0.44369
0.160201
-0.0724757
-0.779339
-0.225439
-0.148893
0.370785
1.2688
0.347465
-0.610476
-0.288771
0.566694
-0.0857277
-0.337142
-0.431278
-0.18752
0.532873
-0.113684
-0.687166
0.512227
0.00696426
0.78047
0.0240873
-0.19272
-0.0763979
-0.526444
-0.459971
0.489673
-0.736075
0.31566
0.0517938
-0.21114
-0.152082
-0.31643
-0.0315664
-0.00597448
0.164964
0.0778367
-0.0338552
0.0874184
0.261982
-0.469181
-0.279334
-0.36322
0.221933
-0.321565
0.804732
1.7986
-0.046196
-0.478944
-0.182881
0.037087
-0.191004
0.0928344
-0.760482
-0.0470793
0.0738573
0.257525
-0.939065
0.342472
-0.637908
0.129792
-0.446014
-0.817389
0.364458
-0.408768
0.321358
-0.667568
-0.550107
-0.160614
0.320825
0.172384
0.181391
-0.0830168
-0.162442
-0.123807
-0.170987
0.366872
0.0746542
-0.390007
-0.0763537
0.0530776
0.139941
-0.647128
0.336068
0.552862
0.907951
1.64661
0.156017
-0.435518
-0.967985
0.0939447
0.152513
0.206107
-0.252391
0.470088
0.649817
0.492824
-0.668375
0.849433
-0.649824
0.0337324
-0.179388
-0.520433
0.0325477
-0.0279718
0.488603
0.0715509
-0.778104
0.217818
-0.108847
0.297419
-0.145335
-0.865053
-0.14476
-0.445911
0.184337
0.533795
-0.192026
0.190464
-0.0421909
-0.597331
-0.56566
-0.247685
0.487616
0.0746685
0.554623
1.08428
0.0789749
-0.326609
-0.379286
-0.347389
0.469371
-0.321806
-0.0884799
0.180234
0.703911
1.00146
-0.563443
0.379384
-0.720627
-0.257772
-0.887445
-1.2115
0.410461
0.0828753
-0.200844
0.480896
0.310584
-0.244972
0.528273
-0.298767
-0.164646
0.291938
-0.0753082
-0.0468487
-0.443625
0.766858
0.214216
-0.479118
0.300765
-0.353421
-0.39007
0.111686
-0.199102
0.532086
-0.194181
-0.441204
0.278336
-0.668567
-0.540449
0.223736
0.625613
-0.597439
-0.111734
0.413484
0.54004
0.130374
-0.384423
-0.0970613
0.437861
0.0305396
-0.222925
-0.843934
0.184206
0.112555
-0.265437
0.697368
0.0348565
-0.415433
0.963807
0.234681
0.197042
-0.566409
-0.0811421
0.0413133
0.0982534
-0.0194896
0.429529
0.0157374
0.61099
0.116858
-0.450088
0.664279
-0.347895
0.675185
0.221337
-0.357626
-0.392121
0.469062
0.370536
0.575553
0.638818
-0.447798
-0.241615
-0.273283
-0.00481677
0.193112
0.240684
-0.433435
0.325573
-0.220137
-0.0993781
0.117345
0.241381
0.0689521
0.686807
0.795581
0.773912
0.249728
-0.111088
-0.139176
0.123103
-0.284112
-0.08797
-0.170452
-0.543734
-0.0171047
-0.0937341
0.230129
0.252249
-0.197222
0.00581049
0.652791
-0.064832
0.0306981
0.847018
-0.725361
0.0217745
0.313249
-0.0989719
-0.16138
0.035324
0.117535
0.254968
0.272515
-0.346682
-0.258816
0.183969
0.00237893
0.523016
0.0278872
-0.30755
-0.00392153
0.068939
0.349558
-0.17113
0.194173
0.213639
0.314401
0.536911
0.422626
0.112147
-0.0583112
-0.078255
0.150549
-0.147665
-0.176503
0.650281
-0.104541
0.852155
-0.107345
-0.20219
0.509998
-0.265015
0.196955
0.207814
0.148993
0.0917207
0.0115928
0.0659833
0.163799
0.0609921
0.636089
0.367044
-0.54083
0.441349
0.647447
-0.381043
-0.432726
-0.61496
0.296388
-0.129868
-0.497126
0.7536
0.314987
-0.0550951
0.357911
0.481861
-0.205531
-0.196972
-0.159021
0.302849
-0.365362
0.195467
0.0915011
-0.2206
0.612017
0.566687
-0.136278
0.610016
0.283867
0.0527569
0.585143
0.21015
0.138646
0.255043
0.152167
0.342878
-0.499641
-0.1749
-0.393334
0.682532
0.126178
-0.0596384
-0.520263
-0.10404
0.11306
-0.155721
-0.38569
-1.15779
-0.599591
-0.457978
0.243582
0.543094
-0.108996
-0.53131
-0.28643
0.435363
0.245577
0.482821
0.160226
-0.0149115
-0.355766
-0.245157
0.232999
0.00226995
0.487843
-0.105675
0.0801308
0.294934
-0.425807
-0.0281773
-0.00394691
0.267735
-0.336928
0.377789
0.258477
0.436609
-0.855763
0.0358713
0.231623
0.332759
-0.200658
-0.145581
-0.324766
-0.573729
0.235282
0.00936753
0.212376
-0.520724
-0.1026
-0.143064
-0.572677
-0.576766
-0.304024
-0.0185586
0.213778
0.695587
-0.811949
0.0895177
0.123599
-0.276162
-0.214173
-0.444674
-0.142197
-0.0410179
-0.0952303
0.170523
-0.0100994
-0.153138
-0.0625532
-0.19716
-0.114047
0.511182
-0.120573
0.0284799
-0.568417
0.388636
-0.818866
0.361179
0.123542
0.524438
0.00242785
0.0957103
0.184466
0.124971
-0.108765
0.144462
-0.0944617
-0.387781
-0.0312545
0.182521
-0.484226
0.0394541
0.24736
-0.23144
-0.196528
0.121092
-0.351684
0.379604
-0.108132
-0.590485
-0.294663
-0.546753
0.288983
-0.351471
-0.13131
0.724352
0.449076
0.117335
-0.190826
-0.210191
0.337165
-0.134693
-0.411478
0.133837
0.185596
0.0922195
-0.773598
-0.494559
0.216391
0.141119
0.0441637
-0.270383
-0.0849416
-0.345046
-0.0625501
0.288428
-0.208064
-0.446808
-0.912183
0.176815
-0.128457
-0.195034
-0.173153
-0.756101
0.337692
0.813229
0.0690392
-0.270302
0.478784
-0.0756421
-0.21675
0.188223
-0.368151
-0.0062353
0.610249
0.0579239
0.164319
-0.177711
-0.314621
-0.46145
0.254344
0.25429
-0.205958
0.228127
0.149267
-0.323108
-0.850357
-0.421995
0.474611
0.895553
-0.700746
-0.353063
0.120338
-0.486297
-0.210187
0.136848
0.3991
0.504418
0.0226985
0.123439
0.339199
-0.0800588
-0.458999
0.0121092
0.338753
0.757165
-0.356147
0.25626
-0.414755
-0.101909
-0.67459
0.329805
-0.0276084
0.0497591
-0.316986
0.356015
-0.610846
-0.0491755
0.160761
0.15588
-0.113488
-0.404414
0.25916
0.484143
0.0154852
0.0867541
-0.28508
-0.525084
0.163173
-0.0805417
0.0402006
-0.141514
-0.200749
0.15972
-0.562067
0.159028
-0.410113
0.154681
-0.423714
0.196758
0.235277
0.390636
-0.295499
0.0296731
0.386355
0.0917343
-0.358882
-0.355666
0.427079
-0.699328
-0.104063
-0.151495
-0.710486
-0.347223
0.207616
0.0614018
-0.642974
0.161334
-0.292848
0.117348
0.00934578
-0.509616
0.195679
0.199743
-0.151398
-0.234086
-0.716865
0.10771
-0.53547
-0.239978
-0.683847
0.0456012
-0.347273
0.458199
-0.698092
-0.463238
0.444166
-0.217944
0.251053
0.12624
0.0259027
0.362051
0.261843
-0.174367
0.344523
0.131728
0.0293856
0.232902
0.45788
0.222081
-0.87235
-0.363051
-0.431634
0.131182
0.294322
0.0842129
-0.305447
-0.384088
-0.880901
-0.398533
0.577218
-0.000601809
0.218715
-0.20574
0.0809696
-0.0579131
-1.14624
-0.11578
0.106186
0.0849926
-0.130455
-0.0742365
-0.0487407
-0.280748
-0.296095
-0.228108
0.0406709
-0.233044
-0.408815
0.220146
-0.153586
0.303518
-0.318152
-0.768596
0.375489
0.153911
-0.245389
0.517798
-0.0407592
-0.557816
-0.686417
0.166201
0.141958
-0.463913
0.472769
0.0277125
-0.442329
0.434506
-0.120684
-0.229744
0.20374
0.128453
0.113089
-0.296839
-0.243298
0.0129298
-0.52968
-0.583961
0.0518009
0.185787
0.190427
0.537483
-0.69896
-0.020171
-0.413607
-0.0917998
0.0883633
0.348914
-0.0936813
0.0441927
-0.037445
-0.0359385
-0.123036
0.020052
0.302229
0.7222
-0.571766
0.303684
-0.220641
-0.309725
-0.474796
0.179777
-0.239771
-0.434615
-0.126703
0.174639
-0.283517
0.114079
-0.981688
-0.586099
0.00795781
0.186609
-0.363952
0.156087
-0.891404
-0.142065
-0.318618
-0.143277
0.483966
0.268936
0.0794178
0.58732
-0.06497
0.20235
-0.327406
0.577996
-0.596234
-0.321394
-0.218865
-0.274352
-0.0431343
0.527794
-0.279972
-0.731719
-0.248372
-0.35954
-0.370494
0.582753
0.399155
-0.140518
-1.25599
0.522257
-0.206866
-0.196574
-0.278422
-0.120931
-0.522497
-0.310044
-0.687255
0.423468
0.261643
-0.321831
-0.386199
0.46344
-0.0858968
-0.279229
0.0749154
-0.198984
0.537294
-0.0171504
-0.0753548
-0.303041
-0.548446
-0.428387
0.293691
0.207177
-0.365601
-0.508895
-0.108968
0.0846993
0.495331
0.332726
0.19051
-0.612869
0.0739046
-0.162987
0.535711
-0.497579
0.0211315
-0.450188
-0.44946
-0.367674
-0.341692
0.0548055
-0.349748
-0.146805
0.352253
0.0835373
-0.678859
-0.10957
0.357481
0.0437857
-0.525878
0.402168
0.445389
-0.727899
0.132425
0.121574
0.0896515
-0.296878
0.181008
-0.0871361
-0.853986
-0.190004
-0.0331616
0.263026
0.137143
0.236063
0.220175
0.0522066
0.144446
0.100498
-0.0880946
-0.0753495
0.46467
-0.307644
-0.252741
-0.559038
-0.14136
0.0522223
-0.399087
0.240461
-0.0457437
0.143876
-0.0014382
0.191812
0.238691
-0.151088
-0.517179
0.258659
0.664479
0.270747
-0.345554
0.347052
0.225084
-0.401999
0.480812
0.921367
-0.0836604
-0.118339
-0.800987
-0.156991
-0.453854
0.134548
-0.22732
0.257534
0.216366
-0.0398948
-0.0563271
0.143847
0.297184
-0.524698
0.0295052
-0.173224
-0.314071
-0.97199
-0.0605394
-0.376837
0.27551
0.248361
-0.261491
-0.368801
-0.247883
0.097183
-0.391706
-0.128032
-0.476212
0.0830401
-0.0955705
-0.347022
0.388155
-0.0385145
-0.378644
0.224399
-0.320654
0.0203959
0.219512
0.172009
0.349392
0.233229
-0.326576
0.305831
-0.314271
-0.151803
-0.135506
0.197371
0.058789
-0.349562
0.385756
0.386802
0.219838
-0.106738
-0.515249
-0.0710389
0.132149
-0.343189
-0.150562
-0.262364
-0.210874
-0.248206
0.257977
-0.211518
-0.268499
0.100695
-0.222528
0.392466
0.218918
0.371711
-0.374432
0.00119802
-0.446947
0.111232
-0.589914
0.331864
0.0495779
-0.403638
-0.0376927
-0.191658
-0.662859
-0.375874
-0.0375199
0.290199
0.081893
0.404375
-0.329261
0.625349
-0.0993683
0.054472
-0.0154527
0.0234997
-0.18093
0.481528
-0.356755
-0.0422564
0.102241
-0.149928
0.181865
-0.331808
0.447832
-0.495371
0.147836
-0.0944943
-0.361009
0.0739768
-0.359557
-0.473145
0.0529958
-0.0843381
0.282565
0.474342
-0.355917
0.568424
-0.6046
0.157098
-0.606811
-0.459792
-0.136295
-0.187076
-0.386712
0.161777
-0.655196
0.0547024
0.415102
0.336365
0.367719
-0.117837
0.0684096
0.216428
-0.225581
0.360189
0.779989
-0.250291
-0.258652
-0.023385
-0.260651
-0.229584
-0.268217
-0.00193503
0.110973
-0.537391
-0.178869
-0.0378102
-0.296322
-0.278278
-0.164553
0.348231
0.464736
0.18678
-0.0907105
0.0581803
-0.144095
0.458042
-0.360005
-0.215649
-0.401551
-0.126016
0.24703
0.185378
-0.361233
0.231066
-0.622601
0.348039
-0.0735861
-0.171815
0.304452
-0.158984
0.253484
-0.26048
0.366944
-0.509013
-0.101549
0.0235323
-0.259201
-0.157901
0.145961
-0.399159
-0.222021
-0.446873
0.398141
0.302863
-0.433436
-0.029506
-0.721927
-0.543376
0.155581
0.21388
-0.230576
0.486323
0.468382
0.530723
-0.57769
-0.324129
0.230402
-0.22771
-0.144528
-0.0730581
-0.301999
-0.342732
0.133759
-0.0762167
-0.1119
-0.0429373
0.262912
0.211488
0.293324
0.419227
0.616804
0.395194
0.278289
0.330811
-0.199839
0.732811
-0.38264
-0.277382
0.461978
0.116107
-0.226973
-0.908677
0.326972
-0.0163227
-0.0855611
-0.45088
0.0861985
-0.566329
0.338599
0.293227
0.0702886
0.057451
0.429159
0.216015
-0.145631
0.203964
0.674073
-0.511007
0.699299
-0.00850631
0.305719
-0.257592
-0.368165
-0.0607959
-0.0511318
0.383814
0.0818731
0.114664
-0.0297042
-0.180761
-0.176032
-0.105065
0.492229
-0.221074
-0.438628
0.0467891
0.339367
0.483079
-0.167207
0.0786617
-0.590702
-0.74368
0.461479
-0.22219
-0.477157
-0.261597
-0.447095
0.116457
0.498247
0.0356576
-0.345835
0.310037
0.562168
-0.496835
-0.425648
0.392153
0.170429
-0.0774865
0.228916
0.187272
-0.031683
-0.465337
0.149482
-0.193181
-0.542845
0.60561
0.31038
0.0235312
0.342496
-0.57388
0.524807
-0.0681675
-0.0413972
-0.248955
-0.554241
0.565012
0.416336
0.213691
-0.293147
0.326162
0.0273894
-0.776747
0.815341
0.13057
-0.165746
0.071974
-0.475658
-0.0325744
0.505893
0.584963
-0.329914
0.353785
0.177062
-0.31321
-0.644681
0.43115
0.219938
0.33225
0.378818
-0.607173
0.315262
-0.757137
0.260862
0.321129
0.0791143
0.125076
0.153432
0.644546
-0.471314
-0.727516
0.314537
-0.217284
0.268221
0.317155
-0.580434
0.332272
0.311007
-0.0946501
0.0621323
-0.278762
-0.325503
-0.059394
0.861458
0.0724671
-0.197031
-0.0927346
0.0977967
-0.10937
0.162987
0.0508358
-0.950741
0.561145
0.409247
-0.140779
-0.321036
-0.0980247
-0.1543
-0.468598
0.822928
-0.14667
-0.0552609
-0.55535
-0.0872436
0.386258
-0.575154
0.0707268
-0.148911
1.07556
-0.155666
-0.498424
0.536724
-0.0795125
0.238618
-0.137803
-0.220163
0.0234769
-0.459539
0.319052
0.12413
-0.476429
0.440391
-0.757309
0.314046
-0.14043
-0.140156
-0.16049
0.326152
-0.266066
0.803263
-0.00855697
-0.697828
0.0913224
-0.665503
-0.627275
-0.324373
0.419084
-0.0642593
-0.0151145
0.707839
0.408104
-0.419733
-0.146685
0.204209
-0.337444
-0.21472
0.130446
0.436454
1.0677
0.00911676
0.0279047
0.0109003
-0.649582
-0.398754
-0.580011
-0.395751
-0.19117
-0.115828
-0.3897
-0.477051
-0.155148
-0.287694
-0.331901
-0.24483
0.0955767
-0.34452
0.15103
-0.534033
-0.220798
-0.00357771
0.387618
0.457138
0.55246
-0.104635
-0.411267
-0.375025
0.436552
-0.096931
0.162329
1.00727
-0.125946
-0.901834
-0.0756093
-0.0738916
-0.433592
0.636929
-0.20408
0.626951
0.119707
0.466155
-0.250898
-0.207478
-0.578411
0.143783
-0.440087
-0.614295
0.827873
0.376757
-0.703714
-0.584169
-0.102575
-0.0412672
0.638896
0.0402393
-0.0600051
-0.108677
0.16007
-0.0594065
0.517527
0.303285
-0.188131
0.0520281
0.204487
-0.0565564
-0.038346
0.182544
0.118931
-0.0476107
0.150021
-0.0766533
0.101268
-0.145595
-0.0468267
0.256906
0.339002
0.142798
0.0259667
-0.332012
0.1497
0.610143
-0.218623
-0.467167
0.924337
0.669613
-0.021581
-0.121764
-0.0577846
0.145985
0.0533074
0.376995
-0.157924
-0.246215
0.612303
-0.227503
0.443037
0.156419
0.312342
0.126102
0.353871
0.460963
-0.000480635
-0.650404
0.523091
0.468049
0.202528
0.287731
-0.0442555
0.786545
0.0321187
-0.232845
0.325807
0.0737438
0.302475
-0.101822
0.0731382
0.153352
0.562005
0.473513
-0.0864671
-0.475176
-0.0602615
-0.201709
0.871339
0.495283
-0.0494698
0.346424
0.421572
-0.213284
0.10979
0.422678
0.35929
0.07517
-0.212892
0.127884
0.548581
-0.263637
0.483801
0.186391
-0.420371
-0.169611
0.396677
0.213105
-0.0562302
-0.165443
0.552568
-0.0915742
-0.168186
-0.06653
-0.0361387
-0.656986
0.291547
-0.143182
0.222733
-0.169282
0.129395
-0.534117
-0.192202
0.353043
0.373987
0.337542
-0.146001
-0.0363103
1.03089
0.549454
0.164046
0.423155
0.6182
-0.202054
0.0156887
0.704679
0.749389
0.262801
0.339367
-0.250793
-0.0285425
-0.115061
-0.418072
0.290947
0.223232
0.10172
0.264242
-0.369169
-0.0684165
0.494752
0.651788
0.516175
-0.488657
0.416604
-0.134734
-0.134263
-0.168135
-0.616315
-0.306874
-0.0876453
0.597456
-0.22772
0.135409
0.302905
-0.211572
0.481279
-0.0561058
-0.0555254
-0.587642
-0.423803
0.188744
0.314825
0.224747
0.251563
-0.102331
1.06002
0.904214
0.0457605
-0.285929
0.268188
-0.122415
-0.324614
-0.154547
-0.0870401
0.0694471
0.0214959
0.408713
-0.219509
0.112375
-0.255884
0.318406
1.00929
0.133638
-0.250685
0.309593
0.163558
0.236894
-0.825678
0.231867
0.347984
0.599355
0.15836
-0.11437
-0.632415
0.181389
0.387028
-0.293218
-0.587172
-0.402989
-0.0947325
-0.0826597
-0.314934
-0.300789
0.0409695
-0.211175
0.400314
0.435734
-0.662165
-0.421869
-0.485138
-0.308119
-0.513453
-0.0545583
-0.0757261
0.407224
0.238824
0.573642
0.416526
0.283881
-0.384018
-0.0470124
-0.297907
0.510415
-0.380701
0.332056
-0.0237399
0.0932337
-0.446379
-0.25778
0.397907
0.119306
-0.108903
-0.569072
-0.376587
0.295667
-0.0510653
0.541601
0.192677
-0.277402
-0.560038
-0.487485
-0.235111
-0.256555
-0.0445705
-0.335407
-0.266586
0.74776
-0.759652
0.452683
-0.0888332
0.0695377
0.248676
-0.265305
0.436993
-0.0586659
-0.241639
0.41458
0.479703
-0.204652
-0.539776
-0.47627
-0.183229
0.116725
-0.221087
0.296178
-0.487098
0.498213
-1.01937
0.205708
0.164724
0.59882
-0.334667
-0.258735
-0.176
0.180797
0.332336
0.102052
-0.433256
-0.605719
-0.724499
-0.35276
-0.480636
-0.0226877
-0.459619
-0.134363
-0.531439
0.334551
-0.491565
0.0695002
0.107653
-0.162792
-0.716961
-0.296458
-0.373376
0.148321
0.03623
0.0092615
0.0697313
-0.387432
0.00705648
-0.0276997
-0.312538
0.320631
-0.465866
0.527615
0.119389
-0.401098
-0.587037
0.11924
0.344357
0.435287
0.143631
0.140261
-0.496323
-0.0739185
0.49332
0.207441
-0.410879
-0.209945
-0.336164
-0.366168
-0.349776
-0.374282
0.0873173
-0.43515
0.264466
0.676777
-0.210918
0.0273706
-0.171779
-0.00236939
-0.511286
-0.0497263
-0.602352
0.0743859
-0.0749525
-0.0858567
0.366046
0.421297
0.0631847
0.316049
0.56096
-0.0841573
-0.417057
0.697305
0.187672
0.3397
-0.422199
-0.346553
-0.423927
0.14857
-0.139722
-0.46308
-0.353922
0.0318024
0.0176739
-0.503625
0.44092
0.130089
-0.241854
0.0163895
-0.673589
0.271084
0.207392
-0.910649
0.0844707
0.756096
-0.540699
-0.288061
-0.149042
0.179682
-0.539309
-0.199214
-0.223531
-0.51369
-0.432615
0.0997545
-0.00464606
-0.287341
-0.762748
-0.193103
-0.106545
-0.418072
0.157289
0.484398
-0.712683
-0.0595757
-0.335457
-0.320525
-0.463278
0.544551
-0.810263
-0.148997
-0.2229
0.178251
-0.205436
0.0551448
0.275207
-0.247484
-0.538953
-0.695333
-0.0942142
0.730158
0.135031
-0.706166
0.226256
0.397659
-0.306166
0.0601512
-0.43125
-0.0610981
-0.480707
0.36313
0.00683438
-0.402065
-0.318996
0.352689
-0.0270574
-0.475986
-0.426861
-0.194017
-0.223011
-0.327212
0.256517
0.268364
0.493037
0.468442
-0.18515
-0.0130048
0.303114
0.152444
-0.0185254
-0.105064
-0.362123
-0.0942596
-0.642288
-0.681911
0.47181
0.0423524
0.132826
-0.0696879
-0.278652
0.505091
0.0683647
-0.804979
0.396268
0.146699
-0.229956
-0.0454477
0.657483
0.198898
-0.430301
0.361432
-0.248214
-0.0934385
-0.112488
-0.00593254
0.0768285
0.0452281
-0.686135
-0.143206
-0.296517
0.145781
-0.562161
0.275794
-0.135431
0.0864414
-0.640185
-0.266815
0.443231
0.262648
-0.496954
0.73587
-0.467974
0.492327
0.197307
-0.0557188
-0.341294
0.169208
-0.49004
0.326421
0.35159
0.112659
0.556478
-1.01402
0.0044873
-0.117038
0.0118892
-0.144716
-0.0651134
0.0374305
-0.580535
0.234262
-0.297594
0.506647
-0.041712
0.643671
0.0543569
-0.110445
-1.07382
-0.505319
-0.585693
0.0238414
0.240638
0.335282
-0.00853672
-0.429242
-0.330496
-0.938603
0.240762
-0.0236942
-0.574619
-0.0622552
-0.418599
0.382332
0.239144
-0.398027
-0.271794
0.0909701
0.0451274
0.258737
0.349286
-0.216654
0.465132
-0.313915
-0.224632
-0.0634411
-0.235936
0.260999
-0.184093
-0.183111
-0.345022
-0.103183
-0.329388
-0.144673
0.174663
0.319235
-0.63619
-0.585673
-0.376621
-0.463247
0.172135
0.310088
-0.212512
-0.089598
-0.690087
-0.217512
-0.338071
-0.300092
0.192535
0.287653
-0.694678
0.32392
-0.816548
0.0314499
0.253402
-0.367519
-0.339392
-0.165141
0.0714559
-0.181868
-0.402883
-0.123033
0.20205
-1.25212
-0.34975
0.224296
-0.34012
-0.281271
-0.0291189
-0.476514
-0.993282
0.0330807
0.0914797
-0.301904
0.0742763
-0.0900355
-0.693845
-0.201249
-0.483031
-0.174198
-0.367925
0.480282
-0.61688
-0.166091
0.0298489
-0.362754
0.114679
-0.06296
0.0776632
0.155043
-0.0817957
0.0688668
-1.07338
0.449362
-0.461114
0.48443
-0.165741
-0.334082
-0.558551
-0.244257
-0.318952
0.57579
-0.391025
-0.569472
-0.363629
-0.769828
0.061365
0.536403
-0.316987
-0.406763
-0.701656
-0.204809
-0.457306
0.399485
0.422555
0.384005
0.0485883
-0.253269
-0.768418
-0.448028
-0.57165
0.161351
-0.908473
0.311177
0.506984
-0.765278
0.180343
-0.390645
0.717694
0.273022
0.16693
0.564118
-0.636112
-0.327164
-0.62961
0.172171
-0.473598
-0.291995
-0.586439
0.0191079
-0.444744
-0.352967
-0.0824477
-0.716673
-0.184196
-0.567614
-0.360927
0.285831
0.614657
0.276775
0.171748
0.298652
-0.636882
-0.161768
0.062875
-0.286706
0.0867939
0.03909
-1.019
-0.445959
-0.0929432
0.397239
-1.31935
0.225296
-0.156631
-0.44501
0.0844888
0.25699
0.567957
-0.22122
-0.753317
-0.00568476
-0.845092
-0.409811
-0.279183
0.121668
0.126898
-0.0829604
0.183288
0.514319
-0.100618
-0.826313
0.202521
-0.406676
-0.611623
-0.829563
0.205573
0.126524
0.00390964
0.036639
-0.169546
0.217231
-0.201746
-0.366985
-0.0128651
0.00118923
0.0314066
-0.279414
-0.318058
0.210664
-0.0953665
0.00463219
-0.326187
0.0821153
0.00215918
0.0734956
-0.329393
0.0409399
0.127576
0.478925
-0.00646143
-0.228944
-0.467859
0.176112
0.113491
-0.244338
0.0695456
-0.608175
0.282951
-0.177945
-0.453225
0.465268
0.282784
-0.786948
0.177177
-0.466733
0.000278493
-0.0986582
0.234989
-0.541558
0.39932
0.0846789
-0.467156
0.296811
0.253953
-0.257789
0.17047
-0.215876
-0.149875
-0.529011
-1.05847
0.100563
-1.2558
0.443858
0.666638
-0.157606
-0.358357
-0.659644
0.237331
0.56664
0.10302
-0.430986
0.402288
0.174258
0.0369432
-0.080601
0.451044
-0.577717
0.202024
-0.306376
0.24193
0.383153
0.200937
-0.522435
0.371592
-0.738301
-0.660833
0.205677
0.232333
-0.787542
0.249859
-0.0185249
-0.20421
-0.40922
-0.363679
0.108012
0.191586
-0.526165
-0.523031
-0.198819
-0.495714
0.072369
-0.408343
-0.119462
0.557592
0.17007
-0.314599
-0.663338
0.0299271
0.875304
-0.0858274
-0.281174
-0.192094
0.584514
-0.298055
0.536573
0.067409
-0.147516
0.0994023
0.358909
0.0546428
0.286292
0.357982
-0.296991
-0.794116
-0.65215
-0.487681
-0.175477
0.16335
-0.303116
0.133347
0.560949
-0.416069
-0.452182
-0.386151
0.352601
-0.418556
-0.219038
0.573323
-0.0924801
-0.543519
-0.271986
-0.466753
0.360114
0.58141
-0.286667
0.05451
-0.0147579
-0.162875
1.02482
0.0311843
-0.148998
0.403722
-0.367529
0.446904
0.296168
0.0900445
0.066785
0.320667
-0.461278
-0.0710787
-0.0393045
0.579406
-0.472546
0.309885
0.0608694
-0.228522
-0.194145
0.308033
-0.0589496
-0.241609
0.432021
-0.276626
-0.260564
0.263037
-0.174117
-0.718244
-0.409689
-0.606688
0.182357
-0.0954969
0.264832
0.102142
0.180204
0.373045
-0.664321
0.365175
-0.251129
-0.266985
0.0967239
0.155461
0.328791
0.0848085
0.358761
-0.138485
0.148446
-0.0610977
0.370922
0.221152
-0.467001
-0.0784826
0.291981
-0.222548
-0.317603
-0.387137
-0.60209
0.060508
0.474474
0.205465
-0.27265
-0.797558
-0.0352831
-0.514668
0.180127
0.144293
0.20318
-0.949804
-0.617885
-0.268062
0.06083
-0.225566
-0.393495
-0.0248896
0.534035
0.825433
-0.682608
-0.195657
-0.392852
-0.529103
-0.0385517
0.445426
-0.438224
0.269633
0.411865
0.372571
-0.104789
0.833052
0.0395905
-0.148811
-0.35494
-0.584649
0.177964
-0.184037
-0.472938
0.403071
0.266596
-0.0864115
-0.0553962
0.830212
-0.0639158
-0.459007
0.762985
-0.0264881
-0.257747
0.836161
0.262979
-0.24262
-0.0109842
-0.411469
-0.135
0.0215237
0.0116961
-0.0529817
0.112781
0.870664
0.189556
0.281355
-0.554264
-0.137349
0.436373
-0.0702476
-0.0934343
-0.252006
0.0400329
-0.596656
-0.641554
-0.00298961
0.396464
0.598868
0.289714
0.0244546
0.0845864
0.360827
-0.437013
0.224605
-0.485463
-0.0121056
0.324193
0.0642743
0.307866
-0.377339
0.366267
-0.430094
0.0220628
0.595299
-0.489151
-0.140534
-0.116926
-0.383667
-0.340681
-0.148801
-0.251964
0.55303
0.416413
1.07286
0.00733804
-0.304052
-0.372066
-0.224457
0.116982
-0.147923
0.0029878
0.0766559
0.38118
-0.286886
-0.203031
0.520297
0.283203
0.141752
-0.469093
0.24131
0.324958
-0.232574
-0.646371
0.412464
-0.0518454
0.0710496
0.0231167
0.153039
-0.440149
-0.770396
-0.0939231
0.208409
-0.693953
-0.249299
-0.277501
-0.906454
0.321592
0.441524
0.161501
-0.173013
-0.0131624
0.362742
-0.426005
0.663156
-0.299733
0.22453
0.107603
0.522858
0.125398
0.073448
-0.244042
0.0189214
0.901545
0.281025
0.0885684
0.103172
-0.591527
0.438568
-0.0529705
-0.64366
0.479217
-0.257861
0.570473
0.280794
-0.410666
-0.331038
-0.101671
0.351292
0.204824
0.0079283
0.42313
0.242617
0.297006
-0.143094
0.477249
-0.134481
0.37526
0.00105952
0.0813998
-0.253825
0.665057
0.271256
0.388866
0.736387
-0.214192
-0.0562124
0.23505
-0.469335
0.405857
0.171614
-0.458663
0.680676
0.860358
0.36595
0.227091
-0.0218177
-0.415756
-0.285737
-0.00341609
-0.626175
0.312749
-0.103584
-0.343032
-0.0917138
0.0633808
0.431315
-0.411167
-0.369466
0.433741
0.551373
-0.373947
0.0192323
-0.148861
-0.300725
-0.00075552
0.428522
0.114838
-0.369469
-0.260287
-0.365662
0.121639
-0.129127
-0.550098
0.765122
-0.185433
-0.598801
0.12687
0.0276763
-0.0468094
0.0679778
-0.0725208
0.468272
0.294809
0.0201261
-0.155761
-0.196596
-0.594968
-0.0223759
0.0514911
-0.0268388
0.38382
0.250092
-0.265326
0.0397777
-0.315635
0.505676
0.119441
0.109176
0.423119
-0.63883
-0.4499
-0.202741
0.150537
0.314063
0.46268
-0.294617
-0.0554717
-0.313559
-0.661573
-0.393982
0.471984
0.0921761
-0.221319
0.0766966
-0.352204
0.380753
-0.173853
0.694376
-0.219359
-0.174372
0.106393
0.0225112
0.400797
-0.253968
0.123862
-0.331958
1.24664
0.543249
-0.551481
-0.188711
0.216971
0.0812949
-0.388487
0.481166
0.206088
-0.335256
0.591983
0.225754
0.355796
-0.0131057
0.268413
-0.191822
-0.215023
-0.0298499
0.248784
-0.164406
0.450116
0.181491
0.0507538
0.81412
-0.448825
0.139219
-0.212906
-0.356983
-0.275212
0.232477
0.396552
0.415966
0.531837
0.196113
0.105912
-0.0868169
-0.025273
-0.0101562
0.117946
-0.240892
0.572696
-0.234411
0.394051
-0.340881
0.103477
0.125599
0.0392371
0.562579
0.535874
0.157163
-0.399979
-0.14373
0.493284
-0.392709
0.0249695
-0.23588
0.513205
-0.334061
0.331357
0.732728
0.338719
-0.178806
0.450094
0.202581
-0.0257159
0.115728
0.512962
-0.289464
-0.11888
-0.187338
0.0452273
-0.0372783
-0.184
0.0647038
-0.0406718
-0.0224421
-0.285503
0.224269
-0.141611
-0.67052
0.907441
0.148257
-0.0151233
-0.153849
0.359436
0.175525
-0.343756
0.410908
-0.160587
-0.0731904
0.30455
0.0271999
0.475156
0.270957
0.295871
-0.216134
0.194296
-0.30193
-0.177733
0.436252
-0.0786254
0.390348
-0.200074
0.654838
-0.0707149
-0.382614
0.498273
0.328446
0.0829848
-0.427869
0.247514
-0.270348
-0.2452
0.52878
0.211267
-0.0760115
0.0200107
0.0966726
0.518565
0.320041
-0.619497
-0.594968
0.21747
-0.155072
0.0857487
-0.366601
0.0101116
0.225774
-0.451497
-0.26747
0.116432
0.22142
-0.332784
0.245584
0.117202
0.497369
0.521795
-0.0567705
-0.190134
0.390033
0.288489
-0.517938
-0.0202151
0.667772
-0.239037
0.247433
-0.225143
0.71205
0.172392
-0.258938
0.0248514
0.123668
0.192938
0.491031
-0.135853
-0.102928
0.46407
0.147578
0.163027
0.83362
-0.852162
-0.501646
0.068775
-0.139257
0.149854
-0.265415
-0.757526
0.119193
-0.561246
0.343036
0.0149003
-0.319807
-0.0468887
-0.093362
-0.983112
0.522605
0.0205753
0.246955
-0.38196
0.016301
-0.362299
0.305286
-0.273415
0.392714
-0.262072
0.0198911
0.323344
0.239828
0.32341
-0.45315
0.0950703
-0.122606
0.154186
0.2036
0.603815
-0.478852
0.454254
-0.427276
-0.0616406
0.258082
-0.991913
-0.0573345
0.189198
-0.711446
-0.328121
-0.397923
-0.369846
0.189535
0.1643
-0.3668
-0.438459
0.260449
0.035047
0.159509
-0.79851
0.0573402
-0.32295
0.621246
-0.400951
-0.441398
-0.15031
0.209861
0.0747624
-0.0661073
0.283961
-0.299359
-0.0199067
-0.0304967
0.219726
-0.234383
0.469242
0.24723
0.516001
0.135028
0.379731
-0.0833428
-0.143733
0.0496014
-0.447226
0.17511
-0.649266
-0.570222
-0.120016
-0.192344
-0.285958
0.0206322
-0.308086
-0.106018
0.0650538
-0.626944
0.235217
-0.419126
-0.0293703
-0.458465
-0.189762
-0.0889491
-0.319435
0.395789
-0.347591
-0.255656
0.507113
0.188984
-0.266676
-0.366026
0.487314
-0.0365037
-0.0791007
0.475924
-0.489464
-0.921322
0.142807
0.0598178
0.256738
-0.597444
0.381609
0.180251
-0.030869
-0.272396
-0.105633
0.489642
-0.586688
-0.0814328
-0.780786
-0.302407
0.218302
-0.11184
-0.595591
0.56078
0.184234
-0.157646
0.207748
0.0613686
-0.38909
0.141488
-0.476818
-0.398027
-0.772452
0.315956
-0.0196096
0.292117
0.315324
0.317882
0.397899
-0.0839861
0.247115
-0.111886
0.201836
0.384916
-0.30325
-0.549207
-0.0516499
-0.130362
-0.202242
-0.0256575
-0.139511
-0.222611
0.0317239
-0.713281
-0.138166
0.154654
0.251375
-0.395027
-0.0349235
0.0155277
0.50617
-0.437171
-1.16385
0.584323
0.0508553
-0.754419
0.0831695
-0.180528
-0.420118
-0.376035
-0.920411
-0.0510714
0.235048
0.0534497
-0.35911
0.731449
0.0821868
-0.417291
0.0975068
-0.00458033
-0.297933
-0.280949
0.394037
0.295071
-0.0613782
-0.317413
-0.390335
0.439181
-0.166894
-0.437179
-0.503941
-0.117552
-0.00289622
-0.336201
-0.370887
-0.304233
0.175006
-0.357323
-0.0300218
-0.0197089
0.0835539
0.167696
-0.44843
0.182779
0.202854
-0.446454
0.0544429
0.0995546
0.24383
-0.48132
-0.254302
-0.248315
-0.614152
0.528826
0.211179
0.545488
0.136702
-0.403647
-0.164644
0.404096
-0.269965
0.0326259
-0.00413659
0.319924
0.151106
-0.3718
-0.0272414
0.504494
0.319434
-0.357426
0.40612
0.00320841
0.364031
-0.61959
-0.738315
0.422028
-0.203341
-0.12011
0.149023
-0.103688
0.188541
-0.128395
-0.337556
0.130654
0.572289
-0.11096
0.235859
0.00124583
0.0953663
-0.808878
0.416218
-0.0979644
0.218993
0.302303
0.244353
-0.444525
-0.123065
-0.509692
0.256697
0.00255671
-0.191724
-0.145899
0.470723
-0.272391
0.0856404
-0.613168
-0.367889
0.22625
-0.230421
-0.427923
-0.200864
-0.682167
-0.167392
-0.586087
0.153608
0.18677
0.130585
-0.392259
-0.218551
0.274926
0.0710935
-0.303672
-0.713971
0.539204
0.568658
0.283312
-0.162296
-0.288401
-0.425337
-0.702936
0.482433
-0.270743
-0.290667
0.0843022
-0.156776
-0.0642124
-0.280757
-1.32661
0.0391387
-0.0265423
0.15377
-0.0984475
0.312753
-0.102188
0.0638537
-0.310542
-0.102736
-0.0964961
0.251993
-0.178548
0.353253
-0.398087
0.343328
-0.305055
-0.429325
0.257836
-0.37364
0.192563
-0.16448
-0.0975517
0.379305
-0.358
0.173119
0.243228
0.302104
-0.235797
0.22721
0.0924857
-0.29806
-0.415326
0.18498
-0.543947
0.173023
0.136354
-0.0674554
-0.80701
0.0955684
-0.558438
0.0988236
0.287086
0.0781829
-0.534143
0.330769
-0.193323
0.50828
-0.341645
-0.234059
0.00630378
0.275602
-0.177803
0.0742276
-0.169689
0.42416
0.172327
0.361472
-0.197456
0.0558633
0.306125
-0.174906
0.0753605
0.0841871
0.250912
-0.770194
0.659358
0.124608
-0.06282
-0.25195
-0.226191
-0.086442
-0.526685
1.18149
-0.298703
0.153126
0.540295
0.118437
-0.218327
0.108488
-0.80971
0.00360076
0.0594073
0.128293
-0.430191
0.418864
0.27561
-0.0769916
-0.513056
-0.153277
-0.0978433
0.564256
-0.672075
0.268364
-0.476426
0.66411
0.0214321
-0.147297
0.21991
-0.318205
-0.327087
0.0907385
0.0208895
0.766099
-0.0654394
-1.36223
0.303444
-0.361554
-0.260226
-0.396964
-0.0493679
-0.0812819
-0.833665
0.209242
-0.488028
-0.368936
0.255228
-0.390671
-0.234163
0.185838
-1.29564
-0.163066
0.180207
0.00956325
-1.0008
0.274042
-0.0452631
0.055666
-0.542507
-0.394962
-0.237785
0.616895
-0.37272
-0.00592586
0.0129917
0.120909
-0.787363
0.149883
0.0868343
-0.00876017
0.298908
0.00560605
0.433013
0.595945
0.33664
-1.33522
-0.142748
-0.744638
0.0388177
0.116464
-0.518898
-0.191614
-0.250598
0.233548
-0.858261
-0.0530198
0.132029
0.517037
0.066233
-0.286262
-0.693337
-0.276898
0.852737
-0.0909853
-0.99153
0.158584
0.196398
0.517566
-0.29728
-0.685073
0.0713656
0.268355
-0.0204157
0.654854
0.0891462
-0.0100947
-0.400408
0.337773
0.0734985
0.0225085
0.132106
-0.266669
0.108645
0.59525
0.0463862
-0.714469
-0.00683045
-0.162201
0.0441272
0.269749
-0.458464
-0.0754391
-0.876328
-0.264778
-0.912544
-0.428454
-0.173972
0.314256
-0.652506
0.345066
-1.02052
-0.259001
0.330824
0.200213
-0.247898
0.218601
0.59241
0.118334
-0.157308
-0.146799
-0.446644
0.0393174
-0.216301
0.0456803
0.186458
-0.315433
-0.131572
0.455939
1.02277
0.0400616
0.358378
-0.324335
0.00923449
0.543294
-0.0368862
-0.550034
0.0464094
-0.0919533
0.249123
0.251926
-0.0677361
-0.554042
-0.329284
0.821425
-0.550519
0.138125
0.682416
0.308735
-0.497407
0.0753892
-0.401112
0.190762
-0.841449
0.392574
-0.771279
0.211624
0.249516
-0.165052
-0.168196
-0.580199
0.203286
0.37269
-0.245174
0.478641
0.529519
-0.380229
-0.336611
0.0793092
0.547774
0.790842
0.22519
0.316531
0.0872459
1.21742
-0.317207
-0.911343
-0.331585
0.521009
0.250983
0.414934
0.444904
0.0431468
-0.631046
0.733598
-0.306356
-0.772402
0.60539
0.184135
-0.0831993
-0.227336
-0.340013
0.0088149
-1.04545
0.14798
-0.476392
0.353801
-0.293274
0.317846
-0.0327145
-0.384552
0.166997
0.578394
-0.570852
0.443667
0.520835
0.579895
-0.310295
-0.601502
0.899515
-0.229215
0.250657
0.287234
-0.00862361
0.766029
-0.310814
-0.575022
-0.403387
0.223723
-0.429733
-0.11861
0.819355
0.154807
-0.35258
0.289312
0.0878015
0.0453722
0.179471
-0.0980793
-0.45651
-0.0881679
0.221851
0.4559
-0.456005
0.399915
-0.319121
0.472934
0.0951971
-0.010048
-0.476584
-0.393951
0.45391
0.656227
-0.0021822
0.101402
0.255021
0.309678
0.107447
-0.190677
0.485613
-0.273369
-0.281328
0.0914288
0.279607
0.744748
0.61567
-0.0769788
0.396759
0.217606
-0.337949
-0.188827
0.796711
-0.238693
-0.852143
0.612324
0.169351
-0.0575272
0.0515899
-0.237376
-0.0565778
0.181927
0.040731
-0.604427
0.050723
0.0635725
-0.221355
0.237918
0.770318
0.540332
0.313599
-1.03309
-0.159581
0.144981
-0.148494
-0.348307
-0.00260997
0.58349
-0.635639
-0.621936
0.385738
-0.181359
0.0478046
-0.0899051
-0.704742
0.39208
-0.0438092
-0.870758
0.520135
-0.000146422
0.243041
-0.463775
0.616144
0.0937568
-0.285008
0.428169
-0.215409
-0.0967535
0.168044
0.231687
0.376142
-0.0826087
-0.232445
-0.372209
-0.153771
0.260877
0.61052
-0.16127
0.27175
-0.269582
0.0577551
-0.122152
0.407491
-0.0541956
0.175323
-0.0998127
0.629474
-0.0435494
-0.207438
-0.828518
0.398226
-0.00744993
0.102805
-0.560971
-0.113035
0.214418
0.345205
-0.774569
-0.327418
-0.0823561
-0.378182
-0.574543
1.19213
-0.187932
0.254421
-0.303455
0.690262
-0.557826
0.528091
-0.0953141
0.347211
0.180277
0.187832
-0.197499
-0.546409
0.218876
0.315994
-0.444322
0.531669
-0.283707
-0.261171
-0.466098
0.0202136
-0.0846852
-0.253805
0.445245
0.752066
-0.26043
-0.61316
-0.627735
0.609462
-0.283053
0.479708
0.0468702
-0.144607
0.0884015
-0.355945
-0.108868
0.175425
-0.320984
-0.120328
-0.239707
0.147831
-0.116013
-0.14646
-0.0964606
0.104663
-0.481769
0.581195
0.240753
-0.250492
0.220421
-0.182264
-0.211483
-0.232307
-0.125761
0.725259
-0.105587
0.966323
-0.196485
0.207389
0.10771
-0.297881
0.226054
0.205004
-0.112486
0.293102
0.252911
0.161662
-0.390405
-0.317358
-0.152777
-0.41097
-0.0644527
-0.0719871
0.106405
-0.316201
-0.135935
0.212592
-0.29952
-0.454063
-0.503761
0.631774
0.468911
-0.116819
0.179925
0.563339
-0.0165438
0.564171
1.09843
0.123247
-0.0806039
0.146176
-0.170806
0.104081
-0.00210345
-0.464273
0.024423
1.13131
0.369499
-0.0393888
-0.612371
0.354797
0.242547
-0.254411
-0.246279
0.425617
0.574617
0.162556
-0.209019
-0.300625
-0.429327
0.095664
-0.210786
-0.134039
0.723236
-0.311624
-0.6718
-0.25786
-0.230658
0.223833
-0.860269
0.305065
0.0286988
0.47642
0.0378023
-0.0546616
0.295108
-0.116761
1.17223
0.212152
0.282342
-0.276389
-0.474019
0.283339
0.0219194
-0.122302
0.384755
1.61116
0.645384
-0.0299521
0.0566601
-0.234465
-0.041174
0.248272
0.145797
0.0338755
0.673494
0.103085
-0.00278906
-0.0362644
-1.10872
-0.0611182
-0.2315
-0.168448
-0.0372751
-0.349324
0.656257
-0.514237
-0.253093
0.0397082
-0.739885
0.582217
0.0824338
0.516053
-0.0241544
-0.0878374
0.457015
-0.0696434
0.546368
0.331454
0.463109
-0.805135
-0.00978496
-0.329257
0.623293
-0.454198
0.376327
1.23616
-0.108613
-0.811328
0.302946
-0.319611
0.436973
0.63431
0.565585
0.940276
0.21429
-0.143624
0.193143
0.289433
-0.669556
-0.301703
0.274806
0.0288236
0.488022
0.141374
-0.466475
-0.0791557
-0.119495
-0.301052
-0.435112
0.734685
-0.111063
-0.0358711
-0.0510077
0.125308
0.254356
0.140873
1.0496
-0.095124
0.74648
-0.581641
-0.464579
-0.57668
-0.242831
0.104908
0.324135
-0.130857
0.185778
-0.949477
-0.179507
0.107142
-0.266286
0.1944
0.300618
-0.166845
-0.278543
0.208629
0.332192
-0.567499
0.577673
-0.201924
-0.156156
0.641256
0.137933
0.105694
0.357434
-0.0664024
-0.0693755
0.330095
0.280883
0.487772
0.273717
0.228139
-0.0607805
0.189647
0.498334
0.56552
-0.145083
0.496946
0.615504
0.612051
0.0599116
0.60575
0.274728
0.0348571
0.426046
-0.464704
0.457666
0.292862
-0.141467
0.120184
0.614044
0.284988
0.313351
-0.169504
0.104954
-0.291103
0.0459027
-0.134352
0.650864
0.506148
0.176034
0.303116
-0.0989195
-0.287878
0.31128
-0.150109
-0.364048
-0.343104
-0.0710461
0.230439
0.142322
0.475988
-0.23517
0.278087
0.0550174
-0.235951
0.339235
0.260311
0.443449
-0.153645
0.441339
0.391331
0.372421
-0.237591
-0.00872439
-0.341562
-0.0401168
0.0240183
0.272021
-0.0109752
0.376443
0.364059
0.231229
-0.471462
0.142079
-0.257821
0.665438
0.524006
0.4908
0.070627
-0.051889
-0.0456118
-0.310468
0.203037
-0.0513676
0.347702
-0.272784
-0.557013
0.262973
-0.401917
0.136976
0.464119
-0.194574
0.352736
0.314997
-0.348137
0.19084
0.0766956
0.0556793
0.0594955
0.590841
0.238355
-0.136301
-0.650608
0.325352
-0.19671
0.527784
-0.120595
0.489347
-0.398903
0.380875
0.781633
0.3414
0.149443
0.638227
0.361957
0.0894026
-0.126002
0.0592484
-0.675481
0.106369
-0.0331762
-0.312921
-0.0208609
-0.927128
0.137552
-0.586001
0.158519
-0.0707919
-0.623157
-0.387093
0.152304
-0.343704
0.422021
0.263083
-0.0228324
-0.252132
0.334196
-0.293937
0.214813
-0.257722
0.0609126
0.0594965
-0.0811528
0.0336203
0.627377
0.283443
-0.506483
0.556423
-0.0207199
-0.00121089
0.398408
0.0192267
-0.46326
0.273384
0.0376761
0.0374795
0.479967
-1.2372
-0.487256
-0.291726
-0.418628
-0.0847248
-0.266525
-0.419492
-0.15619
-0.153564
-0.339833
-0.352279
-0.473887
0.332963
0.407282
-0.604208
0.335039
0.805596
-0.460042
-0.622678
-0.0906819
0.164181
-0.555247
0.416805
0.647022
0.216811
0.120373
-0.361817
0.577665
-0.00721046
-0.78271
0.357372
0.329908
-0.0159575
0.560978
-0.248983
-0.284757
0.508332
0.186013
0.0168657
0.147227
-0.445013
-0.397446
-0.89757
-0.605109
-0.759735
-0.207898
-0.358081
-0.186079
-0.731186
0.0718602
-0.190047
-0.41223
0.0530764
0.250344
-0.276649
0.109051
0.453926
-0.155404
-0.644996
0.191773
-0.481992
0.63712
-0.161184
-0.57964
0.148469
0.205453
-0.124858
0.225811
0.0710789
-0.178026
0.0857841
0.129118
0.582301
-0.37507
-0.0536348
-0.508103
0.220237
-0.0439793
0.0811269
-0.182719
-0.418909
-0.854485
-0.297932
-0.356023
-0.118279
0.164336
-0.502044
-0.127185
-0.586477
-0.226621
-0.0888334
-0.587178
-0.435163
0.227475
-0.382362
-0.0404773
-0.376962
-0.108732
-0.317189
0.68813
0.279116
0.541673
-0.269229
-0.340587
0.381847
-0.134941
0.25586
0.543344
0.326272
-0.551867
0.650584
0.0407384
0.229994
0.378236
0.409509
-0.467474
0.453281
-0.196359
0.436166
-0.00786403
-0.987144
-0.525173
-0.829979
0.206454
-0.410041
-0.293554
-0.173426
-0.0424725
0.673691
-0.167759
-0.583664
-0.579088
-0.263411
-0.121743
-0.234025
0.0603959
-0.306599
-0.336608
0.121884
0.025584
0.184586
0.0768379
-0.402913
0.404129
-0.189971
0.635347
-0.103925
0.719828
0.467326
-0.705484
0.0797322
-0.0641473
0.250935
-0.486043
0.571929
-0.261823
-0.0828056
-0.145406
0.46793
-0.236313
-0.24323
-0.138486
-0.0730472
-0.147751
-0.383881
0.0042997
0.166227
0.0992415
0.636577
0.167099
-0.172762
-0.233118
0.163103
-0.383225
-0.328838
-0.339137
0.0119447
0.433445
-0.17935
0.11135
0.843064
-0.0666926
-0.030585
0.0867684
0.216402
0.321678
-0.0576802
0.527412
0.180419
0.0516396
0.336422
-0.0204255
-0.218837
-0.496231
-0.0523796
-0.000847439
-0.0620962
-0.105095
-0.219537
-0.332027
-0.208977
-0.428448
-0.623225
0.25217
-0.160261
-0.627623
-0.794323
0.0670775
-0.0146038
-0.831395
0.300952
-0.171865
-0.452636
0.384937
0.259814
-0.409597
0.116723
-0.252466
-0.119757
0.113332
0.0996322
-0.341339
-0.756224
-0.0772699
0.0165978
-0.0905542
0.245923
0.0794679
-0.252596
-0.693866
0.348232
-0.0102881
0.52179
-0.338908
-0.0958731
-0.358135
0.493984
0.270752
0.309663
-0.0797308
-0.0465889
0.104854
0.115759
-0.178702
-0.713784
0.510626
-0.398466
0.23847
0.425321
0.194161
-0.338859
0.536709
-0.689083
-0.147881
0.222646
-0.422695
-0.247052
0.605446
-0.31753
-0.115094
0.516508
-0.931508
-0.539755
-0.115177
-0.594575
0.222731
0.458562
0.532103
-0.238939
-0.476838
0.674146
-0.560763
0.777812
-0.50745
0.146837
-0.771696
-0.0524765
-0.505933
0.332191
0.487275
0.505755
0.206116
-0.0394323
0.0423328
-0.29974
-0.240836
-0.787231
0.10751
0.0962473
-0.0695784
-0.0563535
-0.359423
-0.165071
-0.426043
0.479494
-0.74916
-0.397907
0.326175
-0.133825
0.323102
0.142186
-0.784456
-0.054842
-0.389506
0.361798
-0.165476
0.564703
0.417509
-0.223606
-0.131869
-0.177039
0.129158
0.417565
-0.773831
0.342099
-0.604069
0.107075
-0.580061
0.102733
-0.434504
0.289706
-0.217658
-0.238418
-0.0126133
0.454062
0.211148
-0.80459
0.456152
-0.0291536
0.191153
-0.00115673
-0.295565
-0.298947
-0.421989
0.0567807
-0.492154
-0.435652
0.184566
-0.819362
0.0960534
0.0401034
-0.92671
-0.308864
-0.223711
-0.0685821
-0.667124
0.360474
0.335959
0.212945
-0.660279
0.675419
-0.108705
0.319362
-0.633484
-0.281035
0.044119
-0.0534154
-0.469623
0.198261
0.305831
0.150555
0.454258
0.0655399
-0.538587
0.154941
0.270426
-0.498374
-0.174109
0.00343154
-0.300498
0.374452
0.482928
-0.0513359
-0.921343
0.207341
-0.75257
-0.414754
0.247791
0.144042
-0.511714
0.896673
-0.929835
0.0589924
0.0939161
0.521616
-0.945821
0.0760145
-0.194248
-0.356031
-0.572005
0.0107363
-0.155728
0.231344
-0.0924339
0.418781
0.761763
-0.407357
-0.0929764
0.581496
-0.210442
-0.147369
0.349661
0.405401
0.45112
0.624153
0.376222
-0.720245
0.0277798
0.0842753
0.160476
1.24423
-0.316434
-0.546931
-0.0665039
-0.195841
-0.583156
0.0952009
0.459055
-0.207805
-0.333357
0.191115
-1.12249
-0.144574
-0.313237
0.50575
-1.19443
0.554023
0.107547
-0.335438
-0.0628597
0.220821
-0.0181547
0.14859
0.0667186
0.28138
0.945862
-0.303474
-0.224027
0.683342
0.013588
-0.0738837
0.716744
-0.146115
0.508685
1.14829
-0.377165
-0.44136
0.104768
0.355643
0.148763
0.483725
0.571719
-0.562924
-0.311768
0.351024
-0.867279
-0.0691231
-0.051825
-0.325675
0.328253
-0.259475
-0.852919
-0.759228
-0.171303
0.403801
-0.930714
-0.0056466
-0.660465
0.17621
-0.218863
0.168548
0.414207
0.885764
-0.437352
-0.0980908
0.763864
-0.678104
-0.237348
0.2617
0.097432
0.161674
0.0948483
-0.0594924
0.269088
0.911186
0.244825
-1.37044
-0.619834
0.582396
0.148623
0.486186
0.345294
0.255648
-0.0286527
0.6056
-0.853083
-0.651432
0.0949473
0.300451
-0.295443
0.729221
-0.473736
-0.334767
-0.105856
0.149445
-1.04446
-0.322415
-0.773572
0.528996
0.273047
-0.0913174
0.629241
0.949102
0.191468
0.887499
1.07348
-0.32479
-0.401432
0.59432
0.589631
0.482298
0.622975
0.786377
-0.00416652
0.765724
0.360314
-1.22117
0.347441
0.605338
0.621108
-0.0689674
0.245501
0.136531
-0.00854045
0.35836
-1.00425
0.153711
0.0776845
0.367757
-0.46096
0.403312
-0.420811
-0.235371
-0.16917
0.124101
-1.19613
-0.31239
-0.151466
0.52629
-0.384752
-0.0156026
0.309527
-0.0314325
0.177702
0.353437
0.921499
-0.684261
-0.00249021
-0.140116
0.437498
0.252428
0.772224
0.748245
-0.0312315
0.79071
0.676489
-0.782305
0.569555
0.506375
0.086896
0.267978
1.00072
-0.316029
-0.447577
0.332966
0.286883
0.169533
0.543072
0.0848465
-0.0403095
0.286196
0.3268
-0.605724
0.042066
-0.0613397
0.0300992
-0.424296
-0.48653
0.194324
-0.073254
-0.570044
0.564619
0.83605
-0.0333708
0.871479
-0.00307893
0.342908
-0.0256118
-0.689035
0.827427
-0.0378337
-0.0292729
-0.00339267
-0.0710701
0.239248
-0.292187
-0.157933
0.532601
0.0156316
0.432585
-0.749647
0.356025
0.128126
-0.360733
1.08097
0.201453
-0.362219
0.158831
0.529398
-0.534359
-0.25002
-0.136849
0.146229
-0.400433
0.147346
-0.0659485
0.275592
-0.361674
0.415688
0.284242
-0.719208
-0.237821
0.835797
0.225385
0.374508
0.444925
-0.149499
0.171838
-0.717403
0.817124
-0.0301467
0.256344
0.384053
-0.13007
-0.403241
0.043269
-0.731621
0.0803846
-0.00720247
-0.111262
-1.09739
0.819084
0.0187427
-0.0487352
0.0730932
0.105134
-0.671655
0.603148
0.521766
0.241772
-0.166089
-0.172432
0.00413159
-0.241855
0.485648
0.22997
-0.170629
-0.387825
0.879691
-0.312634
-0.402275
0.492375
0.290311
-0.470648
0.73126
0.446253
0.80449
-0.12616
-0.4448
-0.018548
-0.613075
0.726526
-0.402456
-0.757484
0.363589
-0.360966
-0.294947
0.342426
-0.416146
-0.168592
-0.46538
0.515806
0.011514
-0.324235
-0.0333173
0.340712
-0.244317
-0.272976
-0.285161
0.533787
0.20273
0.0465146
-0.110214
-0.782559
0.0497301
0.405462
-0.194901
0.533685
0.556005
0.403891
0.208556
-0.136224
-0.062666
-0.352225
0.748144
0.533646
0.462805
-0.0669631
-0.655758
0.137759
-0.239823
-0.312791
-0.198293
-0.0884543
0.65034
0.537023
0.00678712
0.378406
0.00251992
0.16943
-0.847931
0.320381
0.049455
-0.355941
0.469443
-0.0623703
0.00645572
0.253997
-0.1253
-0.0764399
0.341997
0.345634
0.182307
-0.524301
0.208095
0.647885
-0.496759
0.0540932
0.388466
0.000926867
-0.841753
0.412317
0.89911
-0.23954
0.0292742
-0.118953
-0.468591
-0.746735
-0.352666
-0.339917
-0.408694
-0.0160785
-0.549846
-0.419354
0.326553
-0.185945
-0.584456
0.49046
-0.175628
-0.330191
0.100067
0.551926
0.47528
-0.0832752
0.0693678
-0.299425
-0.244918
-0.219793
-0.251378
0.276553
-0.23084
-0.0505014
-0.449524
-0.737531
0.497508
0.321655
-0.551895
0.915328
0.101792
0.237227
-0.369976
0.268315
1.101
-0.456112
0.414898
0.21943
0.127566
-0.611839
-0.236503
-0.236387
-0.200887
0.172392
-0.12853
0.250457
0.566052
-0.843879
-0.217252
-0.122394
0.370106
-0.318274
-0.0308228
0.269397
0.342179
0.107622
-0.385706
-0.190774
0.371066
-0.120636
0.296243
0.135252
-0.136315
-0.365294
-0.0658925
-0.241856
0.428798
0.0737277
-0.367071
1.08414
0.700235
-0.57375
-0.140239
-0.151172
0.693605
0.250002
0.523065
-0.00298503
0.530545
-0.288107
-0.479188
-0.011423
-0.493583
-0.254457
0.275878
0.437104
0.0976179
-0.143947
-0.868944
-0.344424
-0.26959
0.288454
-0.759737
0.720914
-0.329243
0.0308482
-0.184816
0.0698586
-0.482029
0.410384
-0.0457474
-0.0164566
0.311875
-0.426924
-0.725568
-0.18351
0.28537
0.00386709
-0.00779496
0.799634
0.597006
-0.393832
0.0324222
0.00967008
0.296448
0.0413467
0.493821
0.23331
0.26437
0.10433
0.204137
-0.1709
-0.63969
-0.374008
0.16655
0.42007
-0.504381
-0.156826
-0.225404
-0.330878
0.0651983
-0.157192
-1.07735
0.078128
0.280509
0.0286267
-0.324632
0.279308
0.204418
0.301552
0.234614
0.200984
-0.188342
-0.711913
0.0279533
0.030652
0.478845
0.3425
-0.039945
0.634664
0.452353
0.0689237
0.259778
-0.246244
0.256654
0.746417
0.602417
0.468209
0.510894
0.369784
0.181184
-0.154485
-0.260471
0.124258
0.549201
0.242761
0.397355
-0.330686
-0.831029
0.0164327
0.274836
-0.461351
-0.450928
-0.0609971
-0.278088
0.719235
0.699276
-0.33764
0.877012
-0.0477569
0.90132
0.503301
0.826448
-0.673507
-0.238833
-0.344522
-0.326616
0.257105
-0.343866
0.241277
0.308718
0.00726235
-0.292179
0.297723
0.216778
-0.27213
-0.138254
0.57095
-0.0586203
0.25066
-0.552355
-0.524641
0.572785
-0.100962
0.196896
0.0232175
-0.358456
0.250895
0.538895
-0.0493714
-0.0826243
-0.55477
-0.206304
0.372697
0.347481
0.685626
0.104921
-0.395022
0.548691
-0.175046
0.625734
0.24717
0.621229
0.0543145
0.15262
0.682171
0.277781
-0.0996407
0.279088
0.184204
0.440044
-0.416719
-0.0811721
0.436725
0.536967
-0.462607
0.503568
0.205411
0.125471
0.070309
0.261731
0.0392479
0.503951
0.577828
0.0911282
0.250506
-0.183659
0.0961647
0.129048
-0.173781
0.285359
0.157378
0.703863
-0.00500264
0.616057
0.110245
0.0781603
0.350357
-0.299606
-0.320952
0.136807
0.286601
0.0668568
-0.129962
0.715902
0.41932
-0.0226422
0.168053
-0.248506
-0.371902
0.222381
-0.0919433
0.204902
-0.217423
0.00439116
0.31978
0.39823
-0.0796776
0.49905
-0.260895
0.413756
-0.106324
0.596089
0.20279
0.441418
0.044261
-0.131092
0.517584
0.32492
0.34958
-0.10103
-0.352247
-0.114382
-0.0245518
0.666011
0.425325
-0.376354
-0.00822564
0.655404
-0.0998515
0.50057
0.231053
0.0756848
-0.0865481
1.72635e-05
0.324217
-0.0948734
0.0458546
-0.0227706
0.0622915
0.0202027
-0.290908
-0.227829
-0.0689768
0.463125
0.033136
0.372002
-0.483151
0.183661
-0.37266
0.00121282
0.0292749
0.201331
-0.165368
-0.349114
-0.256601
-0.160658
-0.182572
-0.232762
0.085935
-0.296566
-0.480953
-0.400678
0.0271045
-0.420985
0.619918
-0.489211
0.0994511
0.484845
0.00602041
-0.256091
-0.0472979
0.356256
-0.394967
0.469014
0.0609071
0.171227
0.0548595
0.236266
0.532689
0.330788
-0.205619
0.690279
0.407254
-0.11318
-0.22704
-0.312486
-0.843502
0.824195
-0.39025
-0.295439
0.453936
-0.281881
-0.254418
-0.465847
0.146302
-0.109928
0.333701
-0.30401
-0.249185
-0.307717
-0.243007
0.47851
-0.726918
-0.17755
1.2204
-0.036876
0.398307
-0.0710704
-0.240788
-0.701807
0.784414
-0.0427158
-0.106601
-0.104476
-0.176746
-0.350422
-0.0576645
-0.707398
-0.00360904
0.0536007
-0.539966
0.0245374
0.0630479
-0.0167324
0.353961
0.239015
-0.469837
0.548266
0.100404
0.522353
0.141045
-0.489454
-0.313916
-0.273358
0.363042
-0.546557
-0.376323
-0.682633
0.133775
-0.357281
-0.508675
0.0172591
0.023924
-0.228781
0.14777
-0.69384
0.0735514
0.672573
0.0757048
-0.930722
0.529784
0.0239139
0.512837
-0.0353449
-0.836654
0.426096
-0.228869
0.368956
0.625616
0.370078
0.184392
0.182643
-0.701552
-0.703803
0.0967083
-0.314289
-0.445237
1.18792
-0.235549
-0.0655941
-0.0819545
-0.186325
-0.0957151
-0.688728
0.386927
-0.0293473
-0.561804
0.27916
0.0598664
-0.388231
-0.919414
-0.124967
-0.557765
-0.426371
0.0530975
-0.183018
0.510065
-0.414873
-0.277116
-0.454695
0.195224
-0.45018
-0.0964259
-0.187412
-0.419255
0.446136
0.386088
0.0864027
0.238776
0.327118
-0.605434
-0.218521
0.0110976
0.231297
-0.0300226
0.00784699
-0.54539
0.458345
-0.144781
0.282052
0.117025
-0.325908
-0.430489
-0.208892
-0.426293
-0.259567
-0.222587
-0.386856
-0.0233519
-0.41732
-0.486299
-0.00016243
-0.559124
-0.414634
0.374859
-0.692052
0.102744
-0.704291
-0.168744
-0.530241
0.642756
0.0751436
0.517825
-0.475009
0.658842
-0.400651
0.123539
0.34704
0.29294
0.0495848
0.108858
0.284068
-0.1581
-0.00487809
0.463143
0.330003
0.254707
0.093439
0.405037
0.326191
0.101888
0.0708217
0.416839
-0.284422
0.359271
-0.665795
-0.194205
0.0571302
-0.358612
0.640885
-0.179608
0.231009
-0.0703231
0.255219
-0.644567
-0.131508
0.259336
-0.688063
0.228677
-0.758669
0.530097
0.101403
-0.0637996
-0.0758214
0.477586
-0.462828
-0.0267696
0.585003
0.49903
-0.416606
-0.343322
-0.0297916
-0.136117
-0.15601
-0.174681
-0.376862
-0.217997
0.654725
0.025326
0.877015
0.297573
0.271018
-0.034048
-0.928342
0.356253
0.069499
0.00379535
0.522866
-0.327726
0.0117571
0.119067
-0.217762
-0.51073
-0.395517
0.159356
-0.46574
0.499649
0.165179
-0.399908
-0.64864
0.115949
0.551248
0.239371
0.166706
-0.242411
0.17985
-0.0134363
0.323869
0.479884
-0.111063
-0.237236
0.226687
-0.378881
0.111881
0.203827
0.0483182
-0.196024
0.417667
-0.422777
0.563984
-0.334482
0.0190296
0.0120946
-0.902678
0.0696596
-0.485653
0.583885
0.0159689
-0.240033
0.0328661
-0.256181
0.50575
0.118289
0.053744
-0.251044
0.250364
0.058817
-0.194964
0.117883
-0.845912
-0.140217
0.657428
0.029338
-0.27871
-0.324953
0.018333
-0.27573
-0.453101
0.107886
-0.107241
-0.116727
0.773591
0.00688193
-0.16087
-0.042801
-0.00975107
-0.442229
-0.298905
-0.593114
0.479601
0.519044
0.520193
0.0396807
-0.120407
-0.371701
-0.89039
-0.00532029
-0.17328
-0.192393
0.149021
0.284629
0.148448
0.0303704
-0.0512302
-0.167567
-0.1788
-0.783213
-0.504091
0.513468
-0.0967181
-0.00811926
0.585415
-0.693996
0.402523
-0.180818
0.0332716
-0.214009
-0.451609
-0.414927
0.0464555
-0.888914
-0.116747
-0.462218
0.201897
-0.411978
-0.364346
0.387449
-0.433214
-0.0839463
-0.298832
0.245081
0.160422
0.407278
-0.466008
0.131352
-0.168048
-0.2586
-0.546987
-0.0998794
0.422202
0.0791317
0.660348
-0.346222
0.0917403
0.325796
0.298316
-0.26619
0.234396
0.293942
-0.590808
-0.295433
0.54602
-0.337294
-0.31098
0.0387731
-0.155844
-0.38615
-0.432172
-0.271038
0.145556
-0.289273
0.225603
-0.0168122
0.048962
-0.297023
0.167276
0.208929
-0.782948
-0.23017
0.310114
0.629501
0.304409
0.730241
0.328414
0.530272
-0.407223
-0.263688
-0.801863
-0.459076
0.923459
0.215767
0.606555
-0.879648
0.133764
0.790117
-0.327001
-1.12287
0.131676
0.271235
-0.454612
0.303783
0.150921
-0.0907756
0.199015
-0.278306
0.0964009
-0.934412
-0.559314
0.160735
0.0058668
0.00615644
0.207283
-0.315623
-0.255267
-0.29744
0.0936947
0.885759
-0.284288
-0.545296
0.891777
0.0915323
0.3647
0.0921248
-0.256352
0.0953436
-0.139291
0.223505
-0.627435
-1.17608
0.32388
-0.196545
1.42071
-0.903107
-0.483032
-0.221706
-0.548884
-0.885653
0.389457
0.333047
0.012695
-0.0270695
0.295495
-0.709666
-0.754375
-0.019182
-0.297138
-0.553896
0.452123
-0.265922
0.692797
-0.0242181
0.308423
-0.0917918
0.42752
0.0673673
0.0715213
0.224564
-0.702128
-0.131827
0.0605926
0.398757
0.603216
0.447415
0.0802568
0.340664
-0.353132
-0.125555
-0.68198
-0.824975
0.489086
0.268207
-0.0191504
-0.144703
-0.2501
0.926407
-0.189153
-0.567154
0.00140756
-0.27977
-0.438217
0.380175
0.513817
-0.279764
-0.245744
0.0748372
0.0261775
-0.169582
-0.356095
-0.630619
0.606809
-0.389231
0.38462
0.0694572
0.522279
-0.030564
0.607134
0.264936
-0.532064
0.113325
-0.416782
0.815394
0.291786
0.953505
0.101919
-0.164213
0.00342946
0.00970697
-0.283621
-0.908059
0.504554
0.702462
0.426863
0.20279
-0.604886
0.279301
-0.134771
-0.837987
-0.242637
-0.343706
-0.223147
0.229528
-0.335752
0.248567
0.1706
0.543829
0.111807
-0.0982616
0.255763
-0.863698
-0.0770145
-0.302015
0.413392
0.612132
0.614469
-0.161873
0.553684
0.493527
-0.324418
-0.112128
0.369232
0.784286
0.141814
0.096753
0.0888665
0.204061
-0.0525742
0.0835915
0.131503
-0.661627
0.181825
0.63837
-0.411689
0.208963
-0.0932403
0.179268
0.129189
0.0760686
-0.237525
-0.568675
0.29803
-0.101849
0.354455
-0.409842
-0.264884
0.401889
-0.0400305
0.0621057
0.193583
-0.338317
-0.0961223
-0.256145
0.387359
-0.0841758
0.451427
0.345649
0.890604
0.286755
0.0362249
-0.303749
0.318745
1.00685
-0.0327487
0.573055
0.443975
-0.214527
-0.805483
0.0915068
0.0156546
0.238165
-0.302324
0.368682
-0.437388
0.426968
-0.0714447
0.821714
0.18802
-0.245459
0.300797
0.0212535
-0.0802052
0.351054
-0.496265
0.35002
0.0394603
-0.0668481
-0.0716118
-0.354352
-0.0843534
-0.330137
0.0463336
0.0452772
-0.271289
-0.0701754
0.331077
-0.0761594
0.443756
0.442863
0.0441896
0.332313
-0.0277097
0.0316217
0.368848
0.109504
0.607656
-0.606899
-0.0862362
-0.183316
-0.204648
0.736591
0.0685449
0.154462
-0.512093
0.469097
0.282735
0.759006
-0.00273536
-0.296733
0.419504
0.231649
0.0950619
0.215333
-0.249727
0.176824
0.213909
0.173052
0.213626
0.164337
-0.356189
-0.403781
0.700442
0.49708
-0.350074
-0.195508
0.642337
-0.098052
1.1197
0.275812
-0.189557
-0.282624
-0.0831551
-0.185142
0.289856
0.28813
0.515494
0.169238
-0.424096
-0.0476596
-0.224923
0.486602
0.131695
-0.239851
-1.27273
0.906925
0.28051
0.580175
-0.00588892
-0.0843096
0.316399
-0.418675
0.120233
-0.157887
0.303363
-0.293818
0.0518332
0.219522
0.719098
0.522435
-0.222273
0.406761
1.04902
-0.0363047
-0.0110896
0.301989
-0.00376183
-0.035925
0.873267
-0.191307
0.182272
0.27786
-0.173884
0.257449
-0.468403
-0.101351
0.249538
-0.530175
-0.451364
-0.412922
0.355217
0.0963088
-0.156966
-0.23542
-0.276478
0.784722
0.46897
-0.195332
-0.305503
-0.247456
0.0907051
-0.360624
-0.0583741
0.279166
-0.0516525
-0.543016
-0.103866
-0.132129
0.435141
-0.233244
0.138637
0.249875
1.09768
0.278143
0.299224
-0.119708
0.298988
0.229661
0.334448
-0.623396
0.142122
0.0743137
-0.337617
-0.0642857
0.0211399
-0.433371
-0.410201
-0.270467
-0.333938
-0.401518
0.042703
0.0859939
-0.431331
-0.08859
-0.894377
0.811416
0.618006
0.372577
-0.386369
0.0287005
-0.827476
-0.179551
0.0414604
0.0779835
0.344184
0.557494
-0.110034
-0.707796
0.320577
0.156632
-0.12859
0.401977
0.215358
-0.338783
-0.667165
0.209646
0.269338
-0.113537
0.129888
-0.605407
0.0636272
-0.551528
0.178931
-0.705446
-0.0345372
0.204569
0.315656
0.102168
0.0685645
-0.212563
-0.103957
-0.203704
0.0472397
-0.172663
-0.0952398
0.362794
-0.326374
0.265657
-0.00866558
-0.345278
0.226751
-0.211265
0.140603
0.0391048
0.433646
0.123548
-0.399274
0.571596
0.10177
-0.411018
0.251605
0.394818
0.530318
-0.685953
0.0288521
0.143877
-0.0570383
-0.0842396
0.349309
-0.2583
-0.254513
-0.178073
0.0454956
-0.687606
-0.705969
0.227808
-0.0272134
-0.219403
-0.180437
0.00667575
-0.29912
-0.303258
0.378596
0.0116175
-0.849059
0.452145
0.672955
0.393794
-0.290432
0.20401
-0.638657
0.421849
0.197318
0.117529
0.344561
-0.211847
-0.0391193
-0.351987
-0.11674
-0.473854
0.00524541
0.531967
-0.0764772
-0.71357
-0.538604
0.0216899
0.1861
0.626551
-0.0288993
-0.407099
0.40107
-0.272537
0.146913
-0.737811
-0.716662
-0.36058
0.152576
-0.352082
0.902401
-0.585573
-0.402816
0.0615438
-0.436075
-0.176318
-0.983649
0.294725
0.679779
0.223546
-0.396617
-0.515289
-0.224278
-0.0517844
0.0634364
0.535379
0.25639
-0.00938423
-0.390537
-0.0143573
0.18168
-0.350129
0.0900116
1.31451
0.0615407
-0.375295
-0.596937
-0.00331594
0.661301
0.0967632
0.756948
-0.524884
0.354837
-0.203141
0.297824
-0.26134
-0.292887
-0.701439
-0.0375155
0.0380204
-0.734384
-0.349339
-0.0676911
0.0328246
0.177111
-0.261896
-0.928111
0.0748989
0.0842664
0.145082
-0.288591
0.053681
0.315922
-0.195371
0.63257
-0.00862565
-0.0629617
-0.491222
-0.357633
-0.336029
0.427764
0.290901
-0.373236
0.93443
0.806634
-0.17874
-0.24534
0.21025
-0.127448
0.339102
0.381938
0.410158
0.44154
-0.529832
0.123742
-0.418589
-0.271175
-0.176405
0.578977
0.16771
0.405197
-0.319342
-0.134154
0.298832
0.259095
0.0766841
-0.691169
1.12392
0.0504131
0.656255
0.689316
-0.166302
0.456063
-0.372837
0.234616
0.607516
0.450259
-0.120547
0.0101161
0.355541
-0.295897
-0.0111963
0.0538598
0.110038
0.237304
-0.403368
0.609563
0.646032
0.39073
-0.221874
0.982024
0.0555584
-0.022928
-0.543153
0.37509
-0.31986
0.875281
0.402564
0.117913
0.461452
0.142001
0.107584
0.0294874
0.655965
0.100125
-0.753622
-0.354258
0.362596
0.405387
0.451608
-0.296785
0.459151
0.739468
-0.174735
-0.00283771
0.433391
-0.243437
0.238659
0.0171604
0.395609
0.0332466
0.0326179
0.515507
-0.128559
-0.131665
-0.0457119
0.412724
0.218325
-0.126324
-0.258059
-0.0635169
-0.0873794
-0.373007
-0.322663
-0.214587
0.174982
0.693013
0.20888
0.0973689
-0.0730156
-0.0705081
-0.310608
-0.129708
0.155775
-0.455947
-0.405935
-0.198324
-0.47781
0.476159
0.533056
-0.73844
0.199288
-0.33041
-0.112012
-0.419666
0.266925
-0.313428
0.117111
0.16285
0.765915
-0.11657
-0.238638
0.50811
0.207264
0.129768
0.55308
0.460265
0.0286594
0.730646
-0.166884
0.338578
0.058973
-0.172916
-0.232761
0.117376
-0.0718259
0.0325739
0.338123
-0.436269
0.572404
-0.203909
0.141278
-0.254226
0.0828248
0.491074
-0.149626
0.71423
-0.0372736
0.472755
0.0658453
-0.0368851
0.336715
0.436866
-0.717842
-0.333692
0.304383
0.629251
0.33659
0.417552
0.036519
0.000878546
0.123448
-0.187316
-0.147873
0.113437
-0.0883188
0.0727646
-0.397382
0.150647
0.490602
0.622885
0.0829864
0.351575
0.30317
0.340882
-0.262756
-0.764919
-0.0113898
-0.29797
0.183396
-0.13523
-0.0369058
-0.3482
0.0100403
-0.0712796
-0.124582
0.276009
-0.577757
0.355906
0.608515
-0.0354324
0.6407
0.351136
-0.391716
-0.27721
-0.0827554
0.375013
0.00864366
0.428363
-0.122646
0.163074
-0.682591
-0.193836
0.200945
0.223458
-0.380237
0.248749
-0.211878
0.305103
0.0414348
0.338048
-0.165103
0.587684
0.226256
0.306141
0.329117
-0.116395
-0.162953
0.119972
0.330065
-0.509415
-0.322583
-0.682153
-0.000870079
-0.37795
0.125647
-0.140825
-0.648967
-0.140486
0.193553
-0.473995
1.01851
0.484202
-0.476134
-0.208429
0.304705
-0.705433
0.0567641
-0.462885
-0.262383
-0.249654
-0.349365
0.0570175
0.522997
0.212616
0.0268752
0.436595
-0.223715
0.106756
0.562387
0.246701
-0.433551
0.812695
-0.724447
0.537124
0.628366
-0.33671
-0.692286
-0.801818
-0.447009
-0.346923
-0.42482
0.0700937
0.704454
-0.456517
-0.605301
0.503563
-0.069105
-0.0794433
-0.0725168
0.36568
0.367552
-0.13842
-0.0339962
-0.903296
0.0377449
-0.275181
1.01964
-0.0623808
-1.05433
0.300205
0.278689
0.282797
0.109218
0.144243
-0.19489
-0.220197
-0.22681
-0.0173656
0.0707202
0.144121
-0.0609215
0.732837
-0.27141
0.72105
0.118381
-0.154721
-0.696852
-0.183356
-0.0561337
-0.470713
-0.475539
0.361315
-0.224586
-0.467588
-0.0508677
0.480799
-0.670367
0.136852
0.499991
-0.448984
-0.0637648
-0.110701
0.491184
-0.388971
0.139996
-0.0893136
0.279349
0.204906
-0.10046
0.359845
0.169664
0.450331
0.638445
0.487835
-0.257493
0.048084
-0.446416
-0.323111
0.0515297
0.248227
-0.23626
0.940301
-0.524176
0.223165
0.597344
-0.127705
0.197037
-0.614308
-0.272934
-0.902954
0.118059
0.0991025
0.0622745
-0.65977
-0.650786
0.383537
-0.351698
0.0408885
0.223368
-0.386413
0.168946
-0.0300386
0.543934
-0.173839
-0.208999
-0.207956
0.495927
-0.170406
-0.171752
-0.127732
0.515932
0.662007
0.756005
0.0652983
-0.429879
0.558763
-0.416478
-0.278637
-0.13951
0.178191
-0.0135667
0.377009
-0.211008
-0.102471
0.588307
0.250731
-0.0742194
-0.7959
0.224745
0.0705975
0.221317
0.711064
-0.677873
0.295302
-0.369652
-0.103351
0.0847311
-0.559022
0.300303
-0.636803
0.184867
-0.277808
-0.157129
-0.797385
0.297896
0.335365
0.130665
-0.342424
-0.559192
-0.580699
0.643304
0.612025
0.729922
-0.0548312
-0.784861
0.545674
0.0863998
0.492134
-0.402593
-0.00195993
-0.236429
0.622882
0.0473251
0.615723
-0.343933
0.633204
0.145534
-0.947861
0.148584
-0.777175
-0.533496
0.0824067
0.076721
0.567369
0.304955
0.220018
-0.470063
-0.415318
0.339283
-0.515463
-0.156798
-0.16688
-0.224164
-0.787758
0.196107
0.753931
0.424608
-0.272995
0.0314744
-0.55987
0.628975
-0.0493606
0.685338
0.491367
0.15149
-0.200892
-0.714263
-0.0747825
-0.525817
-0.0374036
-0.180473
0.674947
-0.498066
-0.30025
0.388803
0.00243262
0.0623063
-0.703822
-0.140594
-0.311257
0.342264
0.0521322
-0.417199
0.215883
-0.1998
0.176748
-0.360754
0.298704
0.101288
0.0287063
0.204842
0.324603
0.416933
-1.08649
0.473614
-0.239519
-0.0829979
-0.294085
0.408389
-0.229629
0.0128518
-0.0991426
-0.28481
0.19204
-0.616189
0.328054
-0.609679
0.436817
-0.135588
-0.19153
0.146609
-0.269381
0.296204
-0.0847354
0.303515
0.131135
0.620436
-0.617644
0.424422
-0.354396
-0.258973
0.00388289
-0.440357
0.267628
0.386338
0.303749
-0.195256
0.229801
-0.353787
-0.335055
-0.625803
0.150439
0.246982
-0.749417
0.191173
0.238453
-0.745768
-0.395611
-0.0301407
-0.196579
-0.280018
-0.384284
0.611813
-0.103979
-0.162893
0.0682686
-0.421934
-0.0409115
0.00136765
0.403448
0.247689
-0.362382
0.205822
-0.144344
0.154161
0.0705771
0.585794
-0.040391
-0.266861
-0.420128
-0.263419
-0.295103
-0.418764
0.645937
-0.554787
0.862656
-0.407096
0.0557452
-0.457314
0.312029
-0.239632
-0.38599
0.227831
-0.394862
0.0741848
-0.0412462
-0.136314
-0.320531
0.229016
-0.243512
-0.259372
0.127388
-0.200601
0.396766
-0.160587
0.888101
0.217621
0.00761177
-0.341817
0.167161
0.312882
-0.964352
-0.126682
0.937617
0.349172
0.841584
0.3708
0.123965
0.348323
-0.454209
-0.363979
-0.498014
-0.630796
1.03444
0.177759
0.493887
-0.788131
0.128365
-0.0188065
-0.341255
-0.308752
-0.29464
0.394804
-0.17479
-0.132253
0.15006
-0.0489008
-0.171424
-0.187408
0.153403
-0.138602
-0.187703
-0.055999
-0.220841
-0.555994
0.269674
0.0827516
-0.208805
-0.296922
0.0498375
0.625827
-0.258652
0.240768
0.763005
0.0690922
0.190428
0.792299
0.0762144
0.510892
0.763392
0.0668606
-0.550871
-1.6603
0.979263
0.201187
1.38991
-0.647033
-0.135277
0.180945
-0.504422
-0.305762
0.127529
0.0852106
-0.484822
0.223158
0.789867
-0.457585
0.00336726
-0.13581
0.412774
-1.09469
0.0258836
-0.391411
0.382761
-0.707889
-0.277052
0.528693
0.436607
0.201774
0.301391
0.925339
-0.708731
0.311124
0.20766
0.650123
0.562748
0.51171
0.796901
0.305842
-0.259231
-0.216976
-0.324651
-0.732005
0.795161
0.389772
0.701704
0.172655
0.0117591
0.356519
-0.47148
-0.437174
-0.395683
-0.215676
-0.182315
0.0748483
0.118276
0.406826
-0.667086
-0.414422
0.268652
-1.13292
-0.164784
-0.139459
-0.0401154
0.331443
0.717628
-0.0310886
-0.0563241
-0.184369
-0.0321953
0.889343
-0.437097
-0.209719
0.400688
0.342447
0.463146
0.894008
0.902648
0.118749
0.0130154
-0.742219
-0.271961
-0.196202
0.334957
-0.138747
0.0851765
-0.0097489
0.170598
0.669058
-0.370689
-0.154537
-0.130596
0.214453
0.724584
0.183662
0.126432
0.0341707
0.264998
0.301142
0.156229
-0.488867
-0.212602
-0.711328
0.270951
0.00417525
0.390666
0.500736
0.301785
0.409018
0.0833099
0.718176
-0.63822
-0.144209
-0.313831
0.57124
0.761159
0.0446025
0.555552
0.69689
0.420492
0.200105
-0.120602
-0.875795
0.168266
0.278843
-0.708584
0.390492
0.406846
0.392182
-0.0164045
0.209828
0.307665
0.0101514
0.347551
-0.131428
0.320233
0.59605
-0.477407
0.25276
0.552078
-0.528377
0.302183
-1.35497
-0.126117
-0.20133
0.15369
0.370148
0.527969
-0.22829
0.586223
0.758876
-0.0384558
0.000523696
-0.0933259
0.360189
0.0188342
0.372062
0.714973
0.271976
0.00203387
-0.760721
0.119968
-0.224989
-0.00555116
0.231518
-0.832929
1.04163
0.365355
0.311557
-0.666177
0.53205
-0.180008
-0.378133
-0.251425
0.409999
-0.362853
0.562058
-0.424482
0.406602
0.112856
0.315156
0.104655
-0.950345
0.357021
-0.0493921
0.160432
0.49787
0.254454
0.419207
0.290447
0.127124
-0.36753
-0.359782
0.0700213
-0.194324
0.879116
0.233049
0.363434
-0.327255
-0.282859
0.0612307
0.117429
0.290308
0.000743833
0.316136
-1.06167
1.03885
0.054376
0.581054
-0.125945
0.610327
0.121024
-0.210795
-0.0256536
0.240943
0.0504905
0.21765
-0.0630485
0.373311
0.00364902
0.327572
0.285291
0.0169763
0.484346
-0.0334438
-0.512864
0.451767
0.160853
0.0487751
0.858813
0.0115852
-0.313058
-0.00175407
-0.164694
0.118109
0.404401
0.0549671
0.135186
-0.25173
0.1027
0.120919
0.26705
0.117653
0.088892
0.319786
-1.03007
0.909333
0.199298
0.00103641
-0.141213
-0.0414272
0.115036
-0.0871466
0.262473
0.216627
0.373727
-0.273965
-0.381998
-0.194596
0.797366
0.064983
-0.146952
-0.405957
0.66606
-0.154251
-0.351783
-0.406649
0.558446
0.207536
0.593646
-0.23121
-0.124083
-0.779723
0.17761
-0.351886
-0.257872
0.523296
0.415737
-0.208464
0.126063
-0.214084
0.420875
0.275383
-0.795393
0.0696946
-1.53626
0.889161
-0.132588
0.137346
-0.79299
0.492022
0.0671989
-0.75194
0.344378
0.66128
-0.362973
0.642048
0.179216
0.148144
0.274692
0.265398
-0.350557
0.13219
0.849886
-0.213345
0.0490975
0.00272018
-0.0722782
-0.103743
0.624039
-0.364545
0.159716
-0.581658
0.0709413
-0.269444
-0.354798
-0.205072
0.25364
-0.398388
-0.000899293
-0.707118
-0.0961358
-0.034336
-0.0388115
-0.420805
-1.03746
0.486838
0.195326
-0.0165854
0.209505
0.190772
-0.206685
0.312618
0.237223
0.152123
-0.133889
-0.0461435
-0.758338
0.314085
0.123403
0.435068
-0.556475
0.388759
0.756991
0.129187
0.0455427
-0.0234342
0.275251
-0.39966
0.190919
-0.378205
0.0453039
-0.279199
-0.629372
-0.663536
0.00726103
0.2513
0.157144
0.0648564
0.375338
-0.420442
0.42247
0.258854
0.0588541
-0.667972
-1.38562
0.991129
0.168124
0.190438
-0.544869
0.130192
-0.0556808
-0.0168725
0.0162072
0.483862
0.0630462
0.531669
-0.469757
0.418875
0.0600501
0.234893
0.174868
0.824609
0.790053
-0.542131
-0.236039
0.136399
-0.0493841
0.242651
0.511555
-0.0852488
-0.548516
-0.17956
-0.0373458
-0.159504
-0.587622
0.0375901
0.652216
0.325406
0.763204
-0.36601
-0.255894
-0.0365489
0.427235
-0.0383492
-0.857853
0.486789
0.0268628
0.440224
0.306959
-0.645726
0.0832554
0.0692793
0.106724
-0.0901426
-0.106966
-0.296287
-0.373955
-0.48669
0.0591666
0.405591
-0.230181
0.935125
0.292614
0.349002
0.300179
0.506284
0.568464
0.18433
0.248635
-0.459305
0.0970935
-0.200176
-0.201574
-0.591308
-0.306573
0.00735361
0.672186
-0.220784
0.0382202
-0.750545
0.0252914
-0.576962
0.311725
-0.0285995
-0.986136
0.97849
-0.0994907
0.333464
-0.203608
-0.461151
-0.39444
-0.308142
0.0111203
0.273203
-0.0638301
0.300441
-0.240883
-0.0903974
0.200193
-0.275076
0.187156
0.770669
0.430616
-0.419678
0.183573
-0.189251
-0.0408827
0.0613718
0.954096
-0.285362
0.27018
0.107225
0.353006
-0.270981
-0.0524407
-0.119873
0.605592
0.13418
-0.537243
-0.818691
0.055692
-0.995508
-0.520331
-0.588149
-1.34648
0.542903
-0.0511925
0.0624016
-0.0654153
0.0784944
0.459951
-0.100018
0.020096
0.393665
0.594572
-0.203275
0.028429
0.346669
-0.0936103
-0.458993
-0.19038
0.551936
1.00752
0.384463
0.154757
-0.0633406
0.269939
-0.215061
0.415667
-0.456528
-0.342507
0.205471
0.623506
-0.468855
0.259954
0.136285
0.329823
0.239611
-0.0503133
-0.782143
-0.890142
-0.590542
-0.376993
-0.190926
-0.412239
0.96509
0.236691
-0.00817478
0.722794
0.235827
0.337739
-0.363083
-0.158797
0.668717
0.167567
0.178771
-0.497073
-0.125579
-0.434833
0.00177884
0.23821
0.0892171
0.173911
-0.176268
-0.198856
0.21774
0.115918
0.108718
0.220765
0.165185
-0.166534
-0.368564
-0.330627
-0.105369
0.549179
0.528017
-0.0986606
0.403134
0.163328
-0.501421
0.0739673
0.543192
-0.283827
-0.368597
-0.256593
0.621039
0.508476
0.332892
-0.155801
0.456823
0.27778
-0.0360695
0.127424
-0.183892
0.325971
0.110481
0.115847
0.677005
0.111003
-0.119448
0.279601
0.260628
0.0118164
-0.288793
-0.280231
-0.249451
0.0392518
-0.232719
0.0787008
-0.647709
0.377871
0.350955
0.401817
0.151659
0.849613
0.392785
-0.333777
-0.175396
0.176134
-0.0824836
-0.258433
0.273492
-0.560851
-0.21302
-0.150494
-0.246063
-0.182629
0.241672
-0.122234
0.385096
0.420847
-0.337865
-0.289158
0.327815
0.000280141
0.505658
0.556373
0.805063
-0.400632
-0.018699
-0.204406
0.34179
0.367151
-0.180706
0.324212
0.408691
0.40835
-0.302297
0.161166
-0.283192
-0.0980504
0.0224207
-0.0517496
-0.182369
0.141638
-0.0652123
-0.496632
0.416271
0.336269
0.315098
0.332678
0.197145
-0.210868
-0.291891
-0.276495
-0.316825
0.523403
0.768179
-0.709091
0.630833
0.101798
-0.15996
0.0913211
0.351918
-0.401563
-0.127885
0.640737
0.607794
-0.0532143
0.0882378
-0.160875
0.293472
0.835115
0.284323
0.721658
0.080206
-0.154898
0.428228
0.494773
-0.186454
0.851803
-0.349056
-0.316151
0.318039
-0.415329
-0.62409
-0.155844
0.0294717
-0.205159
0.26311
0.0145702
-0.0274754
0.138272
-0.322378
-0.0525906
-0.0430801
-0.180664
0.838216
-0.445306
0.124532
0.196493
-0.438475
-0.333478
0.698381
0.286353
0.681119
-0.311397
-0.758446
0.426252
-0.428268
-0.0378092
0.627216
0.837893
-0.28815
0.723545
0.0422064
-0.164038
0.353142
0.33174
-1.25323
1.0669
-0.635533
-0.508096
0.529823
-0.472467
-0.200959
-1.24849
-0.0846169
-1.28628
-0.51672
-0.21191
-0.124061
-0.225821
-0.00248471
0.00202197
-0.541983
0.187319
1.41836
-0.122929
0.446627
0.0355895
0.340206
-0.671573
0.26409
-0.667376
0.169266
0.233834
0.206881
0.169354
0.377391
0.192322
0.51119
0.256319
-0.007216
0.103904
0.298785
-0.122044
-0.20409
-0.17389
-0.584575
0.598717
-0.0203483
0.0970076
0.0586842
-0.515342
-0.128423
-0.272179
-0.379771
-0.639779
-0.518342
0.315355
0.41186
-0.137041
-0.169804
0.690392
0.0487547
-0.29192
0.862139
0.179694
0.537956
-0.261082
0.540944
-1.28731
0.484042
-0.156429
-0.0387911
-0.277775
-0.375974
-0.413637
0.218305
0.532438
0.687582
0.284719
-0.685864
0.310324
-0.22246
0.350316
-0.129156
-0.00813516
-0.704758
0.468933
-0.450722
0.629551
0.306727
-0.638109
0.0525782
-0.672042
0.339339
-0.285856
-0.830196
0.286356
-0.151707
-0.289942
-0.64871
0.801275
0.159584
-0.604303
0.855651
-0.0620157
0.716575
0.171135
0.33221
-1.10049
0.329408
-0.140158
-0.421616
0.233535
-0.467721
0.112248
0.531776
0.102189
0.735664
1.02533
-0.11225
0.333088
-0.441329
-0.308198
0.000357928
-0.0448368
-0.198613
0.327264
-0.0313857
0.534445
0.504118
-0.416146
-0.0962043
-1.15387
0.195152
-0.923167
-0.43397
0.374928
-0.557313
0.264858
-0.423883
0.0354029
-0.166218
-0.107903
0.0604164
0.0313149
0.646703
-0.087024
0.600372
-1.09744
-0.0622736
-0.279777
0.208346
0.275068
-0.281004
-0.36986
0.0854278
0.425714
0.411207
0.383314
0.0743146
0.155465
-0.376953
0.210144
-0.0963257
-0.158333
-0.276122
-0.204658
-0.209905
0.61219
-0.03338
0.643828
0.221826
-0.25914
-0.254877
-0.57718
-0.154278
0.761681
-0.831437
0.449372
-0.330954
0.390675
-0.0990887
-0.112123
-0.0964437
-0.469014
0.525642
-0.427907
0.699565
-0.73663
0.180494
0.0957583
-0.136
-0.630034
-0.302336
-0.172205
0.686487
0.293123
-0.266222
0.333704
0.0949166
1.02833
-0.230429
-0.396624
-0.539197
0.11052
-0.0472895
-0.00305796
0.0986802
0.31692
0.681767
0.281161
-0.257299
-0.18199
0.47912
-0.557369
-0.650889
0.382292
-1.08032
0.276685
0.0100452
0.412358
-0.995684
0.482463
0.895666
-0.863201
0.670777
0.187069
0.185113
-0.176818
-0.108544
