-0.0404674
0.0565026
0.48426
-0.32059
0.489562
-0.37438
-0.366804
0.231716
-0.73778
0.862818
-0.106988
-0.520135
-0.0988666
0.347454
0.198225
0.203973
-0.449856
-0.290662
-0.826142
0.174887
-0.174425
-0.55782
-0.155626
-0.194732
0.213599
0.265947
-0.397687
-0.185829
-0.818161
0.853643
0.326658
0.20179
0.407383
-0.0993676
0.774353
0.500051
0.194185
-0.450797
-0.332874
0.923892
0.142024
0.21161
-0.0429025
0.129438
0.421588
-0.431169
-0.431786
-0.21801
-0.338375
0.469468
0.177872
-0.249461
0.191168
0.340993
0.555709
-0.438472
-0.186995
-0.0707842
-0.79577
0.526735
-0.185332
-0.108642
0.212518
0.212923
0.324267
-0.178253
0.352991
-0.18396
-1.03018
0.967964
-0.185211
0.106287
0.305727
-0.241026
0.275679
-0.324872
0.25395
0.170792
-0.778494
0.505993
-0.289953
-0.295154
0.358969
0.0599688
0.562955
0.1183
0.213528
-0.307908
-0.491533
0.677405
0.372831
0.0937441
-0.101976
-0.243186
0.757465
-0.212975
0.00538123
-0.18003
-0.915015
0.596117
-0.0508765
0.153243
0.633802
0.311164
-0.0647479
-0.174108
-0.487126
0.0563801
-0.260203
0.912393
0.229781
0.30093
-0.230272
0.0448614
0.313748
0.117323
-0.0934788
0.391412
-0.938845
0.391091
0.411232
0.0209998
0.0331982
-0.368143
0.49145
-0.351283
-0.299612
-0.179444
-0.715713
0.62601
0.0711341
-0.180724
0.184097
0.316644
0.38049
0.137889
-0.300777
0.246076
-0.850144
0.342319
0.00141908
-0.244916
-0.111764
0.0260411
0.504543
-0.258435
0.115373
0.0727015
-0.0758118
0.555037
-0.0603193
-0.0405296
-0.123839
-0.427778
-0.114715
-0.152192
-0.6014
-0.523245
-0.763754
0.424941
-0.355421
0.187678
-0.280974
-0.181374
0.246789
-0.127246
-0.168023
0.0482724
-0.947689
0.765138
0.0696202
0.108306
0.499447
-0.345292
0.793097
-0.177325
0.233315
-0.198495
-0.984183
0.22937
-0.0488458
-0.305081
0.0475912
0.204457
0.209466
-0.120807
-0.164878
-0.242543
-0.784364
0.258203
-0.0356257
0.344833
0.537039
-0.137369
0.241352
-0.102755
0.163077
0.144611
-0.802971
0.380723
-0.00399797
-0.284508
0.667926
-0.295531
0.161727
0.532207
-0.206396
-0.166882
-0.446455
0.38676
0.217927
-0.363621
0.223024
-0.4918
0.680943
-0.35517
-0.376068
-0.168484
-0.40773
0.555376
0.391548
0.169439
0.618236
0.0125332
0.309113
-0.365187
-0.143363
-0.504076
-0.832685
0.0752042
-0.144361
0.269613
0.121996
0.0743049
0.679002
-0.358108
-0.085085
0.151039
-0.606281
0.484075
0.158965
0.208301
0.163219
-0.369627
-0.094297
0.444423
-0.0926858
-0.167228
-0.548749
0.0489964
-0.15873
0.296368
0.391406
-0.521483
0.43957
0.334451
0.332737
-0.114292
-0.802662
0.674091
0.24319
-0.105087
0.235683
-0.0997903
0.0278058
0.242149
0.132291
-0.0348393
-1.00024
0.760626
0.0891184
0.313434
0.131975
-0.457619
0.426524
-0.180251
0.339202
0.409237
-0.994513
0.0688809
0.0968574
-0.297578
0.416843
-0.576352
0.743832
-0.357507
0.233985
-0.021626
-0.628593
0.224304
-0.19166
0.247876
0.334126
0.200348
0.659446
0.0797131
-0.465283
-0.191288
-0.0654965
0.535984
-0.108751
-0.0306266
0.612901
-0.550765
0.719385
0.346801
-0.23187
0.0681881
-0.263078
0.481157
-0.446506
-0.0129225
0.54682
-0.26938
0.357077
-0.106542
-0.24438
3.08774e-07
-0.375943
0.845457
0.438464
0.0474012
0.675188
0.16178
0.409234
0.0475594
-0.0707944
0.103707
-0.138959
0.832384
-0.17135
-0.362849
-0.133068
-0.246853
0.445123
0.112729
0.33253
-0.00646324
-0.223624
0.0752915
-0.377249
-0.156582
0.576821
-0.615605
0.0705961
0.509399
0.394696
0.0994467
-0.13336
0.546927
0.0870894
-0.481949
-0.440658
-0.609806
-0.0221238
0.197013
-0.0165098
0.534811
-0.73099
0.762538
-0.396435
-0.127594
0.0823898
0.219548
-0.154189
-0.318637
-0.359577
0.077604
-0.823655
0.960478
0.000498256
0.22528
0.476116
-0.0182719
0.181662
0.23764
0.30584
-0.396654
-0.393494
1.06614
0.241078
0.0741043
0.301745
-0.267721
0.0906714
-0.324354
-0.0297373
0.442255
-0.648769
0.959325
0.28077
-0.196334
0.523929
0.0956115
-0.290735
0.413588
0.127928
0.00859483
-1.21889
0.388088
0.449144
0.284817
-0.447694
-0.79562
-0.283851
-0.308724
-0.227507
0.390282
-1.22428
0.958797
-0.0627084
0.280785
-0.195092
-0.335847
-0.0628541
0.571772
-0.441593
-0.17629
-0.655616
0.728067
0.155518
-0.463723
0.67292
-0.454493
0.6651
0.0946695
-0.538055
-0.124396
-0.951342
0.0624236
-0.400565
-0.588569
0.31093
-0.0768525
0.288253
-0.738398
0.205097
-0.194937
-0.802106
-0.334207
-0.12735
-0.275675
-0.219516
-0.242674
0.432699
-0.579409
0.280582
0.208781
-0.0367595
-0.222151
0.171752
-0.059887
0.450544
-0.127553
0.147791
-0.267548
-0.468216
-0.246778
-1.06817
0.376793
0.434343
0.232358
0.118957
-0.356604
0.0592634
0.259514
-0.547617
0.486576
-0.422653
1.16082
-0.303268
-0.451246
0.269919
0.254031
0.678858
0.0783415
-0.0411212
-0.162917
-0.639171
0.244402
-0.0879188
0.123605
-0.0444755
-0.0303218
0.467363
0.34786
-0.280046
-0.0676808
-0.667557
0.765477
0.346852
-0.0557673
0.0661944
0.0414674
0.117049
-0.0817267
-0.530991
0.323633
-0.834008
0.708076
0.211048
-0.0777537
-0.422399
0.319827
0.576741
-0.0491416
-0.499566
0.372411
-0.0972379
0.18504
0.265731
0.0394606
0.404563
0.124504
0.646711
-0.201704
-0.534647
0.495898
-0.504704
0.0583488
-0.00499528
0.300753
-0.105806
0.257422
0.305473
-0.189663
0.13646
0.0478889
-0.668057
0.969652
-0.153229
-0.0538744
-0.242493
-0.450676
0.73033
0.526599
0.34676
0.0450441
-0.171547
0.397108
-0.379899
-0.23053
-0.0527377
0.0361934
0.610317
0.301748
-0.180177
-0.168619
-0.0997134
0.939273
-0.263787
-0.306345
0.654084
-0.0611322
0.515193
0.434767
-0.0560267
0.134285
-0.755034
0.884706
-0.120629
0.299233
0.409232
0.0193574
-0.109044
0.264971
-0.192013
0.132659
-0.415731
0.252253
-0.18613
-0.239576
-0.202388
0.107262
0.807587
-0.342524
-0.223142
-0.137839
-0.0350855
0.319535
0.226491
0.0695806
0.0377878
-0.624973
0.422931
-0.286299
0.117667
-0.396234
-0.603465
0.643164
-0.271062
-0.483544
0.209833
-0.0918712
0.420481
0.235107
-0.404331
-0.128894
-0.836871
0.37472
-0.122981
0.0999009
0.118535
-0.191025
0.528142
0.226596
-0.599898
-0.152491
-0.16294
0.524433
-0.415413
0.0848735
0.0956374
0.0680736
0.47648
0.0604462
-0.470558
-0.453908
-0.655164
0.360452
-0.100991
-0.553168
0.298776
-0.351301
0.649032
-0.309251
-0.0420838
0.0448436
-0.33112
0.108868
-0.174395
0.138276
-0.217343
-0.552854
-0.669719
0.110412
0.308691
0.10623
-0.788136
0.915701
-0.491791
0.356606
0.0210685
-0.208231
-0.918103
0.642848
-0.0681501
0.406731
-1.53974
0.561724
-0.635042
0.175179
-0.0553024
-0.605177
0.0113919
0.874824
0.187275
0.797115
-1.27481
1.14769
-0.571544
0.0635106
-0.797509
-0.130063
-0.635731
0.953807
-0.449126
0.793571
-0.978088
0.898178
-0.390575
0.723252
-1.16992
-0.807525
-0.872268
0.915302
-0.42916
1.5525
-1.54775
1.20654
-0.773541
0.397298
-0.967867
-1.04858
-1.95575
1.20641
-0.353622
1.7145
-2.84601
1.79084
-1.27779
1.1693
-0.610126
-0.847208
-1.23942
0.634866
0.954874
1.24817
-0.812919
1.33119
-0.849965
0.0537387
-0.489778
-0.579188
-1.59568
0.795707
-0.0234527
0.670823
-1.72446
1.38447
-0.912156
-0.435516
-0.480624
-0.782126
-1.07735
-0.0110429
0.451834
0.716577
-0.957588
0.991697
-0.892442
-0.382248
-0.832149
-0.871239
-0.0164529
-1.32242
0.263954
1.13732
-0.801076
1.09634
-0.203331
0.105814
-0.493673
-0.54791
-0.325011
0.740865
-0.20813
0.842085
-1.78897
1.3686
0.159577
-0.472088
0.336511
-0.976104
-0.358026
0.211561
-0.291227
0.622924
-2.04179
1.73557
0.735935
-0.749618
0.741129
-0.822977
-0.913849
0.166993
-1.33989
1.39515
-1.28777
2.1946
-0.404697
-1.07448
0.371976
-0.228853
0.12289
0.873774
-0.505578
0.235628
-1.40571
0.752795
0.0461797
-1.11722
0.597595
-0.342775
-0.368548
0.494831
-0.165767
0.82942
-1.21573
1.20765
0.307951
0.275691
0.739001
-0.604951
-0.0552018
0.495487
0.126309
0.194233
-0.691628
1.06803
0.377997
-0.543205
0.0879355
0.023473
-0.510381
-0.218682
-0.740423
0.466582
-1.06748
0.650758
0.228945
0.307116
-0.266164
-0.091415
0.00777251
0.562758
-0.250554
0.355424
-0.331587
0.0376579
-0.469334
-0.259571
-0.396976
-0.474579
0.558116
0.34394
0.19855
0.0745776
-0.150719
0.812111
0.030482
0.0779838
0.580309
-0.52211
-0.089592
0.0949137
-0.558443
-0.370617
-0.134918
0.0538838
-0.275612
-0.316033
0.014564
0.328176
-0.0503056
-0.184342
-0.162026
0.397192
-0.776918
0.564627
-0.0348974
0.0386573
0.222114
0.126332
0.372113
0.50745
-0.474851
0.369901
-0.637944
0.981132
-0.306113
-0.0544188
-0.178047
0.000276818
0.270687
0.0865463
0.172956
0.39777
-0.547977
0.772657
0.0843091
0.122125
-0.27036
-0.344901
0.314758
0.554754
-0.31103
-0.380601
-0.177316
0.798114
-0.364972
-0.114549
0.425241
0.0513397
0.509936
-0.341675
-0.498463
-0.317343
-0.652797
0.171403
0.16883
0.0423255
0.193106
-0.0348858
0.722766
0.235388
0.480963
0.397186
-0.539588
0.323088
-0.644026
-0.631212
0.00747799
-0.141251
0.737932
-0.226483
-0.227385
0.052955
-0.445048
0.816269
-0.686407
0.307526
-0.367358
0.102751
0.230797
0.566499
0.072621
0.0879973
-0.422538
0.774102
-0.586602
0.166527
-0.867122
-0.142917
-0.271602
0.299818
0.264278
0.892072
-0.764249
0.4925
-1.11709
1.03092
-1.62978
-0.0730686
-1.79596
0.534265
0.612355
1.57544
-0.794957
1.89093
-0.333977
1.16331
-1.66065
0.189142
-1.71766
1.34367
0.250099
1.69339
-1.29313
1.7906
-2.0247
0.642453
-3.38893
0.0791425
-0.510667
2.71502
0.764476
1.1254
0.591073
1.20907
-1.90098
1.1741
-1.59148
-0.357149
-0.852064
2.98081
-1.14678
0.512235
1.02395
0.753822
-2.57596
0.685675
-3.03127
-1.26555
-2.06891
1.0817
-0.933914
0.438949
1.85788
0.675682
-3.15272
1.6365
-4.23321
-0.767435
-2.92835
1.65482
-0.115757
1.40514
0.0793565
0.137376
-1.44152
-0.0905784
-2.55585
-0.362833
-1.24332
2.17323
-1.50498
0.31314
2.0481
-0.389107
0.170023
0.478922
-0.992325
-1.66499
-2.17662
0.528324
-0.819683
0.77059
0.991082
-0.000340486
-0.595897
-0.00763943
-1.56484
-0.876422
-2.0377
2.13394
-0.551205
0.68129
1.18982
-0.0630168
-0.640188
-0.761292
-0.891387
-0.538347
-0.699727
3.0061
-1.51987
1.1726
1.19813
-0.453166
0.0554308
-2.36424
1.91838
-1.28625
0.124421
0.392168
-1.57867
1.40148
-0.316659
0.60614
-0.685937
-0.888929
-0.0177008
-0.75586
-0.615477
1.43053
-0.281564
1.63432
-0.0056095
2.35153
-0.564674
-1.10325
0.646028
-0.518007
-1.74196
-0.147396
-0.0486504
1.55523
-0.575867
1.13169
-1.09598
-1.92293
0.960807
-0.351035
-1.15188
0.564429
-1.11923
1.24175
-0.96217
2.16665
-0.343812
-0.673056
1.35071
-0.820298
-0.882985
-0.420167
-0.524103
1.67672
-0.812206
2.01251
-0.817848
-0.494628
0.679227
-0.246918
-1.24016
1.28059
-0.431497
0.550726
-0.960974
1.10458
0.168506
-0.60856
0.55002
-0.364492
0.332073
0.0354363
0.353639
-0.177376
-0.305254
0.412181
-0.201937
-0.0627297
0.190643
-0.609049
0.85907
-0.0477638
0.346837
0.0172534
-0.147703
0.0199884
-0.153795
-0.188636
0.0620217
0.0803652
0.145812
-0.149411
-0.412602
0.181347
-0.732948
0.653988
0.167806
0.0570376
-0.253311
0.010028
0.191467
0.429733
-0.210545
-0.411702
-0.954807
0.45059
-0.387774
0.172967
0.391012
-0.112177
0.520392
-0.193452
-0.274617
0.083972
-0.621929
0.888449
-0.0949419
-0.286222
-0.0482769
0.22269
0.515594
0.200244
0.165971
-0.28988
-0.682917
0.963355
0.171551
-0.438871
0.166573
0.332169
0.178016
0.306775
0.0439581
-0.0729591
-0.433918
0.689737
-0.412475
-0.0733406
0.0337382
-0.518348
0.0733537
0.239692
-0.464968
0.318698
-0.468723
-0.00710421
-0.0829036
-0.105299
0.224503
0.304538
-0.0511286
0.207627
0.277544
-0.0535726
-0.464115
0.118493
-0.678841
0.0451972
-0.101455
-0.182993
0.907521
0.187073
-0.447173
0.237154
-0.448822
1.13131
-1.2698
-0.303641
-1.29117
-0.594896
-0.00265747
0.0749332
0.414779
0.158825
0.821619
-0.0435472
-0.840137
0.351536
-0.316479
0.168086
-0.445488
0.708616
-1.00158
0.454845
-0.277067
0.0119767
-3.0032
-0.125458
-2.3197
0.433944
0.206556
1.2917
-0.881833
0.16797
1.95458
-0.665329
-1.73848
2.5703
-3.42584
-0.570955
-1.56896
1.77811
0.646667
0.700481
2.9446
0.266213
-2.68439
1.40479
-2.28404
0.630406
-0.604217
2.06812
-1.229
1.32051
1.1264
-0.40907
-0.813504
0.984541
-0.296089
-0.207954
-1.35138
-0.376778
-0.374565
1.12695
4.53306
-0.559506
-3.14003
1.87921
-0.843241
-0.139158
-2.16959
1.30766
0.316209
-0.0961418
4.60312
0.677088
-2.61213
-0.21095
-0.984176
-0.462892
-2.01464
0.556324
-0.652286
-0.172347
2.55816
-0.241174
-1.98828
0.143645
-1.40063
-0.0651215
-3.86203
1.21502
-0.776476
0.514894
4.41789
0.192968
-1.05777
-0.954048
2.08686
-0.250973
-2.1829
-0.366507
0.130423
0.422552
2.03902
0.160088
-2.83966
-0.0720338
-1.32824
-1.20953
-0.991522
1.3672
0.479726
1.16659
3.98658
1.19119
1.62029
0.259812
2.34705
-2.23056
-2.09138
0.917004
-0.168561
1.94505
1.05541
3.4013
-1.8433
-1.16264
-0.589568
-0.736144
-0.888224
0.729848
-0.140842
2.16339
2.96625
1.26996
-1.38806
-1.43939
1.20934
-0.886312
-0.129973
2.87558
-1.1495
0.988498
0.473802
2.90471
-0.811522
-0.507133
1.6694
0.0955012
-0.949446
1.81376
-0.0938886
0.863026
-0.416231
2.14526
-0.276047
-2.09076
0.265368
-1.28086
0.731415
-0.858073
-0.672461
0.549119
0.334679
2.5997
1.08051
-2.09872
0.818737
-1.93511
1.35394
1.49809
-1.14355
0.918348
-2.29948
2.34843
0.668159
-1.26705
2.47433
-1.46012
0.170906
0.0362894
-1.28604
0.346241
-2.52714
2.04843
-0.113591
-0.374367
1.11988
-0.60133
1.41368
0.0256883
-1.23033
-0.461136
-0.132626
0.365442
0.00434892
-0.142265
0.421512
-0.833487
0.201676
-0.00634113
-0.384516
0.0967684
-0.122355
-0.15548
-0.096825
-0.599844
-0.135846
0.0305882
-0.0725743
0.502286
-0.314297
-0.299004
-0.0800555
0.357808
-0.181426
-0.184864
0.42686
-0.148918
0.2529
-0.40421
0.0811591
-0.0293829
-0.916285
0.113148
0.159843
-0.111618
0.392965
0.30157
0.683841
0.26146
-0.0299195
0.0999845
-0.45385
0.914325
-0.247468
0.0976735
0.348575
-0.607232
0.719486
-0.398585
-0.128724
0.256334
-0.396423
0.315563
0.458641
0.158161
-0.0118286
0.152375
-0.0302799
0.0429016
-0.0785497
0.373895
-0.261249
0.0519168
0.26824
0.211097
0.3313
-0.632815
0.723538
-0.106984
-0.0399976
-0.157178
-0.189672
0.867562
-0.969313
-0.675394
-1.06666
0.519966
0.982144
-0.25479
-0.0382023
-0.205959
0.336017
-0.202546
-2.36157
-1.14695
-1.86097
0.132
0.954696
-1.30514
0.245008
0.0110882
1.56454
-0.166439
-4.14921
-2.19572
-3.46985
-0.140943
0.780168
0.363284
-1.09723
0.442493
2.38354
-0.713644
-1.69233
-0.971472
-0.594171
-0.64402
-0.509416
-0.145065
-0.878126
0.738469
1.55973
0.781415
-2.31693
1.87229
-0.0291684
-0.539562
0.937899
0.601892
-0.686652
-0.74712
2.60071
1.40395
-2.87691
1.67048
-0.380089
1.0951
2.01484
1.17649
-0.125983
-1.44323
1.74416
1.71866
0.424436
1.19718
-0.161481
-2.30503
0.828018
2.62789
0.155181
1.0328
1.71118
0.911239
-0.281966
0.34496
3.82225
-1.99133
0.928436
0.755613
-0.0630739
1.88194
2.92792
-0.726815
-2.83911
0.594171
0.279059
-1.38795
1.13001
1.98001
-0.960588
0.0482839
1.27764
-0.855671
0.0390478
0.72464
1.16239
-2.14846
-1.67518
-0.435508
0.0447253
-0.697924
2.94359
-1.12699
-1.29131
-0.919404
-1.26957
-1.67499
-0.862016
0.969932
-0.874325
-0.556812
1.39989
-1.77648
-0.368483
-2.38985
-1.23238
-0.662777
-2.73569
0.601195
0.730301
0.572255
1.65591
-0.897223
-2.64593
-0.38312
0.866825
-1.96673
-0.561407
1.961
0.38109
1.28731
3.53205
1.38705
1.13947
0.905412
1.01879
-1.33715
-1.22142
2.25966
-0.76831
0.970011
2.05278
1.44716
1.44086
0.0556707
-0.214333
-0.426034
-1.52268
1.49045
1.09472
0.302444
2.22636
-1.39981
-0.53854
-0.882414
-0.604769
0.592102
-1.46252
1.07321
-0.783446
1.68787
2.97947
-1.85451
1.34491
-0.509069
-1.13473
-2.2493
-0.109333
1.5277
-1.79876
2.9746
0.480119
-0.556436
0.919186
-1.93958
0.204201
-0.784372
0.301808
1.1428
0.127318
1.44612
-0.78912
-0.82489
0.713405
-1.15688
0.450405
-1.07098
0.412496
-0.515129
0.684027
0.361992
-0.197591
0.895158
1.20909
-2.09949
0.336413
-1.28893
0.80316
0.999105
0.144057
1.51392
-2.70622
2.70487
-0.121235
-2.36099
0.743934
-0.67117
2.02558
0.657696
-1.52922
0.795066
-1.96038
0.692807
0.251567
-1.09285
0.671046
-0.493692
1.32887
0.391699
-0.912035
0.510493
-0.253293
0.692133
-0.193548
0.0335192
-0.291799
-0.635824
0.646682
-0.430063
-0.205944
-0.141315
-0.866166
0.847519
-0.0527632
0.183095
0.26434
-0.00935528
0.500766
-0.084462
0.171721
0.210648
-0.295099
0.150002
-0.418934
-0.187335
-0.189469
-0.201435
-0.0201797
-0.163797
-0.0159821
0.18913
-1.02805
0.78454
-0.108683
-0.299751
-0.0436595
-0.126434
0.861423
-0.432489
-0.319359
0.280796
-0.871207
0.851338
0.310722
-0.685446
0.0675021
-0.650148
0.190241
0.544075
0.169991
-0.257898
-0.0491946
0.795233
-0.155231
-0.0961752
-0.729034
-0.256299
0.484529
0.274515
-0.315965
-0.67797
0.340762
0.487283
-1.66565
-1.47673
-1.21262
0.217783
1.11223
-1.15627
-0.542745
-1.23176
1.07218
0.192957
-2.42551
-2.24744
-2.43468
0.559115
2.41646
-0.988688
-0.404621
-0.851069
1.64111
0.0923419
-2.98309
-0.234794
-1.8422
-0.41803
0.35891
-0.153858
-0.502732
-0.703167
2.12966
1.70388
-2.93557
1.57046
0.162631
0.225059
-0.0703936
1.11757
-0.52612
-0.865419
1.28091
1.2319
-3.42327
0.988641
0.371532
0.929662
1.74532
0.370909
-0.512458
0.0459264
3.18821
2.72874
-1.93079
1.59901
-0.810576
0.869258
3.67399
1.06867
0.513238
-0.537076
3.48613
0.499914
0.0676425
1.29975
1.38028
-0.765763
1.36105
-1.8179
1.02595
2.46166
3.56
-1.44253
-1.44965
0.603767
0.311627
-0.0177592
0.996402
-1.63615
0.609497
1.0778
2.28799
-0.48909
-2.09314
3.03972
1.42224
-0.815089
0.991691
-1.98621
0.469491
0.860156
1.58799
-1.11875
0.374907
-0.105852
-0.180822
-1.10819
0.292804
-0.229446
-1.55346
1.65299
2.31992
-1.51084
1.22765
0.576638
1.20096
0.158085
1.78379
-0.357483
-0.526778
1.9677
1.21409
-4.04644
1.41749
2.5615
0.734151
1.08722
1.26048
-0.338433
-1.59552
0.781594
1.87215
-2.6129
-0.684536
1.75381
-0.729261
1.96248
-0.918659
-0.797315
0.652066
1.42866
1.28468
-3.48606
1.93587
-0.656251
1.80358
0.214286
1.93585
-1.70811
-0.837343
0.225327
1.66887
-1.91497
1.5374
0.194367
-0.410936
0.732609
-0.719622
-0.323044
0.945567
-2.20184
1.32513
-3.26419
2.92769
-0.643755
1.25121
-0.219547
0.139958
0.143282
1.94138
-0.344169
-1.24624
-1.11068
0.373183
-0.560415
0.333913
-1.52961
-0.260423
-1.30641
0.657023
1.1122
1.32104
-0.645071
-0.860732
0.321665
0.161259
0.0027145
-1.29227
-0.0931142
0.284435
-0.709516
0.0966351
0.0708201
1.65944
-2.88841
0.633759
-0.0851906
0.452594
-0.557997
0.27718
0.934849
-0.335742
0.441776
0.72433
-1.63737
0.987388
-0.697956
0.207189
-0.71478
0.30325
1.66663
-2.17629
2.19133
2.89348
-3.39847
2.68182
-2.29467
1.885
-2.39709
-1.88688
2.32794
-2.18114
1.98481
1.40877
-1.37049
1.895
-0.499091
0.749183
-0.428988
-1.79016
1.39289
-0.482067
0.659149
-0.424304
-0.777564
0.212534
-0.501738
1.32004
-0.62513
-0.0172871
1.12007
-0.187349
0.018972
-0.000995847
-0.715894
-0.18282
-0.300957
0.351412
-0.071167
0.188223
-0.217572
-0.859732
0.715068
0.0808727
0.286385
0.227873
0.0786864
0.217242
0.506758
-0.137115
-0.529433
-0.249919
0.781704
0.09766
-0.243783
-0.000382867
-0.180763
0.745313
0.412409
-0.351757
-0.258675
-0.135596
0.72033
-0.420319
-0.272777
0.00286575
0.29688
0.816525
-0.22496
0.462334
-0.62243
0.0789436
0.217007
-1.01704
-0.338304
-0.352302
0.54271
1.17204
-0.452018
0.396072
-1.95753
-0.0416585
0.52075
-2.95232
-1.45055
-4.03143
0.710204
1.76452
0.588234
0.488563
-1.42309
3.17359
-0.602064
-3.13928
-0.880761
-3.67093
0.826384
-0.0745498
-0.184096
0.38425
0.360436
2.63838
0.577982
-1.00058
-0.986331
-0.380477
0.722304
0.0348905
-0.934165
-0.751417
-1.2367
3.60062
1.07566
-1.40304
-0.781032
0.635679
0.152833
-0.625088
0.525432
-0.609137
-2.15983
3.28723
2.10472
-0.778646
0.95412
3.30171
1.32494
2.12383
1.06889
0.873167
1.91685
2.67539
1.52896
-1.26941
0.620515
2.29143
2.28923
1.84086
1.27323
-1.77756
0.938349
2.68549
2.03034
-0.363571
2.57801
0.143241
-0.409714
1.82075
-0.244096
1.16658
-1.19031
0.645287
1.19875
0.731837
2.29178
1.54938
1.08959
0.622809
-0.393015
1.88404
-0.384377
1.63236
-1.69584
1.99837
0.11365
1.30744
0.505156
2.19554
-2.41031
-0.060519
1.18242
1.66154
-3.68831
0.594393
2.6273
0.49431
1.70134
4.41905
0.39432
0.963696
-0.436596
3.12349
-2.22269
1.8362
2.31685
-1.59988
1.24277
3.29739
-1.17435
0.962392
2.10135
2.10016
-2.92408
2.61304
0.988107
0.321603
1.3617
1.31452
0.590023
-1.83839
0.900545
0.956614
-3.11685
2.5406
0.376175
-0.172578
1.99227
3.64922
-0.784203
0.816054
1.07355
2.4295
-4.37886
1.56468
-1.06635
0.491129
2.20758
2.42908
0.244732
1.45911
-0.645844
-0.707334
-1.6705
1.90338
0.165968
1.93588
1.00972
-0.356281
-0.255979
1.08289
-1.68654
-1.0943
-2.74582
2.64519
-1.1721
0.123735
-0.108718
1.74586
-0.500373
1.73506
0.0373657
0.101981
-1.81011
1.04987
-0.250836
2.20264
-1.65748
0.958929
-2.27381
0.359222
-1.47506
-0.601144
-2.83587
1.31003
-1.03362
2.61591
-0.0196123
0.970807
-0.2112
1.35295
-0.077438
-0.567922
-4.27714
0.231643
-0.71306
1.50819
-0.370502
0.768171
-0.490797
2.03402
0.620097
-1.08966
1.46581
1.98263
-1.5959
3.63477
0.177264
-0.424321
-1.59816
-0.986112
0.759348
-1.55516
2.91233
1.41265
-1.97691
2.10922
-1.77865
-0.490325
-1.57266
-1.30841
3.71652
-3.67056
4.08417
1.56518
-2.32636
0.997369
-3.01258
1.77451
-1.55915
-1.28003
2.90045
-1.74147
2.89222
-0.520584
-0.909562
-0.199902
-0.181277
0.840061
-0.787948
-0.369766
0.117692
-1.05479
1.38596
0.0674565
0.129602
-0.286766
-0.109048
-0.0724566
0.212862
0.0159795
0.165108
-0.207066
0.6274
0.225709
-0.0733367
-0.123603
-0.00774839
0.201875
0.545026
-0.116595
-0.303882
-0.899455
0.081858
0.0441702
-0.370293
0.247324
0.284881
0.747205
0.360402
-0.007125
0.00114829
-0.347203
0.811682
-0.361933
-0.733255
0.246449
-0.396671
0.174293
-0.103102
0.337539
-0.30502
0.218112
0.308461
-0.665863
-0.926527
-0.295367
0.314557
0.56995
-1.04649
-0.23788
-1.35627
0.739934
0.0420182
-3.72402
-0.968364
-2.6486
1.94898
2.05097
-1.15412
0.890411
-1.67935
3.4772
-0.229476
-2.04651
-1.36121
-0.605156
0.13681
0.0204591
-1.08473
0.395389
-0.0146034
1.41606
3.25894
-1.44873
-1.07193
1.11886
0.518267
-0.668952
-0.679946
-0.221376
0.408163
2.17407
0.940608
-1.22436
-0.408089
0.744424
2.71698
0.514336
-0.932941
1.55922
-1.22693
3.8145
1.75273
0.264395
1.61212
2.13167
1.95434
0.65002
-2.36657
2.17161
0.355946
3.91584
1.34813
-1.06668
1.25365
1.33209
2.72295
1.65008
0.362525
-0.778482
0.876722
4.27023
0.801953
-0.596292
0.90473
0.980086
0.277769
1.79149
-0.218667
1.64327
0.674958
1.64794
-0.122352
2.81395
1.29099
0.785438
1.63712
1.62718
0.333411
1.97744
-0.162508
0.710909
0.735266
2.89418
1.5304
0.264203
-0.797736
0.737411
-0.302189
2.2507
-0.124609
1.91004
-2.76284
3.58609
1.08179
-0.852065
1.28506
1.88166
-0.313789
0.50029
1.07353
-0.117901
-3.34944
3.12199
1.44194
-1.45852
0.401189
2.2002
-2.18643
1.57881
-0.549822
0.555835
-4.37175
-0.989464
-0.754399
-2.68263
1.51561
1.25749
-2.11795
-0.353769
0.31004
1.553
-2.949
3.35823
1.11287
-0.816489
0.128567
0.430882
-0.148736
-0.774026
-1.49984
0.283456
-4.37414
2.89934
0.359035
-0.619589
1.56787
-0.119858
-0.93133
1.97206
-2.78589
-1.67923
-1.27901
1.8179
-1.32837
-0.0413942
1.67422
1.41417
0.146229
0.779785
-2.36354
1.91951
-2.01039
1.3808
-0.152848
2.05083
-1.4195
-0.66935
0.163748
1.85522
-1.25988
-0.74922
-2.85462
0.336476
0.471349
-1.00181
-0.208553
0.249429
-1.42194
1.2661
-1.00383
-0.235751
0.212255
1.37438
-0.206991
3.19255
1.06774
-0.764838
-0.287182
0.503092
-0.116288
0.0618938
-0.664438
1.44836
0.680197
-0.699754
-0.204955
0.0396483
0.82762
2.86769
1.17994
2.11463
0.021502
2.2683
1.85773
3.10861
-0.658131
0.314825
-2.03385
1.34298
-0.486267
-2.50445
3.16293
3.19571
-0.909528
4.67853
-1.85928
0.0535184
-2.50118
-2.62843
2.167
-3.22793
3.68486
0.459825
-2.26268
1.49681
-1.6918
1.08902
-2.29392
-0.155271
3.42253
-2.58485
2.14093
0.27222
-1.36239
0.0752694
-0.233586
0.489317
-1.32882
-0.139332
1.55875
-0.399106
0.0473798
0.305972
-0.515325
-0.0329226
0.251968
0.735818
-0.241326
-0.306786
-0.172375
-0.726182
-0.0993443
-0.132814
0.126519
0.0914852
0.143818
0.358594
0.417479
-0.591048
-0.283283
-0.154949
0.683561
0.169091
-0.0119039
0.489786
0.0467165
0.580199
0.393907
-0.457236
-0.640405
-0.495406
0.134874
0.191625
0.358073
-0.634053
-0.398911
0.477937
0.0241152
-0.121609
-0.418152
0.277316
0.378216
-0.746222
-0.709916
-1.40302
0.611831
0.956299
-0.928946
0.340979
-0.336292
1.93054
-1.03718
-3.6969
-1.36092
-2.75001
0.403272
1.85271
-1.26732
1.35237
-1.82519
4.01348
-0.979361
-1.74405
-0.0940545
-0.253328
-0.544873
-1.09734
0.232301
0.746693
-0.00181857
2.14927
0.814817
-2.68128
-0.405727
0.589753
1.63377
-0.7001
-1.04046
2.35684
0.111664
4.10575
-1.9257
-1.41983
-0.470237
-0.108438
2.60546
-0.855547
0.662389
2.17415
-0.157663
2.16722
0.79652
0.296781
-0.570942
1.22255
4.03506
-0.651613
-1.58534
1.84412
0.776099
2.65652
0.992383
1.64262
2.31432
3.79629
4.87691
-0.325017
1.60008
1.99822
-1.0023
3.11067
0.72339
3.05107
0.397898
2.60391
1.90576
1.07942
-0.965788
3.85403
-1.12047
0.756509
0.00431034
2.39052
0.779293
4.88111
2.2984
2.19087
-0.659688
4.31759
-2.05408
-1.81926
1.36661
1.63867
0.814106
0.521166
1.82083
1.66608
0.568486
2.74346
-0.524281
-1.32943
0.360735
1.7918
1.59995
0.0650725
-0.959919
0.959468
-1.57888
-1.48483
-2.16706
-1.64313
-4.22333
-0.319133
0.00462517
-2.10684
-0.423299
-0.732127
-3.91894
-1.14584
-1.9315
-2.09377
-6.12868
-0.0254365
0.171457
-2.7154
1.35246
-0.638077
-2.76675
-0.311679
-2.01734
2.0451
-5.8256
0.0894539
-0.520201
-1.07534
-1.39432
0.881046
-0.805157
-0.320537
-3.40215
-0.519805
-2.78892
-1.3136
-0.266308
1.69537
1.71712
-0.669231
-1.75783
1.2901
-3.06186
2.24123
-3.50005
-1.44869
0.608592
-0.0532168
-0.875342
-0.520158
-0.660752
0.0371957
-2.31783
1.2569
-0.824609
-1.60538
1.24674
1.13956
1.66463
-0.422683
0.38585
-1.42155
-2.34634
0.964706
-1.46251
0.267565
0.16279
0.555044
0.733577
-1.33026
-0.969188
-0.849557
-0.958462
0.982337
-0.7693
0.358033
-1.82594
0.537265
-0.0337909
-0.672081
-2.49285
0.693248
-0.49751
-0.769461
2.93674
1.77783
-0.158364
1.01777
2.53973
-0.286045
-1.85819
1.07968
-0.86654
0.228703
-0.21816
5.13793
0.547293
2.41756
-0.434838
-1.04609
-1.71321
-0.0841087
0.805645
-1.04271
1.63354
6.84384
0.0282379
3.91831
-4.15465
-0.316792
-3.78087
-1.91039
2.03304
-2.37154
3.47028
2.77666
-1.70184
2.21293
-3.7929
1.12717
-4.06458
-1.32293
3.37283
-0.256932
2.25275
0.562163
-0.730725
0.7258
-0.280607
1.04769
-1.68273
0.206652
2.19035
-0.489325
-0.33389
0.434236
0.104604
-0.224014
0.0362015
0.191426
-0.059907
0.238096
0.411167
-0.968293
0.206208
-0.233535
0.184446
0.316124
-0.220302
0.114982
-0.222272
-0.356265
-0.322057
-0.0644037
0.661374
0.171382
-0.45933
0.497536
0.0403127
-0.0719748
0.476099
-0.600092
-0.362798
-0.839226
0.454775
0.361949
0.223994
0.149051
0.132981
0.0658535
-0.837041
-0.185531
-0.556452
0.595198
0.604328
-0.256157
-0.809758
-1.25641
-0.0144588
1.48088
-1.50283
0.246536
-1.67829
1.79095
0.271523
-1.06741
-1.59548
-0.962847
0.386149
0.895318
-0.998656
0.262805
-1.7092
1.65513
0.429411
-1.25067
-0.98685
0.350074
0.183775
-0.914601
-0.41642
1.15936
-1.56342
0.970212
1.73037
-0.909646
0.162794
2.70737
0.924998
-0.524361
-0.110228
2.35379
-1.5645
1.7748
-0.945653
0.882291
-0.883821
3.26053
1.75196
-1.11447
-0.457766
2.53915
0.928642
0.858036
1.60422
3.18612
-0.22412
4.07569
1.55024
-0.419634
-0.884268
3.60881
0.477717
-0.562552
1.87265
1.8276
0.5254
5.58302
2.60705
-1.13812
1.56825
3.56813
-0.335964
-1.0972
3.59423
0.830239
-2.73078
2.00318
0.2902
-0.426874
0.0856186
2.87851
-0.214095
-0.606766
0.978136
0.438222
0.444025
4.90495
0.371612
-0.0164341
-2.00453
1.54266
0.240125
-4.60905
-1.17979
1.0378
-0.281816
2.68734
-0.99819
-0.949545
-3.03161
-0.724935
0.203152
-3.3931
-0.00922336
-0.389093
-0.213541
-2.05453
-1.62927
-0.963224
-5.60561
-4.75404
-3.87473
-3.23701
-3.68041
-1.05004
-1.2129
-2.15171
-2.33334
-1.321
-5.62588
-2.36014
-1.97823
-4.57865
-4.42043
-3.12915
-1.42261
-1.36664
-0.0383638
-1.42686
-3.13337
-0.49684
0.155337
-1.62685
-0.0749329
-3.35846
0.460423
-1.05064
0.74309
0.147835
-2.36334
0.740861
-2.42144
-0.576416
-2.28708
-3.76556
-0.951485
-1.57521
-0.214664
-1.34784
0.110206
-1.40067
-4.02315
0.866522
-0.170982
-1.44046
0.904547
0.560743
1.08866
-0.231215
0.351191
-1.42012
-3.02092
0.900938
0.453514
-4.20605
0.0321488
-1.53369
0.454179
-1.17191
-1.05288
0.202367
-1.62501
1.77135
-1.38844
-2.32163
-0.509609
1.11111
2.08463
-1.18174
-1.95244
-1.19606
-2.06829
1.67902
-1.34574
0.122538
0.600321
1.86246
1.68762
-1.62757
-0.801889
1.62245
-1.43125
-0.369663
-0.915235
2.52074
-0.811359
1.30788
2.00863
-0.509983
-1.44307
-0.520375
-1.87275
0.929114
0.291392
4.98959
1.5609
2.15342
-0.318761
-1.97973
-1.11768
-0.917429
0.385436
-0.622532
0.52565
5.85333
1.30123
1.51474
-4.87532
-1.74365
-3.44812
-0.667204
2.93566
-1.99968
2.64072
2.53118
-1.06259
0.436447
-3.4245
1.69087
-4.76841
-0.417947
1.60467
-0.374948
1.22592
0.994141
-0.315686
0.275077
-2.0811
0.668711
-1.41431
0.088107
1.44731
-0.0537833
0.422091
0.304514
-0.568854
0.591131
-0.446978
-0.0450842
0.301229
0.0633778
0.372804
-0.23427
0.577867
-0.528437
-0.267333
-0.270326
-0.018095
0.820648
0.371089
-0.362953
-0.0127967
-1.01847
0.445547
-0.20038
-0.35775
0.642477
0.154144
0.58057
0.242486
-0.173128
-0.55043
0.045669
0.254182
0.144406
-0.0251904
0.393788
0.136733
0.9016
-1.57945
0.31161
-1.64192
0.612125
0.0755979
-0.0413436
-0.518666
0.293653
0.473249
0.960337
-1.14505
-1.14613
-2.0763
1.13343
-0.080361
-1.28246
-1.32115
1.47612
0.0228034
0.0438372
-1.69356
-0.576763
-1.04943
-0.182727
0.707585
-0.0797215
-0.675299
3.22659
1.45691
-0.176174
-0.0875459
0.928763
-1.51031
-1.30587
-1.40967
1.74488
0.822112
5.06937
-0.348634
-2.68721
-0.973491
1.19466
-1.81697
-1.24788
0.436703
2.4266
-2.24281
4.89838
0.581072
-1.84045
-0.542933
0.492332
0.17111
-2.32784
1.12773
0.386647
-1.74341
3.91765
0.192735
-1.05594
-0.20278
0.871799
-0.0887398
-1.19068
0.0645391
-1.43352
-0.809096
4.47393
0.590223
-3.59905
-0.728068
-1.09928
-0.184997
-3.07087
0.334421
-0.960233
-1.08811
3.09277
-0.939551
-2.23139
-0.205527
-2.67553
-0.448414
-3.56319
0.366399
-2.14573
-0.510484
0.996975
-0.929112
0.54846
-2.71613
-4.66352
-1.29352
-0.288209
0.269748
-1.29134
-2.28367
-1.02182
-3.08722
1.20129
-3.69285
-7.98143
-1.64146
-2.6104
0.411114
2.7811
-4.93426
-3.18506
-2.78548
-3.46644
-6.05166
-7.96578
-0.574645
-1.94933
-4.59149
-0.581039
-3.26387
-2.84537
1.81147
-1.63754
-5.94203
-3.52182
1.04319
-2.6787
-2.91905
-3.97119
-2.07536
-1.47249
3.1446
1.61204
-3.81951
-0.372799
2.10928
-2.1415
-2.26337
-0.992146
-1.75648
-1.0236
2.56583
1.26422
-1.64531
0.190568
1.19428
-2.92924
0.531983
-1.98614
-1.35924
1.23149
3.88167
0.937409
-0.270816
-0.381209
-3.6763
-0.117018
-1.6563
-1.20272
-1.85939
2.48211
2.29034
-0.330993
-0.912881
0.185619
-1.55607
0.338192
-1.87465
-1.2116
-0.0185206
0.0469096
2.85349
-0.954347
0.588894
-1.12859
-2.19379
-0.360779
-0.0050889
0.101731
0.400458
1.26385
2.59395
-2.45526
-0.683612
-0.612119
-3.38364
1.66527
-2.83045
0.751281
0.820131
0.630079
2.08659
-2.15128
0.261735
0.908462
-4.16604
-1.79889
0.379158
4.93546
2.93353
0.553652
2.80734
-4.79471
-0.573715
0.286432
-1.75823
-0.757737
-1.74162
4.23705
1.93908
0.369094
1.58367
-3.53278
-1.29736
-0.230443
-0.667857
-2.21151
0.635235
2.34679
2.1996
0.551458
0.101613
-2.84371
-1.31718
1.39769
2.87859
-0.723132
-0.936535
1.12363
-0.458354
0.695616
-1.38638
-0.288955
-3.94088
0.743586
1.11532
1.05333
-0.755531
0.849016
-0.60917
0.318165
-0.403783
0.184087
-1.25786
0.00118801
0.205126
0.100269
-0.436594
0.151968
-0.30512
0.537828
0.166468
0.789826
-0.124356
-0.229583
0.367606
-0.58123
0.856976
-0.457267
-0.44862
0.0795996
-0.588834
0.452924
-0.0181486
-0.413455
-0.497229
-0.965532
0.800953
-0.443808
0.411635
0.101204
0.0365101
0.663755
0.284382
-0.00750381
0.105407
-0.676297
0.326561
-0.15923
-0.0321525
0.673349
-0.221826
0.881935
-1.18987
0.251899
-1.81234
-0.240956
0.647808
-0.270123
-0.593527
0.806081
0.382432
0.510362
-1.06403
-1.07638
-1.59681
-0.828174
0.493068
0.925259
-0.932785
2.92525
2.28492
-0.694063
-1.94344
-0.914883
-1.32029
-0.933711
-1.88976
2.84343
-0.656238
3.46732
-0.0622781
-2.40642
-1.15765
-2.10655
-0.0977324
-2.78525
-0.310687
1.54782
-1.56778
5.74792
0.707104
-0.659427
-0.0286679
-2.91969
-1.20056
-6.10089
0.936551
-0.609846
-3.1713
4.72637
-0.199315
0.4384
-1.80986
-4.06372
0.543686
-3.8709
1.59085
-0.53008
0.145305
2.26729
-2.28722
-1.32363
-1.22218
-5.14739
-0.632233
-1.24963
1.63736
-1.92507
-3.69797
1.15739
-1.44275
0.552051
-1.66443
-7.18305
-0.821393
-2.35093
-0.772908
-0.653433
-0.544987
-0.096473
-4.14138
2.09566
-2.29389
-8.66862
-2.36015
1.14021
1.05546
-0.628849
-2.22466
-2.23783
-1.82767
0.521732
-0.279973
-8.09449
-0.344706
-1.39763
1.76144
-0.654854
-6.47085
-4.30216
-2.85216
0.6246
-0.679524
-6.46412
0.506154
-1.986
2.29613
0.334549
-3.91983
-2.76811
-0.679546
0.839059
-0.544349
-4.27304
1.5941
-2.25267
-0.823474
0.556305
-4.5559
-2.31095
2.86135
0.867784
-1.43249
-3.17055
6.61419
-0.290316
-2.34555
-2.58582
-2.66815
-0.607888
2.22526
3.16844
-2.73469
1.00215
4.93801
-1.15117
-0.59961
-1.39334
-0.432213
-1.09591
4.82744
1.37319
-0.117095
-0.0776337
-0.696696
-0.523111
0.608208
-0.0271376
-0.549166
0.800527
1.12851
-0.315884
-2.22649
0.677325
-2.11451
0.934446
-1.62126
0.447801
-0.902575
0.411719
3.45456
-0.317836
0.621927
-0.586572
-3.19263
0.424982
-1.58613
-0.591547
0.170057
2.26044
4.53068
-0.169848
1.48769
0.362641
-1.5706
1.50045
0.00808522
1.33495
-0.429883
1.40887
3.96308
-1.15907
2.24386
0.684005
-2.63542
-0.498649
0.907616
-0.409735
-0.691607
2.40613
5.68956
-2.84733
1.10258
-1.20537
-1.36769
-1.72614
-1.04336
2.98219
0.19713
1.23062
4.5034
-1.41418
2.75493
-2.53472
-4.44587
-1.28738
-0.843337
3.19357
1.19968
1.07559
3.9219
-3.72483
3.4951
-0.933169
0.841141
-2.29013
-1.67761
1.88718
2.24693
-0.984731
1.00321
-2.20981
2.85452
0.669687
-0.110382
-0.882505
-0.851546
-0.724935
0.101717
-0.58596
0.907336
-0.151432
-0.122298
0.860008
0.739726
0.717812
-0.649187
0.395005
0.0756133
0.227521
0.368905
-0.323939
-0.741427
0.704326
0.07567
-0.680538
0.464891
-0.0532151
0.0367516
0.0486639
-0.326292
0.238145
-0.287379
-0.0119272
-0.273593
-0.77692
0.533251
0.148338
-0.490997
0.662885
0.179159
0.0751362
-0.357687
-0.574063
-0.215508
-0.062161
0.436668
-0.471003
-0.429786
0.233351
-0.113449
0.682783
-0.393826
-0.357091
0.0730623
-0.412114
0.0219881
0.0646934
0.0136138
0.830302
-0.0396215
0.72548
-0.892042
-0.337895
-1.19177
-0.657399
0.23891
-0.155513
0.152795
0.66927
0.756605
0.648836
-0.206171
-0.725831
-0.808191
-1.29529
0.0836619
0.0876215
-1.16567
2.25165
2.804
0.0560548
-0.107886
-1.81081
-1.34074
-2.48841
-0.838689
2.19035
-1.23658
3.35045
0.45916
0.533745
-1.8293
-4.17126
-1.68322
-4.35746
1.71191
0.443535
-0.43383
1.55756
1.77959
0.023841
1.18645
-5.54631
-0.178678
-4.75529
-0.181141
1.25807
-0.862867
-0.251013
0.114892
2.03488
-0.64703
-6.53126
-0.983402
-1.6787
0.212062
-1.36298
-1.96991
-0.74211
-0.125298
1.73083
-1.18644
-7.76628
-0.603075
-1.01141
-0.0657953
-0.795156
-0.609983
-1.83231
-1.22599
0.669185
0.222271
-6.5336
0.899263
1.53591
0.74631
0.152618
-0.403904
-3.92416
-0.0627624
4.25226
1.78499
-7.02434
1.30618
0.346294
2.83147
2.0789
-2.13966
-3.82507
-1.56117
2.65555
0.168209
-2.97354
2.0776
-0.66651
2.74369
2.09956
-3.46425
-3.15516
-1.02749
2.16817
2.59948
-1.48747
2.81002
-0.609047
0.165131
2.35562
-0.770935
-3.16918
-0.241133
2.37209
1.21853
0.311149
5.45024
0.157642
-2.86444
-1.14958
-2.2841
-2.07865
2.98234
0.113195
-1.28408
1.04647
8.12523
-1.96226
-3.24095
-2.46061
-1.23384
3.26654
3.98262
2.21509
-0.36783
0.725593
2.99115
-0.949067
-0.827035
-1.70714
-3.67716
0.708635
3.11988
-0.094515
0.423916
-1.02761
1.3154
-0.776402
0.916057
-1.70111
-1.22248
0.962617
2.3809
0.272673
1.92029
0.00275225
-3.02142
-0.526154
0.951986
-0.079316
-3.00711
1.03275
1.53772
0.117745
1.63047
-0.0174042
-0.207203
-0.206619
0.594133
1.42006
-3.29682
-0.354959
3.48159
-0.337137
2.67679
-0.680571
2.37834
1.15839
0.112943
0.485884
-0.529868
2.01253
4.86039
0.341194
0.733076
1.46148
0.393838
0.18731
2.25037
0.555918
-1.43026
0.0754765
4.69895
0.0142271
2.12066
-0.358147
-1.29928
-1.14609
1.31943
1.75897
-0.480756
0.0559363
2.66822
-1.08803
1.73675
-2.66525
-2.57797
-1.30627
2.19952
2.48174
1.4001
-1.0971
-0.101115
-2.40598
3.21341
-1.27451
-0.835092
-3.78776
2.24991
1.89142
2.61851
-1.60099
-0.490799
-1.63882
2.83425
0.263446
-1.06845
-1.6758
1.8219
-0.551755
0.510181
-1.17315
1.55522
-0.155789
0.687612
1.57553
-0.16538
0.326373
0.465662
-0.69541
-0.0206838
0.0307392
-0.00098532
0.0051676
-0.07955
0.645638
0.128354
-0.231226
0.316148
0.17047
-0.105634
-0.148909
0.205116
0.210298
-0.0343925
-0.32464
-0.128969
-0.863573
0.329054
-0.0429503
-0.42862
0.380244
-0.0267985
0.526681
0.300166
0.0370463
0.307449
-1.02547
0.366147
0.0202634
0.201571
-0.113261
-0.278277
0.923419
0.345903
-0.153762
0.116762
-0.599493
0.568763
0.327775
-0.487019
-0.121249
0.0946141
0.822049
-0.265668
-0.508285
-0.110554
-0.578826
0.736608
-0.593726
-0.104308
0.511256
0.776151
1.03456
0.275213
-0.38109
-0.789776
-1.16897
0.477104
-0.515848
-0.298083
0.571326
0.567576
1.89214
1.86899
-2.17097
-1.54298
-2.70602
0.584914
0.770049
-0.108875
-0.0116213
0.286116
1.39144
0.603046
-4.19782
-0.312225
-3.05809
1.06069
2.6681
1.1987
-1.60398
0.170021
1.38545
1.63347
-4.99897
1.27917
-2.77517
-1.26546
1.41815
2.52789
-3.05881
-1.14219
3.81098
4.23081
-4.63205
-0.438462
-1.02018
0.496253
1.16858
-0.172595
-3.01867
-0.521248
2.3659
1.78942
-4.5654
1.06842
-0.908556
0.146561
0.0627126
-0.235785
-3.27261
-0.435253
2.41458
1.87749
-2.27178
1.10553
-0.781044
0.748274
2.1552
0.800821
-1.59918
0.800717
2.10837
1.27991
-1.16915
0.10187
-1.5971
1.1334
1.79964
-1.68569
-2.00162
3.11661
2.25018
1.43279
0.494388
1.56465
-1.27147
2.54058
0.828958
-2.97219
-0.313093
1.201
1.66885
3.27416
1.41698
2.58407
-0.9634
0.164094
-0.542262
-0.885831
-0.125781
4.23126
1.0355
1.43459
0.472278
5.42575
0.477894
-0.347983
-2.05246
-3.80703
0.771344
2.38716
-0.512837
-2.31326
3.44691
6.30487
-1.03841
-0.866658
-0.671764
-1.90289
0.45212
3.2176
1.16207
-1.03021
0.57673
1.03909
-0.39799
0.667442
-2.9607
-2.01229
1.26325
2.37529
2.31765
-0.689129
2.49955
2.01646
-2.87283
0.32269
-2.51553
-2.22892
0.949601
2.67402
1.38842
-0.557099
-0.528137
0.152571
-1.49367
1.00934
-0.695338
-1.1739
0.478231
3.84057
1.24814
0.287916
2.51702
0.000586358
-1.00846
0.168818
-0.546819
0.104387
-0.336642
4.53097
1.9032
1.92065
1.67579
-1.46682
0.134462
1.03013
-0.417034
0.655979
-0.0716589
3.79019
0.434931
-0.451447
0.349977
-0.802143
-1.35481
0.0464772
-0.0857855
-0.263427
-0.841843
2.32209
0.439665
-0.180716
-1.57686
-2.34684
-0.684467
1.34324
-0.434872
0.823879
-2.06685
0.293187
-0.769998
2.10505
-1.06261
-2.51798
-2.39879
2.12459
1.37907
1.60246
-1.13004
-2.50761
-0.0955902
0.925983
-0.870886
-1.76404
-2.1489
4.42741
2.53657
0.858671
-1.07827
-1.87787
0.134316
-0.0440579
0.0182556
-0.751086
-0.610663
1.4382
-0.932473
1.21862
-2.23441
0.639002
0.172687
1.32921
0.992596
-0.545613
0.530756
0.527432
-0.0855604
1.09366
-0.894867
-0.192512
0.408032
0.34544
0.86297
-0.091035
0.49035
0.360886
0.453056
0.0505147
-0.220396
-0.257864
0.212885
-0.242675
0.149761
-0.449939
-0.493839
0.148341
0.430605
0.279798
0.380376
-0.405624
0.865021
-0.362538
0.0193213
-0.00947486
-0.780121
0.869173
-0.254892
-0.671766
0.341392
0.0800381
0.20831
0.0577211
-0.263906
-0.228704
-0.22922
0.946416
0.239596
-0.600284
-0.230115
-0.390187
0.080251
0.264337
-0.66481
0.337881
-0.423309
-0.0631934
-1.42071
-0.133814
-0.467726
0.360486
0.873363
1.19969
-0.478349
-0.316253
-1.60348
1.06742
-0.214201
0.736431
-2.23521
0.781163
1.42287
2.47926
-1.68625
-1.38118
0.125811
-0.178078
0.234648
4.64226
-3.26933
1.723
0.78356
1.85307
-0.452613
-1.93375
-1.41823
-1.16908
-0.131417
4.84748
-3.13313
1.14323
2.37535
1.88337
-0.863018
0.751559
-2.94821
-0.901131
1.27044
5.15791
-2.02458
0.246694
1.38893
1.74689
-2.44925
-1.3613
-2.9869
-0.311508
-0.600555
2.45108
-2.48186
1.15422
4.52958
2.78337
0.104911
-1.05906
-2.78412
-1.27494
0.173638
2.52184
0.771137
-1.78748
4.07076
3.4735
-0.0623954
0.453437
-2.11739
-0.0427934
1.13895
-0.642721
-0.847591
-0.563546
2.21363
2.71352
0.487057
0.894964
-0.805225
-1.7616
1.28825
-2.42796
0.15145
2.06171
3.03777
3.14518
1.92135
0.89624
-1.52758
-1.08828
2.96539
-3.00172
0.347707
-1.278
0.0726115
2.99851
1.76822
4.6205
0.496229
0.368496
-1.25343
-1.33389
0.668639
2.48469
-0.50665
1.22585
4.78103
6.28595
-1.25569
-0.839257
-2.8127
-2.33962
0.710578
2.01527
1.52136
-0.059527
2.62999
2.70883
-2.81405
-0.583494
-2.65746
-1.32293
1.43693
1.97003
1.85957
0.638356
0.0702158
2.23863
1.00476
0.660184
-1.78423
0.0133872
-0.625317
1.29451
0.282549
2.0115
2.38398
2.78087
-1.59141
1.08873
-1.30956
0.603347
1.46455
2.76225
2.0111
1.61738
-0.574856
-0.87933
-1.82456
-0.0205865
0.130505
-0.662623
-0.0384034
2.48513
-0.901099
0.401896
-0.916441
-1.32856
0.743266
1.95034
-0.752972
-1.12767
-1.50174
1.4188
-0.21284
1.21852
-0.0558028
-1.85895
0.237375
2.84061
1.93087
-0.899574
-1.61839
0.277033
0.287768
-2.49986
-2.08814
-2.41388
0.361633
1.12973
1.08988
-1.68472
-2.59039
1.45586
-0.214537
-1.06985
-0.289898
-2.12813
-1.24633
1.34546
-0.961484
-2.21831
-2.09768
0.550021
2.64689
-2.15226
-2.56749
-3.30676
1.161
1.38581
-0.110326
-0.310738
-2.79484
-1.58421
1.81514
-0.102368
-1.20958
-1.89431
-0.374623
3.42996
1.79208
2.34355
-2.29909
-2.23612
0.841171
0.352225
1.29226
-0.950554
0.0891889
0.933216
-0.910469
1.95251
-3.32849
-0.412709
-1.0312
1.86947
2.306
0.376494
0.269481
1.33812
-0.955869
0.842565
-0.892271
0.265845
0.728982
0.815815
0.894551
0.14628
0.107857
0.71973
0.135403
0.203874
0.183698
-0.608847
0.766573
-0.218623
-0.0134701
-0.44634
-0.317763
0.831742
-0.323041
-0.0707532
0.44143
-0.456518
0.6328
0.132477
0.275328
-0.28538
-0.560401
0.093894
0.560219
-0.128315
0.471936
0.253964
0.36089
0.339066
-0.414264
0.230206
-0.467152
0.178216
0.0721209
-0.522129
-0.557098
-0.106261
0.496206
-0.827532
-0.603546
-0.251882
-0.289015
-0.286137
-0.701323
-0.906715
-2.20322
-0.198079
0.756349
0.646257
0.0315833
0.287425
0.467868
0.509154
-0.491006
-0.21571
-3.76521
0.576816
0.54398
0.707197
-0.298682
-0.349149
0.151607
-0.129951
0.178236
2.39429
-2.7641
1.11046
2.47204
2.65108
-1.81462
-2.87185
-0.491716
-1.17608
-1.11184
2.19852
-1.05882
1.47521
2.33407
-0.351305
-0.0264679
-1.79478
-1.06646
0.716224
-1.26306
2.97597
-0.698243
1.82459
3.34599
2.67882
-0.615121
-1.62335
-2.99582
-0.6788
0.0259611
4.92374
2.68255
0.460085
2.88657
2.43602
-1.74521
-2.54535
-2.55871
-0.130454
-0.717479
3.69895
0.0356277
-0.679188
-0.601284
3.07475
0.364802
1.22402
-1.01267
-1.70628
0.704487
2.46276
0.694886
1.11836
0.652266
3.98915
2.60581
0.107313
-2.35483
-0.155689
3.09518
0.296603
1.78535
2.11581
0.83472
2.16257
2.37898
2.53755
-1.92324
-3.08723
0.816124
-1.85427
0.210948
0.519512
2.57987
2.2387
2.61363
4.68486
-0.508783
0.0230334
-3.12918
-2.94819
-0.950522
1.9357
-0.673315
1.27299
2.51444
6.18366
-0.681341
0.915875
-3.99181
-0.143073
0.201285
1.04041
0.564731
-0.287966
3.10646
2.61592
-1.86849
0.520796
-2.70908
-0.225816
0.337741
3.2352
-1.00192
1.34266
0.00384607
0.167197
-2.13266
3.4147
-1.98827
-1.04163
1.147
2.78739
1.99212
-0.258012
0.601792
0.104261
-1.87785
0.56488
-0.771317
-0.725236
-1.39288
2.32749
2.22045
2.78944
1.41448
-2.24919
0.09227
1.25856
1.37342
-1.69187
-1.35371
0.91153
1.73031
0.429675
0.215033
-2.79025
1.55558
2.56486
0.0780789
-1.17455
-2.70418
1.75315
-0.723324
-0.114419
-0.926924
-2.31038
1.03316
1.15866
-0.809779
-1.18731
-3.51687
-1.69985
1.5948
1.00024
-1.48577
-4.08818
0.633749
1.30918
-0.510121
-0.967379
-4.11965
-1.00784
0.878862
-0.356048
0.839148
-3.59458
-0.273748
3.03163
0.335557
-0.765807
-3.2075
-0.750512
-0.363321
-0.603946
-0.283143
-2.1305
1.98094
0.100061
0.175652
0.298126
-1.48944
-1.19237
1.82161
0.97623
-0.959655
0.603239
1.03846
0.558071
-0.102033
2.0683
-2.8627
-1.81754
0.58443
1.19562
2.48889
1.21311
0.770749
0.28917
-1.79283
4.09127
-4.12723
-0.258009
-1.16798
3.03733
4.01534
0.150796
0.9384
-0.270243
-0.849906
1.50213
-1.84118
-0.5549
-0.164843
1.08599
1.87668
0.615592
0.458706
0.0531591
-0.31356
-0.151673
-0.627084
-0.264201
-0.044003
-0.0699935
0.0448294
-0.2279
-0.173229
0.358938
0.408053
-0.423157
0.242106
-0.212317
0.00964738
-0.407318
-0.22529
-0.447084
-0.798713
0.529543
-0.203148
-0.247418
-0.299646
-0.47612
0.870494
-0.169457
-0.578639
-0.484887
-0.677343
0.81526
0.0448019
-0.284307
-0.986782
-0.179335
0.76355
-0.0276861
-0.285374
0.219357
0.177947
0.118239
0.195981
-2.08626
-2.29041
0.906164
1.17793
-0.72148
0.590904
1.19069
1.78664
-0.913518
-0.0930399
-0.872276
-3.88846
0.329225
0.83953
0.00474787
0.215264
0.629907
2.10387
0.0840904
1.62837
1.84788
-1.93792
-1.55099
0.995991
-1.4787
-0.119109
-1.0774
0.612167
-0.0761003
0.0933878
3.50766
-2.19197
-1.17442
-0.457806
0.627306
1.85449
-0.402374
-2.4023
1.48535
-0.968455
3.00002
0.390634
1.1868
-0.0110614
0.381281
-0.186274
-0.286778
-4.2446
-0.606846
-1.75797
4.72879
1.64559
2.41896
-1.98815
1.86086
0.556448
-1.5025
-3.01502
-1.2758
-2.32729
6.51374
1.57095
-0.383028
-1.60874
3.01027
0.582453
-0.451598
-1.84453
-0.859435
0.580046
5.2872
2.90766
0.750477
-2.32781
3.21675
1.61843
-1.1204
-4.47429
-2.67507
1.05581
3.8754
0.683142
-0.133139
-0.0242734
4.74487
1.49894
0.125715
-4.11888
-1.20468
-1.99521
1.22715
3.08348
0.842201
1.35251
1.8083
2.74845
2.17004
-3.20033
-1.91197
-3.7533
-0.374151
3.79072
1.96102
-1.29267
1.72077
3.68949
2.22517
-2.75702
-0.842397
-3.87949
1.2053
1.11526
1.62823
1.06087
-0.00455501
4.29756
0.942048
-3.25061
-0.138298
-0.611503
0.813057
0.0274983
1.98659
3.3542
2.53143
0.29596
-1.08408
-0.311423
0.918565
0.00299861
0.925996
0.833222
1.96481
-0.320206
2.08385
0.873811
-0.483569
-0.922205
2.0792
0.604558
0.362295
-1.82106
-0.39738
0.430734
2.34255
-0.320189
-2.736
1.26165
1.23856
-0.0972578
-0.565466
-2.08835
0.0849306
2.50467
0.493168
-0.388492
-4.4995
-0.27236
2.06666
1.10201
-0.32846
-3.55544
-0.0336843
-2.10382
0.398957
-0.18784
-1.19959
0.291039
-0.784698
-0.30368
-0.0238776
-2.949
-1.03285
0.239781
0.303082
-0.0920278
-2.72601
0.171486
1.02292
-0.610282
-0.906368
-2.28897
-0.810031
0.570844
0.406365
-0.370906
0.0976617
-0.287853
0.709717
0.0387499
0.302456
-2.6631
-0.786634
-0.402783
0.316213
-0.695927
-2.16293
0.0339402
-0.848777
-0.0614093
0.523895
-1.30172
-1.22436
-0.326831
0.268652
-1.1677
1.57837
0.930754
-0.109566
0.0631959
2.85604
-2.48855
-1.08394
-0.392217
2.04443
1.24482
-0.257024
1.24041
0.153784
-1.07259
3.2583
-4.12719
-0.0764556
-0.711036
2.70703
3.38497
-0.776145
1.66779
0.302167
-0.610252
0.669458
-1.0243
0.165538
0.280045
1.22296
1.41071
-0.099699
-0.289024
0.931563
-0.0263959
-0.115478
-0.0902661
0.059012
0.337904
0.091535
-0.50682
-0.33649
-0.289134
0.136073
-0.201044
-0.246889
-0.1439
-0.595332
0.26236
0.296448
-0.200259
0.290267
-0.722345
0.312379
0.427293
0.196564
0.132623
-0.059171
0.418721
-0.385829
0.132912
-0.246505
-0.705099
0.590843
-0.166188
-0.681045
0.225314
-0.14028
0.347545
-0.381586
-0.0325685
-0.200939
0.131043
0.582153
-1.22394
-2.52227
-4.155
-0.204096
1.30529
0.110671
1.02896
1.10435
2.55555
-1.22715
1.32429
-0.854946
-3.43466
-2.16019
0.123003
-1.55246
2.59935
1.26749
3.20025
1.01759
-0.0261784
0.862769
-1.80124
-1.06612
-0.791177
-1.32811
1.2718
-0.261921
1.14216
1.31741
0.607749
1.33819
-1.27488
-1.80183
-1.71342
-0.568399
0.686551
-0.324132
0.982273
-0.0104276
-1.43704
2.49829
-0.817901
-0.694181
-0.930022
0.702441
-0.306012
-0.181052
-3.21594
1.45623
-0.933263
4.10591
-1.58289
0.25823
-2.94172
0.149653
-0.268467
-0.562622
-1.70867
-0.280544
-1.10489
4.25454
1.78948
0.183274
-2.74209
-0.0779997
-0.872909
-2.40923
-4.18903
-1.34623
-2.90515
5.75829
0.651835
0.848673
-3.10846
0.0912023
-1.37188
-1.81617
-1.63728
-2.65258
-5.25486
5.1125
2.1203
1.31815
-2.98119
0.997349
0.962358
-0.548639
-4.98781
-2.04921
-7.61064
4.66508
2.80911
1.66474
-2.73286
2.90655
1.76839
-1.1951
-3.02638
1.07158
-6.21646
1.2521
0.937299
1.66853
-0.980637
0.953446
3.66958
-0.946498
-1.62134
0.694027
-2.53114
0.35634
0.249573
2.11293
-0.39292
-1.19617
1.64449
-1.94601
-2.39978
0.00216273
2.4387
1.21394
-0.298774
0.757516
2.20786
0.695322
0.43297
-0.76517
-0.451532
-0.370289
0.620824
0.910234
-3.58232
-0.365251
0.667868
1.67952
-0.837475
-3.21568
2.43699
0.655069
0.831515
-0.615293
-2.04141
0.0383265
-1.64644
-0.493145
0.930936
-0.61588
0.0620223
-0.529563
0.675534
-0.31778
-4.12168
-0.177231
-1.3906
0.412396
-0.556462
-3.05175
0.705111
0.215344
-0.367094
-0.090893
-3.61142
-1.34428
-0.742316
0.263568
-0.891201
-1.20006
1.16076
1.24355
1.02364
1.41959
0.414779
-1.94854
0.268078
0.0679482
-0.896758
0.0368924
1.28714
-0.347201
-0.344785
0.772204
-2.77777
-1.51533
-0.717851
1.33664
-2.17768
-0.341339
0.281412
0.576563
0.202602
0.733381
-3.20446
-2.89178
-0.953864
1.16799
-1.51369
-0.412785
2.68163
-1.43466
-1.33178
2.54435
-2.72342
-2.33249
-2.77524
2.12326
-0.714414
2.93285
0.269592
0.0788543
-0.982494
3.67453
-3.12146
-1.93241
-2.1643
1.92659
2.88326
1.70267
1.56357
0.710065
-1.2559
2.44774
-3.16564
-0.137411
-0.483359
2.12408
3.67043
0.389911
1.86179
-0.727641
-0.0204577
0.111457
0.112287
0.0624739
0.36581
-0.242529
0.564844
0.327289
-0.0817001
0.126704
-0.596706
-0.493599
-0.646816
-0.118931
0.290379
0.0172497
-0.172431
-0.256893
-0.994456
-0.101185
0.230221
-0.00160714
-0.143162
-0.431096
0.377989
0.44523
-0.147741
-0.175328
-0.687992
0.519954
-0.391222
0.140509
-0.157537
0.0483798
0.229954
-0.50627
-0.132858
-0.10758
-0.872898
0.487671
0.859157
-0.431257
0.0650065
-0.255687
0.279188
-0.0811954
-0.254115
-0.130764
-0.333297
0.19245
-0.866432
-1.07023
-1.77853
0.0287107
0.874512
-0.280508
-0.0285092
0.645322
1.53792
-1.38848
1.97798
-0.0609329
-2.47826
-0.633347
-0.0484827
-0.465057
2.0211
-0.272507
3.71424
-0.0792413
1.16886
-1.50561
-2.82448
-0.2456
-2.03084
-0.398688
0.514718
0.318584
2.41318
0.45676
0.329437
-0.655621
-0.613405
-1.36063
-1.02164
-0.685505
0.394174
0.149812
2.08377
0.9062
1.5595
0.294418
-1.70303
-1.81274
-3.5298
-1.47959
1.17053
0.495356
1.56897
-1.17676
0.574008
0.306646
-1.13935
-0.104461
-3.18513
-0.780584
0.574305
0.0116982
1.83151
-1.11323
-0.78318
0.334964
0.134704
-1.8769
-4.18425
-1.61525
1.03119
1.37991
-0.572446
-0.660055
-1.47433
1.85713
-1.02342
-0.8719
-5.71243
-0.288332
-0.153427
-0.215958
1.0945
-1.777
-1.84094
1.47566
-1.91269
-2.11545
-4.35614
-0.960219
0.256749
-1.84155
-0.431032
1.98117
-1.07705
1.82038
-0.897213
0.482772
-6.04447
-0.891978
1.40514
-0.11886
-1.49521
2.29077
-1.54097
-0.553513
-0.98201
-1.66727
-2.4308
-0.733079
1.98647
1.21572
-2.2558
1.36876
-0.0180503
0.323491
-0.55949
-1.38665
-2.1609
-1.50049
2.47677
-1.73525
-1.60572
0.0237556
-0.995454
-0.304419
-3.49586
-0.827166
-1.06455
0.583713
0.267934
1.05543
-1.61175
1.1325
-0.433879
-0.97487
-2.3024
-1.69013
-0.317084
2.06158
-0.246675
-1.50761
0.896764
0.215643
1.25964
-0.482985
-1.91291
-1.48082
-1.19531
0.156262
0.798881
-1.68376
2.82674
-0.527603
0.193106
0.615807
-2.01625
-2.1055
-1.27799
1.88446
-0.963852
0.624875
1.31853
-2.03273
-0.853484
1.5864
-0.82937
-1.54843
-1.5818
0.320882
-2.09862
-2.43981
-0.232933
-3.36002
-0.132798
0.596779
-2.68205
-3.1982
-1.99184
-0.0187832
-0.411479
1.28405
0.73303
-0.975377
-0.376345
1.27081
-1.98675
-2.95929
-0.345707
1.5448
-1.35804
1.35674
2.4905
-1.72195
-0.239142
1.11303
-1.4931
-1.16188
-2.63691
1.65631
-1.2796
1.82176
2.65875
-1.98998
0.273564
1.93881
-1.31453
-1.62815
-2.60827
0.422202
0.909144
2.16516
1.28291
-1.32443
-0.528225
1.94341
-0.475863
-0.985323
-1.43886
0.517307
2.2685
0.589734
-0.204858
0.0857112
-0.930902
1.79179
-2.22403
-0.249909
0.371717
1.32161
1.96314
-0.530298
0.56892
-0.963111
-0.478152
0.475393
-0.51641
0.403657
0.427673
0.194949
0.738286
0.468252
0.0350513
0.469039
0.187418
0.0798874
0.402981
-0.169686
-0.0949504
0.0431426
-0.0519812
-0.326215
-0.0188457
0.038838
-0.524359
-0.140398
0.381783
-0.532654
0.499798
0.166918
-0.314599
-0.469892
-1.03093
0.387343
-0.287243
-0.049657
0.288358
0.276235
-0.144358
0.247851
-0.602928
-0.0115447
-0.395271
0.473002
-0.103929
-0.34451
0.39435
-0.154919
0.727285
0.461033
0.0145017
0.127408
0.0187837
0.868132
0.44579
0.197887
-1.90832
-0.646662
0.822213
0.697113
1.09824
0.717428
1.05735
-0.347876
1.33608
1.15924
-2.76848
-0.611997
-0.616208
0.885215
2.75122
-0.0891613
2.42036
-1.15531
3.11437
-0.54604
-1.53432
0.0407137
-3.50599
0.117028
0.73387
0.513072
2.75527
-1.31457
1.10738
-2.08439
-2.05177
0.5066
-2.77442
-0.136423
2.89381
0.840696
3.63845
-1.67423
-0.365892
-0.203951
-1.70914
-0.370731
-4.76891
-0.125702
2.10563
1.03717
1.76742
-0.587266
0.96021
-2.04368
-1.63473
-0.959717
-4.59317
-1.25294
3.0001
1.36738
1.76875
-0.329996
0.976766
0.00709548
-1.06131
-2.22079
-4.71638
-0.194176
2.49649
0.892587
2.00294
-1.54653
-0.165018
-0.338606
-1.32609
-2.63357
-4.4092
0.847725
0.902364
-0.990191
2.41211
0.501114
0.152527
-1.0164
-2.32043
-2.31983
-4.48575
0.642095
1.44291
-1.7438
0.547648
2.19739
0.812002
1.13334
-1.80308
-2.58564
-3.69013
-1.7446
1.64672
-1.18757
2.01597
1.66844
0.703757
-0.372769
-0.747777
-2.212
-3.24242
0.455545
0.21706
-1.06001
0.0717019
1.81087
-0.947365
-0.856704
-2.16009
-1.04995
-2.24268
-0.269159
0.419622
-2.16157
-0.762965
0.121942
1.08762
-0.556745
0.456614
-2.90498
-1.61015
1.34075
0.704755
0.143468
2.13625
0.205484
-1.00104
-1.2003
0.0354076
-1.92109
-0.974095
0.104371
1.42301
-0.219768
-0.910118
-1.42452
0.463924
-1.74494
0.254302
-0.678074
-2.13338
0.55629
0.249673
1.66367
0.107865
-1.657
-1.60884
-1.09494
-3.69017
-2.94462
-0.793873
1.51586
0.302869
1.22398
0.340553
-0.55477
-0.225975
1.53357
-0.72832
-1.87642
-1.44093
1.10109
-0.226912
0.0292793
2.18796
-2.56486
-1.02285
0.504686
-1.19369
-2.0195
-0.169299
1.82993
0.459161
0.957526
2.08355
-3.15429
-0.789472
0.653426
-0.971469
-2.66094
-1.59121
2.72758
-0.146987
2.05205
2.6021
-1.69289
0.64966
2.55296
1.27185
-1.1781
-1.58826
0.0156321
1.12412
0.714616
4.02569
-1.77497
-0.676902
3.51091
-0.0548224
-2.37971
-1.30511
0.492048
2.60145
1.03967
1.73248
-0.572977
-0.464551
2.56061
0.104338
-1.22204
-1.24509
0.312508
2.29528
-0.077949
-0.708878
-0.892589
-1.00686
0.64627
0.0811101
0.242308
-0.392753
-0.0177255
0.696501
-0.369411
-0.0283813
-0.0502563
0.137456
0.424653
0.0876288
0.0555704
0.0458693
0.034534
0.294711
-0.123717
-0.121807
0.183264
-0.140642
0.346789
0.609099
-0.183432
0.651003
0.364826
-0.549425
-0.364656
-0.430569
0.917658
-0.264026
-0.564333
0.303315
-0.276508
0.311478
0.147711
-0.588859
0.364237
-0.832048
-0.00123442
-0.158187
-0.358409
0.414626
-0.00670104
0.210994
0.33311
-0.0754379
-0.220051
-0.844563
0.439379
-0.100328
-0.842702
-0.381968
-0.786406
1.06161
0.324209
-0.493907
0.416445
-0.102223
0.209211
-0.0196849
-1.02793
-1.11265
-0.367353
0.244654
0.421846
0.705815
1.22317
1.35678
-0.612764
0.728538
-0.137209
-1.74975
-0.936719
-0.408482
0.612199
1.87531
0.251015
2.30948
-1.41791
1.40684
0.237667
-2.48609
-0.221473
-3.83244
0.0286673
3.37381
0.44207
1.8717
-1.9245
2.67885
-2.37967
-2.3085
-0.249781
-2.96791
-1.84034
1.32276
0.574205
2.06256
-2.28992
3.0655
-2.49793
-0.978616
0.137396
-2.53685
0.366613
0.0558783
1.88349
1.41142
-1.62001
1.00634
-1.92938
-0.0138489
-0.350712
-3.80205
-0.389131
0.73669
0.949599
3.30769
0.568717
1.74024
-1.76127
0.357591
0.38299
-3.25645
1.15289
0.863739
1.70459
0.15331
1.90714
0.775221
-1.51091
-1.00315
-1.47544
-2.48582
0.36046
2.14393
0.610497
0.252769
-0.280602
0.122271
-2.1024
-0.906734
-1.7486
-1.9052
0.699279
0.953102
-1.24933
0.327959
2.15455
-0.0276019
-0.219645
-0.914008
-0.258255
-1.73604
0.938679
-0.177455
1.00204
1.12162
2.43465
-0.15276
-0.277041
1.58034
-0.274072
-1.63335
1.43864
0.455219
-0.420625
0.861743
1.29225
-1.30492
-0.249037
-1.45481
-1.90138
-2.57376
-1.49288
0.632453
1.31549
1.70869
0.940573
-0.324671
-1.71745
0.192334
-1.13228
-3.08146
-1.14417
0.284557
1.11077
-0.224914
0.350658
-0.878575
0.284172
-0.513214
-2.19078
-1.24244
0.60475
1.20618
-1.2043
0.37391
0.228496
-0.25687
-1.44775
0.965395
-2.58257
-2.2746
1.51249
1.14229
0.407329
-1.22034
1.15969
-0.0886562
-0.486851
-0.442903
-3.02524
-2.36992
-0.422876
1.52777
-0.952118
-0.106019
-0.383311
-0.838923
0.968254
1.72655
-3.22949
-0.541826
1.50885
1.41983
1.38632
-0.591302
-1.66022
0.173512
0.859652
1.8835
-3.35212
-0.327135
1.18007
0.469638
0.869071
-0.381531
-1.37759
1.27133
1.36455
2.84797
-1.86224
-2.19586
0.499281
-0.926576
1.84677
1.26594
-1.95965
1.78851
2.95258
0.954277
-2.64306
-1.97102
0.586913
1.60033
1.35478
1.68553
-1.81806
-0.861516
2.4514
0.220472
-1.58447
-0.19423
0.38625
1.94178
0.943591
-0.020246
-1.01818
-1.13701
1.99087
0.0482225
-0.304851
-0.0455627
0.909513
1.90451
-0.383242
-0.0685271
-0.305902
-0.680624
1.29745
-0.144107
-0.297349
0.00521126
-0.320355
0.53749
-0.343678
-0.144174
-0.265027
-0.493664
-0.0533073
-0.127268
-0.0486585
0.579813
-0.12665
-0.392382
-0.573036
0.0095826
0.641482
-0.30459
0.321244
0.320893
-0.103518
0.281634
0.0984307
-0.131778
0.20327
-0.463076
0.563265
0.383008
0.0787209
0.6183
-0.443107
0.731593
0.515702
0.335483
0.427443
-0.685018
0.342615
0.0433076
-0.202597
-0.0735053
0.122758
0.185966
0.189017
-0.51303
0.315932
-0.855107
0.642897
-0.11536
0.318702
-0.143375
-0.299339
0.494692
0.463394
-0.105717
-0.15059
0.138661
0.975421
0.619581
-0.268439
-0.695087
-1.17141
0.606738
0.700013
0.173221
0.73018
0.0458976
0.654988
-0.299259
-0.502918
-1.07542
-1.32989
0.524669
-0.504088
2.1912
0.592205
0.42483
-0.178138
-0.0940578
-1.51156
-1.49405
-0.427958
-0.703476
-1.29466
4.74205
0.299838
0.112434
-1.58781
0.923033
0.511665
0.166269
1.72299
-2.23798
0.619512
2.00701
-1.36535
1.20145
-3.3166
0.46859
-0.549636
0.473609
0.797008
-0.826366
-1.58789
1.42768
-2.15945
0.654782
-2.55268
0.220965
0.21673
0.740856
0.39944
0.925785
-0.260807
1.70192
-1.98435
0.797616
-1.58497
0.709895
-0.240668
-1.42469
0.0983016
-0.859393
0.701095
2.83503
0.00139782
0.0108343
-0.439809
-0.0376925
-1.4139
-1.00379
0.674435
0.504923
0.229113
0.90118
-0.500516
-0.131118
-0.116189
3.12319
-0.210948
0.802561
-0.769949
-0.19447
1.53349
-0.249139
0.0644749
1.79367
-1.90323
2.06914
0.928377
0.407092
-1.81005
-0.127492
1.09607
1.0714
0.587156
1.46142
-0.565505
0.413692
-0.25661
-0.453296
-1.52478
-2.28954
2.29335
-0.332604
-0.3152
0.768701
2.13704
0.123568
-0.0917175
1.79159
0.269259
-2.58461
-1.74272
-0.158768
-1.03258
1.49518
-0.454609
-0.0434669
-1.13858
0.554233
0.751866
-1.42207
-0.231588
-0.337474
-0.519881
1.10501
1.04899
1.24319
0.197694
1.86435
-1.60094
-1.37331
-0.529471
-0.0851247
0.530088
1.16246
-1.23733
-1.34909
-2.56325
0.40895
-2.09409
-1.94589
-0.511455
1.26561
-0.226045
-1.38902
1.17381
-0.862331
-1.03124
-0.55017
-4.40958
-0.607338
-1.37121
0.762003
-0.425679
0.785352
-1.25837
-2.63126
0.0802879
-1.13876
-3.06101
-1.46877
0.793844
2.2749
0.763035
1.33528
-0.4494
-1.06404
0.631506
0.721945
-1.668
-0.0872216
1.38253
1.5879
0.8084
1.71308
-0.163591
0.138224
1.65314
0.919225
-1.9959
-0.73216
0.898094
-0.826918
0.826528
1.36952
-1.63097
-1.04488
1.63527
2.17338
0.243067
0.0774464
1.41037
-0.0818743
0.276981
-0.233709
-1.70138
0.37156
2.49159
0.863814
-1.45014
-0.390136
0.547062
1.14576
0.289752
0.954794
-0.918784
-0.265511
1.02163
-0.24986
-0.970578
0.125592
0.524597
1.00918
0.0158641
0.102874
-0.41895
0.0651782
-0.0454719
-0.0827514
-0.202324
0.511097
0.653844
-0.0633854
-0.335002
-0.145885
-0.108226
0.0215453
0.281649
-0.182257
-0.466189
0.439952
-0.186126
0.0374063
0.158185
-0.0340172
0.42486
0.169743
0.0185837
0.186944
-0.0740538
0.279008
0.486285
-0.347286
0.0752972
-0.957454
0.821702
-0.393353
-0.0365164
0.460904
0.277537
0.424971
-0.369176
0.340063
-0.28315
-0.866404
0.105196
-0.169308
0.0130857
0.26876
0.170068
0.492376
-0.389287
-0.501655
-0.0880977
-0.163889
0.314173
-0.0214666
-0.35363
0.315617
-0.0830526
0.131522
0.394527
0.207349
0.28102
-0.739343
0.238758
0.105872
-0.161424
-0.646518
-0.327664
0.825571
0.0235248
-0.139486
-0.0622865
0.323835
-0.33226
0.266979
-0.845771
0.071356
-1.06957
0.158959
-1.37041
2.14228
0.327229
-0.260154
0.0331414
0.0407608
-0.0554418
-1.48311
-0.796526
0.521229
0.0317667
2.51383
-1.9111
0.324108
-1.50278
0.783248
-0.860005
-0.991703
0.0513202
-0.154997
0.067188
2.53118
-1.24941
0.438292
-2.44443
1.0398
-0.159045
-0.480493
0.639398
1.56888
0.153396
0.187146
-2.41319
1.53962
-3.97134
0.595297
0.442695
-0.00587329
-0.998637
0.185648
0.0130413
0.262908
-1.72831
0.900019
-3.13168
-0.930659
0.593214
0.0673279
-1.11271
0.954877
-0.0782535
0.91672
0.708468
-0.377455
0.492585
2.01775
0.626111
0.639328
0.869618
2.97635
-1.02584
-0.895587
-1.16789
1.36298
-1.17011
1.42951
0.649268
-0.482524
-1.01088
0.0621235
0.156582
1.50374
-1.06419
0.906544
-1.21327
1.19094
-0.154843
1.80448
0.275725
-1.26821
-0.637635
0.910715
1.57679
0.0759474
-0.829473
0.349154
-1.04895
1.2389
1.13832
-0.789872
-0.421198
0.232676
1.60824
2.49551
0.0885877
-1.53552
0.0964504
1.70892
-0.268367
-1.95089
-0.726927
0.265364
0.717664
2.32237
1.51551
-0.392395
-1.95569
-0.892992
-1.66566
-1.14321
1.31825
-0.122244
0.753872
0.734081
0.982407
-1.77152
-0.857064
0.707187
-0.557629
-2.39025
-1.15856
0.43995
1.21535
1.99298
-0.189001
0.821388
-1.96204
3.2297
-1.66183
-2.32008
-0.811523
0.807564
-0.595544
1.06371
-1.56264
-2.71859
-2.60809
1.37462
-0.819629
-1.0854
-0.161474
1.00951
-0.694697
0.218451
-0.163592
-1.70536
0.0682102
1.4246
-1.6179
-1.08792
1.51422
2.46008
1.94085
0.108893
-1.25137
-0.668648
0.578928
1.33382
-2.22561
0.937287
1.49012
1.20109
1.73124
-0.735584
0.622886
-0.816675
3.68602
0.0200501
-0.70428
-0.0332738
1.45545
0.803738
0.00467738
-0.492754
-0.66642
0.424955
2.55172
0.88635
-0.176404
-0.986598
1.75976
0.850402
0.40765
-0.584298
-1.18706
0.185771
0.958033
1.06502
-0.69186
-0.307655
0.818796
0.83197
1.00515
-0.623118
-1.27907
0.409447
1.50221
-0.972745
-0.164117
-0.189121
0.126506
1.69314
-0.209842
0.442465
-0.851104
-0.484521
0.284827
-0.211954
-0.44951
0.676338
0.565087
-0.343435
-0.671352
-0.573714
0.453725
-0.0632898
0.139219
-0.003748
-0.256725
-0.102241
-0.510153
-0.141994
-0.234835
-0.891054
0.415586
0.00307419
-0.14972
0.35574
0.163145
0.570281
0.322318
0.299812
-0.0214129
-0.156273
0.406753
-0.474102
0.00607214
0.0308837
-0.120906
0.253981
0.412874
0.0495832
0.308982
-0.760503
0.906663
-0.348553
-0.360447
-0.269009
0.0975047
0.295747
0.139234
0.371258
0.176916
-0.531965
0.56389
0.307792
-0.15299
0.331472
0.229817
0.365836
0.0533187
0.176637
-0.389769
-0.1449
0.589657
0.585414
-0.655569
0.0511401
-0.0423744
0.965101
-0.530585
-0.141599
0.430822
0.00767228
0.635105
-0.477736
-0.87041
-0.597748
1.24851
1.88117
-1.00213
1.1039
-0.465463
0.745047
-0.774097
-1.46667
-1.52497
-0.8577
2.07331
2.95759
-1.22703
-0.435738
-2.01894
2.0037
-0.690462
1.51807
-0.912641
0.102546
0.192257
2.6565
-1.18429
0.167542
-1.54654
1.9384
-1.38734
1.63364
-1.20439
0.770542
1.38242
2.3019
-0.792141
-0.779875
-0.751423
1.40903
-3.69826
1.20701
1.11862
0.152799
0.692846
1.34064
0.278552
-0.541047
-0.693565
1.63991
-3.22898
1.26345
-0.23653
-0.823818
-1.33834
0.281551
0.60716
-0.352741
1.3633
0.0382521
-1.08608
1.11223
-1.24694
-1.01522
0.280741
0.454271
-1.79327
-1.03379
2.20648
1.94348
-1.58819
1.46591
0.322491
1.65187
-0.353876
0.115965
-0.359624
-1.52201
0.104288
2.77893
0.361606
1.30886
0.440252
0.474715
0.0814564
-0.588635
0.747701
-0.887003
-0.472064
1.93431
-0.0969375
1.67963
0.371992
1.08647
-0.870353
-0.722341
-1.01356
0.302586
0.431348
2.83434
-0.0971284
1.19793
-0.455168
0.943332
-1.76212
-1.28901
-2.32408
-0.247853
3.49098
4.36075
-0.462457
-1.25404
1.9501
2.23592
-1.40881
-2.08275
-0.803237
-0.202724
0.715396
1.26786
0.477747
-0.605239
0.119305
3.06959
-0.222475
-2.13133
0.860258
-1.60931
1.32705
2.71071
1.92428
-0.616978
-1.10856
0.161005
-1.33166
-1.65109
0.0928087
-0.580037
-0.524255
2.02905
1.03544
-0.393317
-0.152985
0.273707
-1.79847
-1.35405
0.151788
0.141485
0.612151
-0.517342
-1.63455
-0.79837
0.415936
2.19784
-1.42095
-0.706149
0.858069
0.35464
0.817317
-2.15233
-0.229651
0.294974
2.19938
1.99851
0.194293
-1.85916
1.3249
0.886412
1.34833
-2.47649
-1.05158
-0.453599
0.605177
0.94321
0.86665
1.71608
0.517635
0.460417
-1.03649
-0.785956
-2.36144
0.0260823
0.899184
1.68269
0.05703
0.271989
0.546992
-0.211445
-0.0537135
-1.13266
-0.902973
-0.211468
0.235522
0.642667
-0.416414
0.459341
0.453689
0.311294
-0.1918
-0.473209
-0.0337142
0.102211
0.0642996
-0.787722
-1.09068
0.000181544
-0.243974
0.824597
0.246156
-0.0678186
0.630188
0.127589
0.272238
-0.419621
-0.685279
0.273067
0.0889977
0.870571
-0.452941
0.000742506
0.943191
-0.421645
0.140772
0.562727
0.114469
0.665666
0.0393601
-0.262782
-0.376664
-0.238279
0.114849
-0.312909
-0.0416021
0.485209
-0.170586
0.016416
0.399909
-0.568133
-0.343499
-0.798171
0.533329
-0.44117
-0.33305
0.139157
0.0778873
0.865805
0.390729
-0.408659
-0.351364
-0.162403
0.150354
0.290704
-0.358243
0.00603645
-0.306325
0.784463
0.00275137
-0.296309
-0.0888973
-0.938357
0.929321
0.203132
0.393325
0.146915
0.28836
0.239703
-0.385364
0.181905
0.0796702
-0.970118
0.712074
-0.181573
-0.126492
0.218431
-0.496061
0.386026
-0.199051
0.190922
0.403364
-0.406725
0.121726
-0.507271
-0.262007
-0.079864
0.240004
1.42908
-0.348593
0.474597
-0.401014
0.400685
0.391342
0.004307
-0.548201
-0.0258129
1.72734
1.80777
0.197303
0.241091
-1.13212
0.681482
-0.809409
0.486426
-1.54305
-0.224028
1.67955
2.52667
-0.083159
-1.24713
-1.9269
1.6987
-1.04997
1.139
-0.950167
-0.596621
0.639003
1.89958
-0.765779
-0.0329243
-0.217067
2.16419
-2.1293
0.345484
-0.981925
0.314111
2.754
2.87805
-1.84467
0.626266
-1.01501
3.9862
-3.27114
0.849184
-1.35143
0.773732
1.53632
1.66794
-2.89231
0.662147
1.15201
4.30195
-2.41626
1.13639
-1.27343
1.42645
1.33302
1.20257
-2.56974
-1.03241
0.80506
4.29287
-1.29144
0.763158
1.19417
1.2584
0.930118
0.720929
-2.45261
0.239641
0.148285
3.99529
0.503105
0.625624
1.22078
1.84933
0.444113
0.549247
-3.32009
-0.650476
-1.23579
4.09019
-0.445162
0.809754
0.00636611
2.56797
0.868844
1.10755
-1.79642
-1.02808
0.387323
1.99983
0.83476
-0.511406
0.232575
1.36825
0.46267
0.0129158
-2.56459
-0.951022
0.326718
3.17068
-1.196
0.239128
3.42221
3.40433
1.26983
0.534105
-2.40363
-1.00444
-0.587886
2.31654
1.77054
1.14589
1.09229
2.83812
2.06626
0.780137
-1.62651
-1.99635
-1.27786
2.71754
0.167174
2.94247
1.0374
2.95532
-0.451342
-1.12652
-2.91725
-0.964688
0.290087
1.1413
-0.997655
2.35002
0.185927
2.46545
-0.30751
-1.05145
-3.2655
-1.59318
-0.902085
0.362644
-1.61724
1.93196
0.861583
2.92492
1.03065
0.109052
-2.32555
-1.05165
-1.30588
-0.576642
-1.97966
0.616614
0.32603
1.6901
0.227685
0.642805
-0.143376
-1.03401
0.0628763
-1.33402
-2.00093
0.454254
-0.302426
2.74816
1.28447
0.261095
-0.800705
-1.01412
0.24689
-1.64914
-2.17533
0.911493
-0.0251314
1.54614
-0.0835026
0.707376
-0.252757
-1.16808
0.257821
-0.604711
-1.17815
-0.035663
-0.320661
0.854323
0.04313
0.0481319
-0.412677
-0.246654
0.34052
-0.246313
-0.442919
-0.0155215
-0.474382
0.168745
-0.284871
0.0805863
0.079353
0.213122
0.309347
-0.604461
0.770863
0.239006
-0.103676
-0.0643264
-0.439808
-0.123928
0.531437
-0.0192857
0.24097
-0.477557
0.509239
-0.527739
-0.256505
-0.155723
0.154471
0.626385
0.306226
-0.241477
0.124288
-0.7715
0.229385
0.129589
-0.0638789
-0.226756
0.080123
0.0965404
0.555086
0.00254228
0.0864911
-0.920799
0.399099
0.108539
-0.110657
0.142257
0.0116026
0.691957
0.498208
-0.547691
0.0694221
-0.774402
0.647448
-0.131737
-0.195581
-0.0709742
-0.334319
0.604746
0.158482
-0.281003
-0.246243
-0.620549
0.489344
-0.528409
0.2215
-0.0301679
-0.467806
0.846716
-0.118307
0.0628698
-0.112016
-0.802992
0.80609
0.379795
-0.230869
-0.0567462
0.322303
0.241996
-0.38447
-0.455363
-0.0567564
-0.187014
0.873573
0.502912
-0.136725
0.380829
0.0385123
0.785604
0.167525
-0.235755
-0.0664076
-0.682541
-0.220167
0.190661
-0.442109
0.501629
0.182822
0.859057
0.640344
-0.373405
-0.363353
-0.507068
0.199821
1.23627
0.519648
0.735844
0.431483
0.452754
0.382769
-0.567383
-0.202979
0.0288128
-0.878482
-0.255611
0.511839
1.2675
1.31698
0.123368
-0.568725
0.324942
-1.04669
0.0680727
-1.27547
0.544953
1.36025
1.20758
1.56004
0.728991
-0.740141
-0.193616
-1.84446
0.678384
-1.88224
0.943602
0.0537991
1.96322
2.39872
1.78053
-1.93875
-0.505408
-1.06621
1.53981
-3.64438
0.78858
0.956048
1.71619
2.50702
0.262286
-1.67465
-0.189302
-0.327562
1.85641
-3.85694
0.924693
1.48654
2.31308
1.26149
1.6975
-0.850289
-0.345347
-1.48716
1.52323
-2.5242
2.19229
1.43751
2.04503
1.19715
0.999801
-1.7255
-0.681555
-0.346904
1.45404
-3.27374
2.32309
1.54987
1.6753
0.0475324
0.748489
-1.12148
-1.22157
-1.42689
1.15179
-1.68064
1.57367
1.12879
2.14035
3.2923
1.79461
-1.64662
0.397323
0.0110289
1.89992
-3.88975
2.32089
1.03505
2.23303
1.72457
0.6164
-3.63389
0.0472191
-0.538348
2.917
-3.61258
2.89471
0.323486
1.68767
0.882307
1.24454
-3.12303
-0.799416
-1.08772
2.14904
-2.55798
1.9325
0.165931
1.00339
2.00671
0.79565
-2.33151
-0.557495
-0.87393
1.85786
-2.52055
0.888314
0.770312
1.08528
1.08971
0.543549
-2.93096
0.264578
-2.09098
1.93772
-2.40853
1.92511
0.0236687
0.583524
-0.513127
0.334082
-1.57905
0.0140129
-1.4043
0.972778
-1.2302
1.11528
0.154211
1.32337
0.871147
0.610565
-0.544601
-0.665345
-0.685522
-0.143905
-2.35099
0.325026
0.271386
1.59919
1.03117
1.12314
0.185348
-0.948976
0.210256
-0.93557
-1.83738
0.185262
-0.0570204
1.07756
-0.0306333
0.818547
-1.02386
-0.158751
-0.355969
-0.326592
-0.424448
-0.0431333
-0.189655
0.0557798
-0.1296
0.145795
-0.121774
-0.145418
0.473579
-0.268566
0.285896
0.345842
-0.293057
0.44836
0.352069
-0.110004
-0.169956
0.354565
0.0134054
-0.717678
0.51077
-0.0792618
-0.0980766
0.235535
-0.341761
0.813926
0.0621898
0.105175
-0.339501
-0.08898
0.683129
-0.0353354
0.230857
-0.295076
-0.0256536
0.113968
-0.311727
-0.34496
-0.220963
-0.0317862
0.469631
0.242743
-0.367204
-0.203004
-0.398505
0.0103626
-0.165825
-0.162955
0.285975
-0.729545
0.585612
-0.00920404
-0.296694
0.111239
-0.198636
-0.0641359
0.541888
0.0575715
0.147218
-0.894152
0.0526509
0.368191
-0.58643
0.477358
-0.643234
0.437998
-0.28238
0.369326
0.0525686
-0.844054
0.853421
0.374233
-0.591245
0.184715
0.280296
0.158989
0.0998371
0.345444
-0.469131
-0.552623
0.118622
-0.226162
-0.162701
0.47539
-0.378248
0.261988
0.133392
-0.589361
-0.397353
-0.253565
0.295362
0.16135
-0.304303
-0.115467
-0.0978397
0.104734
-0.0865046
-0.518022
0.359836
-0.0839346
0.499072
-0.170528
0.119555
0.597987
-0.554989
-0.0315177
0.124206
0.172123
0.0717259
-0.149515
0.944221
0.436253
0.344315
0.222494
-0.0235768
0.486509
-0.0656371
0.347871
0.260192
-0.245517
0.396055
0.574545
0.00572265
0.477432
0.159178
0.257048
-0.0501686
0.00334799
-0.0492905
-0.712108
-0.0840675
-0.112936
0.107521
0.174492
0.403453
0.36299
-0.0872051
0.329321
0.157596
-0.646312
0.515137
0.314502
0.490251
-0.103871
-0.530617
0.0310425
-0.65074
-0.497312
-0.239088
-0.738061
0.0827627
0.715882
0.753294
0.494709
0.434781
0.533662
-0.993129
0.327892
-0.147631
0.235914
-1.23815
0.294284
0.153393
0.353897
-0.21765
0.452977
0.11304
0.0475762
-0.0333612
-0.302934
-0.222915
0.278203
-0.0955207
0.392363
0.216111
0.0785742
0.142908
-0.0129208
0.730266
0.429592
-1.07512
-0.360444
0.197988
0.0522752
0.0715439
-0.159403
-0.285372
0.0976417
0.371844
-0.234912
-0.0926258
0.207514
0.0127412
0.480143
0.777817
0.307872
-0.219809
-0.241892
0.158917
0.0871229
-1.50362
0.434077
-0.346589
0.131267
0.484772
0.193615
0.118826
-0.412876
0.202916
0.252568
-0.480892
-0.0458013
0.0545209
-0.173339
-0.28337
0.568554
-0.72966
-0.481544
0.0620843
-0.118507
-0.169784
0.554192
0.205163
0.854575
0.216714
0.747524
-0.445844
0.269565
-0.945125
-0.433571
-0.346883
-0.173787
0.280189
0.676376
0.20798
0.485706
-0.254651
0.00780281
-1.18856
-0.448638
-0.0739739
0.405606
-0.13029
-0.104338
0.591945
0.363587
0.0688306
-0.106217
-0.307069
0.0837013
0.720013
0.329623
0.336413
-0.194538
0.285966
0.815517
0.592814
-0.45386
-0.43273
-0.731513
0.821555
0.606526
-0.520719
0.624006
-0.0766668
0.663182
0.0783001
-0.101363
-0.343683
-0.632042
-0.00392601
0.39965
0.0493318
0.704624
-0.40375
0.0877908
-0.137223
-0.710976
-0.41532
-0.970545
-0.092188
-0.120367
0.0394792
0.481063
-0.100141
0.0447716
-0.421448
-0.146867
0.0133538
-0.4621
0.23782
0.43504
0.0865191
0.274923
-0.405628
0.347432
0.23733
-0.077745
-0.421053
-0.372311
0.789414
0.309459
0.0752688
-0.206387
-0.207303
0.317541
0.230428
-0.368453
-0.0595781
-0.708063
0.0182402
0.00104003
-0.0199448
0.0751257
-0.173044
0.16971
0.183234
-0.186132
0.0439032
-0.769201
0.736377
0.462209
0.308347
-0.154368
-0.335808
0.553501
0.496311
0.226453
0.116535
-0.866364
0.17541
