1.79031
0.12204
-3.39671
1.4541
-0.987304
-4.48752
0.334994
-3.39399
-0.187958
-1.06834
-0.742999
-3.76275
4.7434
-6.92048
4.19513
2.08603
-4.9696
8.05189
-1.59408
-4.86508
-3.18246
-1.2143
-8.64833
-2.35281
5.8008
-3.89143
4.7843
6.72544
4.14036
0.935962
-1.77204
-1.26233
-0.233765
-3.23058
-4.78811
-3.5362
4.58231
5.66128
-1.78208
-5.73648
6.80766
-1.75535
-4.81418
1.64779
-0.723119
0.0646563
4.19613
-1.86812
5.22076
1.72465
0.729278
-5.38173
7.89776
-0.233893
-4.86772
-3.31541
2.08953
2.23515
-5.64176
-5.40948
0.103041
-0.522607
0.214406
4.21241
-7.58016
2.58831
-3.05671
3.13171
-9.70155
-1.03002
-3.18573
8.85202
-11.4646
6.09335
1.59047
-3.31106
2.05763
-2.09845
-9.50576
5.10149
9.41475
-5.40526
1.6517
-0.732
-0.783879
-4.33819
4.12443
-5.78255
-5.07726
2.59975
8.00179
-3.79211
-2.60697
-2.857
-2.69381
-11.2251
-4.40088
7.14727
-2.209
-4.01566
0.523183
-0.234693
-3.5898
-7.7478
-7.01053
3.05295
1.25488
6.14999
-4.23856
-0.162898
-5.20916
-1.6622
4.97436
-1.99418
-1.64482
-11.5715
1.15273
-0.0303499
0.358583
5.33795
-4.44425
0.536588
2.934
1.75681
-4.46699
10.6923
-0.3136
-2.0673
-1.94525
-0.459202
2.96246
-3.46301
1.48482
-4.14471
-0.19105
-4.80404
-0.685184
-7.15913
-3.61582
-0.289873
-0.87822
-2.43236
-4.86144
2.00753
-0.646664
-3.27276
-0.474368
2.1687
0.0140216
-6.87018
-5.36746
1.04549
0.610533
-7.66246
-4.77679
3.44249
4.46496
-2.71643
-5.36333
-3.53989
-1.19447
-4.01593
2.6884
2.84988
8.9479
0.223907
0.153662
-1.10739
-1.08848
-9.83195
-3.05149
2.58733
-6.23566
-0.126297
-1.23337
-3.21562
-9.55832
7.64916
1.63489
-4.30142
3.52166
3.92141
1.74726
7.13108
-5.73807
5.16991
-2.17492
-8.76448
7.02811
-11.5308
-0.366787
-1.21579
-1.21095
-6.22719
-3.75549
-0.719377
-3.46517
3.32655
-5.00198
0.660921
-5.91718
4.4802
4.4531
-4.0411
4.82012
3.01186
-0.231184
-2.43856
5.02804
-7.10154
1.38228
-6.04295
-2.30967
-1.09631
1.04024
8.6389
-9.03862
-9.14206
-10.0929
8.25271
-1.84464
-0.688608
-7.74707
9.11512
-6.23359
5.25081
1.18071
-0.495496
-5.85301
1.573
-2.55131
3.53225
-6.30932
-3.68655
-2.41775
-5.71169
2.12844
-3.39708
0.169751
3.07445
1.71152
0.235802
-1.01965
3.94648
-3.92916
-7.76618
-2.67779
-6.12337
4.78262
5.65883
-2.17262
8.7193
-4.96868
-7.38876
1.83774
6.88195
5.30658
-3.18853
-11.3421
1.08847
-2.22465
-2.72264
-0.029268
0.819729
3.3478
-3.43261
-2.31009
-0.181944
-5.62861
1.75646
-8.36609
4.17908
2.17563
-5.74606
-1.88678
4.8483
-6.0689
-2.21571
1.98264
-0.118918
-0.692076
6.65044
-1.09583
2.02405
1.05646
-2.75514
0.365699
-3.47002
-7.13016
6.14636
6.1424
0.606756
6.93913
-1.68471
-5.68127
-7.06105
1.9322
2.65886
3.22722
-2.80572
-4.36586
4.1693
1.76581
6.29378
2.94735
-6.75646
-0.202735
0.986729
-0.445495
0.494216
-0.1972
2.85193
3.90895
-2.39888
-11.1464
-0.96657
-6.54759
-2.10586
0.564929
2.24696
0.211816
-3.42672
4.34541
-4.18483
0.213666
-3.87633
1.45652
-2.43865
-2.66525
-1.0698
-4.61088
9.04115
7.05299
-11.4288
-0.339257
5.6193
-2.63983
0.763403
-8.90085
-1.20521
-1.94274
-2.34735
-6.84384
-0.633736
2.60058
-4.93617
-1.2148
2.49041
-6.52581
-3.19662
-7.58584
0.65419
3.58595
9.80769
-3.90298
-6.93233
-11.8347
7.32361
-6.50893
-13.3749
-6.05257
-2.63633
2.73515
-0.639837
-4.25842
5.81109
-2.91472
3.95094
-4.95132
-10.3498
0.802675
-2.95027
0.423019
-4.96288
-4.11012
15.3181
2.51521
-0.190254
-0.334731
-1.39272
1.01154
2.24568
-4.22544
3.20348
-6.491
3.89726
-2.68671
-1.1333
6.36724
2.57104
-6.96678
5.87535
1.26573
1.6173
-12.9065
3.44143
5.00525
-7.16728
-1.07139
-5.53544
