3.43568
-7.61947
-3.31788
-2.19527
2.73934
-0.872145
8.25843
-3.38199
-0.283365
8.72885
-4.64749
-4.3442
-4.89325
0.753039
-5.60661
8.73367
-7.92556
0.755243
8.32565
4.86798
0.345411
2.11894
-1.9398
-1.18184
-7.93985
-3.26095
-0.245325
-2.98363
0.515441
-2.92273
-4.01443
5.97534
3.40888
-8.5209
-2.35063
-6.8189
-0.384921
13.9321
4.63566
-3.83739
2.3635
6.81575
3.60349
-1.72834
-4.91262
-3.90845
-1.34001
-14.6997
4.49295
4.90857
0.36012
-5.6183
-0.759109
3.88752
-4.30319
3.59385
-4.48382
-6.54783
2.91887
-3.93286
-1.11851
-1.29802
4.66256
-3.86419
-1.52868
-5.09676
2.22457
-3.61009
-1.16815
11.4865
1.70086
6.21661
3.14299
8.29358
-4.35537
4.53889
0.377017
3.01782
-1.8812
2.21667
-4.11003
0.245698
1.02521
2.46056
-1.54906
-6.54209
-1.65508
-1.37745
-9.11983
1.20039
-1.07347
8.61395
-2.08877
-7.54369
-0.770543
-2.56915
-7.17526
4.7482
-2.92507
0.643285
2.26506
6.32258
-1.16278
7.82288
-2.84676
-6.80593
-3.32364
-4.27723
0.816545
3.36609
-1.85615
-1.65566
-3.32919
-0.49632
2.72599
-15.7676
5.43034
5.51296
9.00167
-11.9171
-4.3136
2.88372
6.66408
1.32238
1.87179
4.31811
-10.9192
3.82504
-4.49806
-4.67591
6.9806
8.80841
1.51923
-2.5695
-3.89763
-11.0327
1.0803
2.31339
-10.6095
-4.98727
-5.97738
-2.79716
-1.65236
2.37917
11.9687
-3.62095
-3.35713
-3.66875
2.09097
-1.27507
-9.00017
6.74782
-1.11424
-4.16606
6.47126
2.28123
-3.58845
1.22698
-0.820138
2.23256
-4.98666
0.520011
0.987225
1.94918
-5.43342
0.828376
2.37538
7.66885
-9.42909
-1.03004
0.965888
-0.873501
0.821249
-4.85655
1.3334
1.23264
2.20357
3.64938
-11.9185
2.18254
-4.01042
11.4774
-7.24259
-4.66808
-4.21084
0.171589
-0.0662644
4.48375
-0.981764
-0.488198
2.64595
1.61166
-3.41317
-4.51255
6.57411
6.76549
2.63099
-6.65438
-3.45584
-7.82418
0.257267
-0.124578
2.34983
-4.2279
-0.469811
6.8491
-7.12027
1.95214
0.775358
1.04121
-7.55293
-0.181307
-5.94269
6.46174
6.82066
0.0368195
7.09037
-10.6548
-0.206101
-5.13213
4.06807
3.89527
-3.24583
0.790824
-2.53842
-4.01026
2.03624
-4.18979
12.0215
6.12957
-1.89361
-2.03879
9.45754
-6.95867
-2.16329
-0.713847
-10.4656
3.68805
-8.39629
2.05627
-2.09539
0.84393
-6.26809
0.838738
-10.3558
-4.05193
1.02224
4.50671
-1.31877
-8.23976
4.44544
7.18288
7.85651
3.62726
-5.54561
4.71453
-1.60511
2.58886
6.68885
-2.01629
1.98526
-9.14796
-7.04113
-6.79317
3.41043
5.0101
2.30244
-4.35256
-0.30467
-2.42583
-6.33976
6.15601
-1.04988
7.90378
0.0949699
16.4858
5.23344
-0.285742
-3.61502
6.21616
1.70055
-6.58558
-0.272517
-10.311
5.48632
-0.162836
-4.35583
0.56785
0.338347
-7.67821
-5.93675
-2.40641
8.86688
-3.14667
-1.90234
1.38514
-1.04495
2.20317
11.4624
1.48579
10.1957
-8.31354
-2.65849
6.75092
6.07251
5.03617
-6.01989
5.40676
-1.87087
-3.43797
2.50657
-1.51446
-3.75857
4.6108
-5.11458
-1.48915
-8.28147
0.0322775
1.12127
5.00588
0.179374
-3.98529
-9.91941
1.31857
0.608548
-1.65678
3.7818
3.28603
7.23837
2.80034
-3.71346
1.637
0.13069
0.400575
-5.54879
-0.374516
-9.50208
8.57764
5.02208
-3.97432
-8.09613
-4.32531
-4.50173
-7.05244
-2.50815
-13.8875
7.92115
7.18579
-9.18514
-9.2295
-1.96682
7.41499
-2.84713
-5.38554
-0.337185
11.4477
1.72227
-4.65769
5.66236
-2.56222
-0.455441
10.4394
-2.89597
5.07986
1.83038
0.549109
5.46086
-4.79273
-0.338718
0.784241
-0.215756
-3.27732
-4.5768
2.62505
6.21006
3.85448
14.7131
0.597061
-5.31484
4.15965
7.02643
-1.28428
3.99216
2.0698
-2.73983
-1.83645
-1.29749
2.33338
-0.445342
-3.34263
-3.81744
-11.5222
-1.59567
-5.40505
-3.54901
-3.62733
0.870505
7.62029
-4.16067
8.23875
