-0.411435
-1.26251
-0.58454
-1.27067
-0.695796
-0.841523
-0.092335
-0.842912
-0.448881
0.369704
-1.31743
-1.51183
-1.22273
-0.828545
-0.171055
-0.70697
0.682407
-0.27036
-1.45186
-0.130005
-0.573711
-0.503951
-0.684796
-0.521064
0.275866
-0.440897
-0.0493386
-0.80948
-1.15323
-0.291355
-0.160774
-0.339511
-0.620147
-0.588706
0.733689
-0.0633459
-0.450077
-0.456987
-0.0742676
-0.0426169
0.854719
-3.67277
1.01017
1.11108
4.94972
-2.83257
-3.38411
-0.090749
2.23716
-3.11561
0.975233
-4.12566
1.40761
0.826831
5.30764
-3.48637
-3.03719
-0.724244
2.91085
-2.8552
-1.08457
-1.0542
-0.447913
-0.701489
0.275793
-0.587815
0.250354
-0.780005
-1.03102
0.189297
-1.21704
-0.531827
-0.773518
0.0823324
0.372657
-0.883973
0.593635
-0.0345768
-1.32326
0.0318695
-0.532835
-2.25688
-0.868849
0.173191
-0.56584
-1.11333
-0.658347
-1.5926
-1.28553
1.01793
0.839372
-2.02307
-0.276685
-0.170348
0.0442423
0.307458
-1.95566
-1.40264
-0.457797
0.209996
0.708494
-2.43333
-0.828609
-0.0593728
1.64545
-0.186998
-2.57677
-0.369791
-0.115259
-0.936411
-1.25034
0.362455
-1.24895
-1.94002
-1.39151
-1.29997
3.22274
0.250766
-0.601538
0.640345
-1.82107
0.110795
-1.15287
-1.42017
-0.76359
-0.326217
2.43778
0.436858
-1.19192
0.346289
-0.556233
-1.03731
-0.253549
-0.685756
0.19657
-0.622417
-1.1938
-0.788728
-0.0905637
0.465486
-0.819916
-1.47201
-0.260799
-0.0289305
-0.271808
-0.58453
-0.0878758
-0.377163
-1.02558
0.136011
-0.375902
-1.34876
-1.20634
-0.923507
0.220558
0.39959
0.0795354
0.250189
-0.157057
-0.798554
-0.573952
-2.63402
-0.809183
0.176851
1.42486
0.387581
-2.85319
-0.985222
-1.19832
-0.473267
-1.38748
-0.458799
-0.640805
-0.0131054
-0.301954
-0.710744
0.28903
-0.193879
-0.795558
-0.524069
0.398802
-3.77067
-0.00728079
0.260918
2.51666
-1.7252
-2.62277
-0.665374
0.786831
-1.4529
-1.22934
-0.126535
-1.10158
-0.326761
-2.21982
-1.02549
1.52571
-1.49131
-1.6622
1.61403
-1.26768
-1.06093
-1.17855
-0.311639
0.271116
-1.02318
0.196616
-0.322536
-1.25075
-0.0951911
-1.56904
0.709799
-1.08643
-1.52802
-1.92511
0.16727
1.88103
0.396341
-2.19
1.05437
-0.410354
-0.708565
-0.846346
-0.972555
-0.972852
-0.253899
0.516998
-0.823651
-0.426929
0.880501
-0.96743
-0.171931
-0.943502
-0.953097
0.423979
-0.532018
0.536152
-0.126643
-0.249863
0.158148
-0.996821
-1.58286
-0.676828
0.1938
0.78428
0.0389553
-1.88729
-1.02804
-1.41206
-0.0823481
-0.17311
-0.224084
-0.237236
-0.436158
-0.0820919
0.165037
0.0193354
0.0318213
-0.25764
0.385978
-1.76393
0.295287
-0.292703
-0.410514
-0.146301
-0.551251
1.08313
-0.704907
-1.38329
0.623348
-0.184373
-1.43135
-1.3961
-0.573374
1.25736
1.08041
-1.35612
0.782377
-0.477253
-1.31428
-1.21197
0.276097
-0.74573
-1.35702
-0.298049
-0.186981
1.41416
0.13168
-1.21801
-0.145508
-1.25351
-1.07825
-0.645606
-0.367786
0.176857
-0.684497
0.575879
-0.189263
-0.682601
0.391862
-0.0421756
-0.29007
-0.0797409
-0.704429
0.146326
0.498861
-1.17614
-0.414594
-0.823482
0.68652
-2.42776
-0.774592
-1.02991
-0.394765
-0.956845
-1.54548
1.8773
-0.753604
-2.14348
0.200665
-1.34443
-1.95512
-0.029094
-0.154823
-0.31088
-0.527406
-0.538122
-1.34489
-1.5051
-0.0146571
-1.38697
-1.03718
-0.887402
-0.718538
-0.62542
-0.199077
0.990936
-0.595446
-1.0027
0.558767
-0.285508
-0.566824
-0.771093
-1.05522
0.0112291
0.185346
0.552311
-0.190654
-0.214835
0.367512
0.0762352
-1.20714
0.215852
-0.311174
0.248808
0.102729
0.155497
-0.714268
-0.814638
0.0399505
-0.611168
-0.688978
0.134522
0.279681
0.526522
0.321346
-0.0397229
-0.335784
-0.925582
-0.662077
-0.529329
-0.167932
-0.944942
-1.32048
0.499423
-0.585652
0.279771
0.527836
-0.200652
0.128371
-1.70546
-1.74515
-0.979364
-0.427135
0.118776
-1.03859
-0.0211965
-1.23802
-1.07021
-0.121608
-0.314473
-1.08736
0.088927
-0.19087
0.261139
0.034892
-2.10706
-1.08314
-1.01319
0.331306
