0.406201
-0.192076
-0.212397
0.373828
0.186836
-0.152237
0.21682
0.171221
0.419434
-0.209451
-0.231932
0.374499
0.381949
0.0641456
0.239063
0.389356
-0.400073
-0.42996
0.172176
-0.206659
0.127985
0.0587711
0.236563
0.0537397
0.482965
0.177303
-0.334179
0.266328
0.394704
0.246248
0.349415
-0.473118
-0.0753836
-0.0997512
0.0160764
-0.489637
-0.0590273
0.299319
0.193912
0.0291191
0.404643
-0.459653
-0.0929926
0.300987
0.370017
-0.308381
0.217114
0.168785
-0.14818
0.0255538
0.341383
-0.469222
0.320891
-0.0128463
0.0762897
-0.430951
0.0753613
0.0184272
0.00176355
-0.140353
-0.199338
-0.137659
0.0191198
0.503329
-0.299375
0.36357
-0.235063
0.312473
-0.107584
-0.20978
0.322627
0.285912
-0.140004
-0.384481
0.547606
0.111332
0.404603
-0.238022
0.443536
-0.30105
-0.198843
-0.555231
-0.459889
-0.0376833
-0.389211
0.324273
-0.425626
0.569634
-0.195767
-0.337677
0.221828
-0.318298
-0.435554
-0.0145841
0.391837
-0.0323268
0.315332
-0.151635
0.364151
-0.359251
-0.293762
0.429158
0.0645003
0.322609
-0.421675
0.4166
0.442429
-0.129962
0.109721
-0.130237
-0.0388839
-0.456515
0.249976
0.33392
0.235634
-0.306875
0.374925
0.255381
-0.325033
0.0230061
0.437869
-0.0674815
-0.268553
-0.325941
-0.143031
0.0414487
0.437287
0.355332
-0.0545629
0.241593
-0.543046
-0.3648
0.0997495
-0.109731
-0.442025
0.267939
-0.426012
-0.176745
-0.33239
0.0661948
0.22725
-0.41017
-0.158756
-0.0440944
0.182644
0.322924
0.330551
-0.28361
-0.444764
0.168893
-0.287553
-0.186838
-0.174294
-0.319344
-0.43794
0.0616327
0.0961982
-0.00145326
0.209714
-0.0856463
0.14194
-0.00592437
0.336673
-0.263744
0.285523
0.0772298
0.308009
0.268133
0.461869
0.470051
-0.492601
-0.63508
0.212138
0.0650796
0.604066
0.192106
-0.610819
0.92517
-0.35339
-0.403416
-1.10246
-0.725042
0.0165071
0.707841
0.195091
-0.756951
-1.01174
1.37654
0.324775
0.164601
-0.575234
-0.447115
0.0394448
1.36569
0.947836
-0.989542
-0.626708
1.72396
0.246566
0.152325
-0.871383
-0.450091
-0.068075
1.11478
0.691899
-0.265477
-0.242971
1.22978
0.241978
0.159505
-0.315782
-0.299758
-0.599135
-0.0227056
0.429769
0.0118475
-0.720441
0.558755
0.178291
0.310498
0.0521495
-0.356344
-0.368966
0.0528603
-0.0146402
0.0291598
-0.313843
-0.421161
-0.179959
-0.528496
0.415291
-0.417618
-0.0711385
0.0577704
0.376508
0.00549195
0.311452
0.0425958
-0.226816
0.219796
0.058398
-0.453286
0.0771741
0.00288594
0.357265
-0.306669
-0.17194
0.0876149
-0.318839
0.504182
-0.769446
0.287269
0.200814
-0.0992841
-0.0690593
0.10847
-0.72715
0.90944
-0.0381718
-0.24117
0.219269
0.455379
-0.314726
0.286648
0.0577704
-0.347665
-0.259082
-0.31313
0.460476
-0.0543369
-0.340427
-0.0213983
0.382188
-0.425152
-0.425914
-0.185057
-0.409501
-0.028556
-0.00322728
-0.114033
-0.420307
0.00921352
-0.443238
-0.351982
-0.439047
0.360657
0.30035
0.115359
0.0632254
0.47253
-0.467223
0.305361
-0.23629
0.481606
0.400611
-0.298806
-0.0635719
0.439285
0.112397
0.105934
-0.192802
0.129037
-0.506361
-0.211466
-0.364145
-0.222164
0.41872
0.0425273
-0.499717
0.339134
0.177115
-0.123023
0.218764
0.278403
0.602129
0.165468
0.257568
0.888259
-0.507423
-0.304203
-0.522041
-0.381083
-0.0252856
1.16667
0.260474
-1.05944
-0.779387
1.23111
-0.418815
0.264159
-0.251881
-0.281853
0.00574453
0.360374
0.275676
-0.654709
-0.613787
0.604219
-0.102682
-0.212504
-0.215521
-0.093089
0.346321
-0.108438
0.399841
0.513361
0.12617
0.180516
0.559772
-0.226679
-0.7811
-0.27511
-0.0232684
0.479231
-0.0128141
-0.159462
-1.06559
1.38998
0.439813
-0.595525
-0.74213
-0.230622
0.187893
0.264341
-0.273788
-0.21175
-0.267092
1.07238
0.655865
0.0162329
-2.04018
-0.820706
-0.232184
1.02775
0.860135
-1.03747
-0.971774
1.50671
0.239067
0.476402
-0.390217
0.236466
0.350806
0.309878
-0.217689
-0.92696
-0.59264
0.126528
-0.36231
0.521865
0.247255
-0.149623
0.308485
-0.525649
-0.127972
-0.0097875
-0.203838
0.222402
-0.537601
0.478553
0.593856
0.399115
0.114568
-0.54563
-0.279027
0.541076
0.720384
-0.157762
0.179548
0.0100547
0.248241
0.147755
-0.259388
0.0322061
-0.0994824
0.179647
0.207928
0.529028
0.28021
-0.442247
0.0126166
0.108825
0.138445
0.124493
-0.399533
0.417452
0.237416
0.346297
-0.124656
0.043497
0.379374
0.302429
0.0243837
0.314607
0.258975
-0.156931
-0.205369
-0.169677
0.263046
-0.0893601
0.422634
0.255241
-0.29927
-0.0850559
-0.240876
-0.110192
0.245403
-0.467084
0.0898325
0.437449
0.18138
-0.544433
-0.0103039
-0.157397
0.346012
-0.0520652
0.629359
-0.596505
-0.164632
0.0329097
-0.142417
-0.767567
0.206479
0.995321
0.0272441
-0.2735
-0.686196
0.613512
-0.474068
0.0931726
-1.17017
-0.24049
-0.269911
1.41454
1.19573
-1.17933
-0.80871
1.61348
-0.315028
0.659434
-1.52587
-0.922556
-0.34883
2.19203
1.12393
-1.19009
-0.963644
2.40404
0.818112
0.123497
-1.89528
-0.469186
-0.973646
2.03814
1.41729
-0.593385
-2.13878
3.34044
0.914477
-0.022624
-0.22817
0.0825684
0.462809
-0.0997364
0.115542
-0.132713
-0.872922
1.16713
0.313412
0.385862
1.17899
0.491646
1.23625
-2.33325
-0.835826
0.627209
1.27576
-2.78492
-0.118034
-0.143487
0.847391
0.709717
0.373277
-1.77433
-1.29011
1.06097
1.6398
-2.56062
-0.335173
0.4544
2.53799
1.44466
-0.210682
-2.98872
-1.06416
1.39667
1.86268
-4.76243
-0.7485
-0.913992
0.174189
0.697039
0.110511
-0.343081
-0.2042
0.327734
0.312905
-0.469575
-0.105773
0.0087635
-0.201193
0.127287
-0.304764
-0.050132
-0.161478
-0.385818
0.366515
0.141109
-0.451649
0.526588
0.158913
-0.249617
-0.469157
0.443467
-0.411997
-0.284359
0.223121
0.354923
-0.384069
0.460968
0.420264
0.278232
-0.185287
-0.295897
0.442223
-0.388415
0.463238
0.214703
0.0460709
-0.303874
0.130612
-0.268161
0.334087
-0.773019
0.24209
-0.11533
0.614379
-0.837244
0.0303013
0.59622
-0.112499
0.286233
0.705106
0.113794
-0.370743
-0.145677
0.309652
-0.0785445
0.236362
0.29402
-0.231504
-0.218074
0.0145469
1.3135
0.21349
-0.272974
-0.37486
1.47033
-0.137541
0.210045
-1.51047
0.0536839
0.562867
1.19738
1.11703
-1.40604
-1.12871
2.185
0.255786
-0.0611125
-1.28763
-0.065422
0.564674
-0.0454549
0.422445
-0.190066
-0.0892082
0.247276
0.10324
-0.0827449
0.258587
0.0987404
0.764573
-0.829207
-0.434841
0.692829
0.224187
-0.76328
0.0786652
0.775203
2.11858
0.862685
1.52569
-3.02045
-1.72105
1.33793
1.81667
-2.81718
-0.253622
-0.0519941
3.06201
0.833828
0.499951
-3.44655
-1.70306
2.55421
2.57755
-4.51525
0.036048
-0.399149
3.28242
1.39248
-0.0304069
-2.56786
-1.84276
1.88137
2.02984
-3.91128
-0.989383
-0.49733
3.29814
1.5655
-0.141656
-3.17473
-1.23861
2.43597
2.36798
-4.11283
-0.921218
-0.944546
0.887708
0.938266
0.152312
-1.24123
-0.303426
1.26412
0.761627
-2.34823
-0.381398
-0.642173
0.0631798
0.0257742
-0.00489749
-0.239522
-0.369301
-0.265542
0.291258
-0.298633
-0.125776
-0.0593901
0.259743
-0.00957126
0.323376
-0.092447
-0.0300358
-0.192571
0.118557
0.0068595
-0.372484
0.193319
-0.51087
-0.447704
0.114004
0.169367
-0.0259182
0.217024
-0.374748
0.517928
0.0367964
0.495035
-0.324983
0.287865
-0.314613
0.633425
0.249184
-0.118784
-0.0220236
0.222592
0.248977
-0.131854
-0.473854
0.254859
-0.369628
1.21166
0.267655
-0.50234
-0.538741
1.42697
0.118006
-0.274424
-0.146434
0.597606
-0.330589
0.32646
-0.016271
0.237146
-0.0815848
-0.0659665
-0.389084
0.247493
-0.76888
-0.161169
0.637504
-0.299554
-0.274396
-0.554694
-0.520455
0.547931
0.0258833
-0.105909
-0.133189
0.513849
1.70808
-0.5539
-0.629248
0.282027
0.130967
-0.4272
-0.334652
-0.468786
0.0234903
0.206297
2.15354
-1.05215
-1.09855
0.114846
0.823025
-1.14968
-0.354458
0.719635
1.09787
0.145911
0.628121
-0.374729
-1.10719
0.170757
0.916404
-1.30197
-0.233821
-0.21734
1.52102
0.429211
0.0606254
-0.273938
-0.288148
1.37872
0.411193
-0.0820461
-0.0611344
-0.162274
1.77873
0.904951
-0.190016
-0.80809
-1.13875
1.56563
0.549847
-1.52852
0.235508
-0.696436
1.28256
0.117679
-0.328898
-1.23577
-0.339203
1.37619
0.501955
-1.43518
0.146528
0.0902998
0.622504
0.925664
0.00381429
-0.926893
-0.355647
0.746554
0.364081
-1.04737
-0.182668
0.136201
-0.210999
-0.27622
0.268656
0.0437287
-0.138362
-0.0877004
-0.197943
0.429615
0.166941
-0.0141668
0.145422
-0.201596
-0.443321
-0.442273
0.511765
-0.47966
0.0966116
-0.0332037
0.392903
0.398314
-0.117774
-0.164265
-0.125824
0.113081
0.0327747
-0.369245
-0.783002
1.03205
-0.142788
-0.354656
-1.58331
-0.70569
-0.308992
1.15045
0.662791
-0.666427
-1.43378
2.09154
-0.210639
-0.262093
-0.540507
0.0893622
0.186002
0.568684
0.413994
0.115014
-1.02802
0.852391
-0.0842298
-0.0154035
0.144502
0.18511
-0.431334
0.486911
0.254135
-0.209135
-0.331788
-0.0120735
-0.0309348
-0.0390358
0.477044
0.445671
0.066762
-0.842143
-0.0777292
0.278395
-0.102698
-0.472721
-0.000220966
0.0862906
1.72754
0.616334
1.11182
-1.69073
-1.2183
1.19576
1.0517
-1.90199
-0.303594
-0.167992
0.666715
0.368001
-0.478573
-0.67494
0.262667
-0.455585
-0.128763
-0.1529
-0.219542
0.729318
-1.36412
-0.801126
-1.04248
0.770635
0.160431
-0.7337
-0.664443
2.11255
-0.473947
0.362106
-0.375336
0.10641
-1.46358
1.27353
1.11907
0.113303
-0.672017
1.92876
0.620516
-0.59003
0.287482
0.109051
0.0633655
-0.162396
-0.149375
0.791342
-0.158154
-0.655402
-0.153313
-0.66355
-0.706217
-0.139106
0.819996
0.850938
0.747465
-0.0268326
-0.511194
1.9565
0.143002
-0.558963
-0.778083
-0.267844
0.175863
0.784103
0.750858
-0.496303
-0.239685
1.19635
0.125037
0.082453
0.0992679
-0.369086
-0.294835
-0.13537
-0.311928
0.123678
-0.324941
0.545094
-0.380287
-0.155797
-0.284821
0.0961272
-0.418351
-0.421031
-0.263436
-0.450913
-0.0720955
-0.251513
0.44874
0.208949
-0.0786655
-0.519533
-0.024901
0.635146
0.00376883
-0.056199
0.27704
0.310525
0.17858
0.235703
-0.239559
0.247653
0.355494
-0.287408
0.317068
-0.179577
-0.493604
-0.0575315
0.551113
-0.271974
-0.204713
-0.0519137
-0.769028
-0.249339
0.24761
0.609734
-0.328854
0.359244
0.642816
0.0369255
-0.184379
-0.509827
-0.152342
1.10425
0.630924
-0.511356
-0.514277
0.735559
0.464788
-0.195464
-0.0690547
-0.287364
-0.00813763
0.132684
0.256271
0.330435
-0.669304
-0.0480735
0.254321
-0.589855
2.66051
0.954819
-0.58981
-1.42136
-0.674138
1.24779
0.818423
-2.81064
0.0580148
-0.879995
-0.199462
-0.759593
-0.492983
-0.0461747
0.65608
-1.05338
-0.198324
0.163374
0.161444
-0.0749044
0.282503
-0.266044
-0.287382
-0.41534
-0.288661
0.516921
0.581546
-0.845693
0.156564
0.372799
-0.0335385
-0.511382
-0.803748
1.20151
1.04692
-0.507666
-0.169417
0.345544
-0.331214
0.188659
-1.4642
-0.553513
0.142372
1.70858
0.662835
-1.07167
-1.31575
2.87973
0.171257
0.651508
-0.526513
-0.630953
0.879656
1.14123
0.755788
-0.0718488
-0.858503
1.32906
-0.179975
-0.171901
-0.20444
-0.196595
0.179645
0.353989
0.0528287
0.211678
-0.811095
0.801798
-0.2895
0.176366
0.162501
-0.263684
0.372759
0.206498
-0.320713
-0.10396
0.0560192
0.00651782
-0.0269289
-0.321458
0.0317475
0.0642483
0.289913
0.381552
0.167331
-0.321454
0.00342804
-0.0333805
0.151237
0.014627
0.277196
-0.226115
-0.462354
-0.234473
-0.224182
0.299811
0.317214
0.404139
-0.233202
-0.41316
0.690873
0.488893
-0.64106
-0.567965
0.100874
0.515336
0.391533
-1.10222
0.537719
-0.139715
1.20419
0.389777
0.0616393
-0.988202
-0.341407
0.775254
0.500919
-1.70333
0.319968
-0.053432
-0.00328849
-0.109087
0.284669
0.133224
-0.684626
-0.0584786
0.339693
-0.0679364
0.0208111
-0.294698
0.535694
0.550503
-0.0432574
0.121831
-0.645676
0.69379
-0.0945771
-0.569722
-0.180783
-0.771778
0.665373
-0.180222
-0.216024
-1.07166
-0.887784
-0.221324
0.790995
-1.59315
-0.565207
0.210651
-0.53867
-0.67797
0.260823
-0.441734
-0.14964
-0.100486
0.130883
-0.764406
-0.213299
0.542254
-0.108782
0.161953
0.190926
-0.349279
-0.103267
0.502666
1.00227
-0.911189
-0.871367
0.420969
-0.694816
-1.14195
-1.65713
1.34711
1.58082
-1.07874
-1.0092
1.21345
-0.302936
0.468122
-0.843842
-0.381535
0.241774
1.18696
0.66742
-0.747034
-0.207152
1.23546
-0.257043
0.562299
0.108828
-0.580069
0.0220122
0.442011
-0.179925
0.246053
-0.157944
0.214176
-0.22336
-0.358917
0.668157
-0.0819265
0.0671458
-0.19638
-0.134861
0.778076
-0.0313625
-0.315256
0.513335
-0.379681
-0.277097
-0.0727717
0.116366
0.0919539
0.379016
0.41404
0.0241178
0.416368
0.486685
0.267221
-0.127209
-0.466506
-0.341624
-0.274595
0.403794
-0.213713
-0.05374
-0.107207
-0.477444
-0.132502
-0.364856
-0.385655
-0.532811
0.00408413
-0.175935
-0.0932301
-0.0371099
0.395507
0.3619
0.453852
1.49664
0.435273
-0.661392
-1.70453
-0.62831
1.34377
0.619722
-2.24775
-0.315652
-0.296245
1.61494
0.488542
-0.777852
-1.31437
-0.591031
0.827146
0.936033
-1.86537
-0.0604765
-0.314774
1.08833
0.445413
0.502682
-0.700909
-1.21001
0.835954
0.727595
-1.20904
-0.0342129
-1.10729
0.822249
0.735532
-0.0855473
-0.783918
-1.00204
0.977665
0.142505
-0.732206
-0.111422
-0.818117
0.0469572
-0.000792987
0.51422
-1.11297
-0.642972
-0.0686061
1.08308
-1.44816
-0.203835
0.284519
-1.27317
-0.130896
0.0592353
0.312649
0.326145
-0.840347
0.102757
0.987022
0.0259766
0.0221039
-0.245432
-0.0669466
-0.361699
0.992357
0.837476
-1.34795
-0.7935
1.4942
-0.353666
0.436463
0.141036
-0.667481
-1.43978
1.22801
0.800643
-0.443131
-0.978727
1.25179
0.162382
0.346718
-0.131366
-0.468008
0.0067101
0.429931
0.600279
0.155418
-0.666212
0.251362
0.281229
0.0370946
0.0918524
0.591983
0.0643993
0.211561
0.274757
-0.0590858
-0.410303
-0.498337
-0.0307017
0.000914246
0.761232
-0.103583
-0.0860166
0.0409733
-0.0414001
0.28195
0.32869
-0.626024
-0.310199
0.168483
-0.32104
-0.11805
-0.383205
-0.436441
-0.398043
0.363457
0.237931
0.246004
0.0365387
-0.283603
-0.0608053
-0.0741179
0.143403
0.293078
-0.0670342
-0.471627
0.417537
0.187216
-0.114866
-0.000707984
-0.227103
-0.535772
0.211664
-0.266732
0.028781
0.0155012
-0.345039
-0.388648
-0.0348769
0.44633
0.766486
0.0820103
-0.585694
-0.657114
-0.0930064
0.825349
0.525303
-0.149781
0.218114
-0.508685
1.06313
0.0227252
0.180573
-1.2006
-0.275106
1.05342
0.129119
-1.59361
0.120277
-0.452855
0.38136
0.989266
-0.00980429
-1.04432
-0.761777
1.05297
-0.132563
-0.811952
0.239857
-0.136483
-0.591801
0.167272
1.86069
0.338424
-0.041113
0.245887
-0.155968
0.528583
-0.0779145
-0.517199
-1.74159
-0.990897
1.37611
0.775755
0.44931
-1.41681
-0.573539
2.00578
-0.432238
0.867254
-1.50642
-0.775901
0.40788
0.663252
-0.0410035
-1.29185
-0.458351
0.917132
-0.712809
1.21398
-1.13862
-0.551025
-0.201592
1.59071
0.40306
-1.43951
-0.761377
2.8636
0.484602
0.845636
0.273706
0.00200725
-0.845928
0.636634
0.805732
-0.73214
-0.0290531
1.31658
0.500727
0.557536
0.127081
-0.51592
0.179609
0.372549
0.596557
0.0158571
-0.83071
0.239308
-0.0117499
-0.16686
0.629808
0.287232
0.0803734
-0.609984
-0.546931
0.139333
0.254595
-0.275676
0.197971
-0.265141
-0.719841
-0.0782844
0.270482
-0.110483
0.714566
0.23779
-0.271526
0.433334
-0.0086732
0.412566
-0.283851
-0.316246
0.380786
0.153093
-0.381678
0.348074
0.0117847
-0.249197
0.0955718
-0.391647
-0.497404
-0.207263
0.429727
0.00156016
-0.186073
-0.226821
0.202205
-0.447097
-0.027245
-0.00633051
-0.507538
0.304932
-0.023903
-0.310692
0.208216
-0.41786
0.144262
-0.158431
0.220842
-0.220821
0.0181598
0.138935
-0.319394
0.288564
0.270664
-0.181629
0.163272
0.0764222
0.36709
0.402789
1.28135
0.213933
0.715776
-0.692512
-0.606259
0.212433
0.650201
-1.49904
-0.452507
0.458972
0.478411
0.125517
0.624589
-0.818538
-0.308007
-0.0633038
-0.25295
-0.382277
0.398706
0.0177867
-0.705782
-0.0484684
1.83798
-0.213776
-0.216484
-0.562285
-0.249837
0.685332
0.0953783
0.325323
-0.879316
-0.152185
1.13395
-0.0249568
0.194798
-0.20024
0.115029
0.920972
-0.000124322
-0.00788532
-0.716871
-0.0086815
0.435132
-0.247402
-0.0899601
-0.0300494
0.777899
0.21431
0.0712871
0.236364
0.274171
0.0187444
0.580956
-0.338748
-0.273257
0.0540402
0.572434
-0.331239
0.20707
-0.264816
0.846693
0.309408
0.387916
-0.579406
-0.804562
0.547112
1.11908
-1.51878
0.145819
0.197208
-0.301758
-0.0638175
-0.461318
0.600724
0.165101
-0.00427204
-0.404801
-0.16775
-0.166039
0.3012
-0.0595228
0.413247
-0.223134
0.67696
0.36938
-0.267169
-0.62009
0.541232
0.206576
-0.17827
-0.544564
0.134434
0.134524
0.312981
-0.342303
-0.460416
0.266217
-0.337327
0.130531
0.43635
-0.27334
0.343327
-0.0930561
0.336664
-0.346386
-0.483307
0.126472
-0.183778
-0.0115318
-0.170058
-0.0733328
0.44894
0.227496
-0.310884
0.264829
-0.159418
0.298876
-0.140312
-0.173557
-0.0218817
-0.463071
0.0429225
-0.333753
0.221734
0.27291
0.217099
0.388478
0.146264
0.0849642
0.214428
-0.640223
0.276551
-0.27394
0.14248
0.60296
-0.478017
-0.607917
0.506713
0.362808
0.444035
0.151421
0.20804
0.384512
-0.310088
-0.219667
-0.0820246
-0.471465
0.261889
-0.0437418
0.536213
0.984075
0.0319247
0.38334
-0.127937
-0.789403
0.226448
0.0999967
-1.40684
-0.27347
0.0185084
0.959477
-0.372891
0.267343
-1.01471
-0.847546
0.66907
0.955598
-0.547322
-0.0651428
0.628309
0.0424394
0.465908
-0.341523
-0.036528
-0.00733738
0.47552
0.0824374
-0.900501
-0.0247256
-0.404014
0.761885
0.141849
-0.300111
-1.12442
-0.806691
0.114194
0.23414
-1.66158
-0.194554
0.241251
-0.394074
0.170677
-0.788083
0.649284
0.59683
0.190891
-0.586431
0.876825
-0.22478
-0.277405
-0.0999219
0.0354315
-0.661317
0.290261
0.556472
0.569125
-0.53132
0.11846
-0.196882
-0.552317
-1.02559
-0.697476
-0.492793
1.35698
1.00992
-0.746023
-0.465796
1.07842
0.133145
-0.40583
-0.429063
0.0586334
-0.684464
0.78581
0.641634
-0.805668
-0.687042
0.392163
-0.363746
0.532706
0.199446
-0.281762
-0.132622
-0.392641
-0.240264
-0.515534
-0.506124
-0.0984217
0.00893912
0.0551099
0.00610862
0.402871
-0.308813
-0.298755
0.163253
-0.0213507
-0.195603
0.0547809
-0.357724
-0.130353
0.24666
-0.0276429
-0.292273
-0.354405
0.30712
-0.167514
-0.00416123
0.325035
0.15664
0.0126453
-0.315984
-0.269898
-0.180212
-0.446821
0.463891
-0.370271
0.152937
0.114226
0.416413
-0.0665719
-0.0563423
0.356515
-0.466853
-0.281917
-0.167143
-0.1815
-0.0996973
-0.310914
-0.295104
0.287744
0.271008
0.0307467
-0.536521
0.388354
-0.104583
-0.579768
-0.11064
0.547084
0.448027
-0.190533
0.215857
-0.214048
-0.250073
0.45997
-0.271766
-0.373576
0.0257355
0.14184
-0.331626
0.330429
-0.911864
-0.101016
0.340055
0.749312
0.479505
0.0807124
-0.35791
0.313594
-0.196034
-0.0961829
-0.0987461
-0.350061
0.149129
-0.262636
0.415071
0.0589898
0.29336
0.171699
-0.407435
0.222058
-0.742217
-0.23638
-0.13107
0.277671
0.0620335
-0.600345
0.140641
0.750658
-0.0971786
0.485291
0.0356394
-0.291801
0.0558409
0.224362
0.684145
0.215857
-0.158079
0.291669
-0.186678
-0.411406
-0.0708529
-0.443979
-0.137141
0.186443
-0.127904
-0.0315663
-0.342483
0.562737
0.109305
0.315715
-0.571597
0.0761799
-0.368317
0.127494
0.11055
-0.231324
-0.588564
0.799929
0.445128
0.0310229
0.193838
0.301848
-0.310116
-0.0287128
0.53012
-0.413841
0.086247
0.195484
0.197276
0.0818912
0.297787
-0.502237
-0.159506
-0.263146
-0.0428154
-0.413502
0.0351167
0.365441
-0.352749
0.515887
0.444589
-0.0350178
-0.435357
-0.424827
0.195752
-0.138213
0.0656022
-0.325504
0.303228
0.352122
