-0.721277
-0.135638
-0.176991
0.0833172
4.54965
4.81546
-0.138542
0.0278862
0.906131
1.33327
1.85387
-2.0565
-1.71089
-0.230283
0.432931
-0.389194
1.54852
0.0362326
3.27919
-0.376632
-0.281579
-2.6497
-0.845098
-0.968633
1.28315
-0.750169
-0.949429
0.269867
-1.34653
-0.339009
-0.0496564
-0.624881
0.751758
-1.13614
-0.738352
0.510802
0.459028
-1.08991
0.000680408
1.17233
0.197094
-0.591715
-0.353238
0.0445098
1.94071
2.11355
-0.473408
-1.01751
0.43513
1.12399
0.880649
-0.768152
-0.710205
0.128216
-0.415343
0.128264
0.777985
-0.709932
0.709931
-1.09186
-0.0939902
-1.09628
0.493486
-0.0281551
0.621024
0.04263
-0.667466
0.215182
-0.594066
-0.570552
0.803756
-0.909759
0.342697
0.136406
0.143547
-0.278069
-0.311686
-0.237827
0.129432
0.391059
-0.375904
-0.482283
-0.878646
-0.0262717
1.12369
0.952036
-1.01333
-1.17416
-1.82882
-0.919848
-0.297794
1.13637
0.192346
-0.872175
-0.747733
0.469857
-2.07529
-0.769037
-0.227948
-1.67275
-1.17581
-0.473712
-0.318994
-0.00164076
-1.89048
-0.46754
-1.14505
0.0521041
0.320176
-0.433301
-0.581422
-1.68827
-1.69064
-0.807892
0.555319
-0.110962
-0.882882
0.264874
-1.535
-1.16826
-0.061902
0.685376
0.0584595
-0.498562
-4.91737
-4.96018
0.156955
0.0700029
0.898965
-0.315867
-1.77466
1.7569
1.11297
-0.15457
0.450916
0.00945842
-1.28545
0.244068
-2.4167
1.95844
0.337357
1.92775
0.0542154
0.122448
-0.365312
-0.583516
0.837175
-1.3405
0.147844
0.567008
-1.02288
2.13421
0.87702
0.958226
-0.385883
0.497613
-0.0144917
-0.231791
0.761681
-0.625058
-0.280962
0.736685
0.253781
-0.0365874
-2.4381
-3.03465
0.615514
0.691839
0.521895
-0.487115
-1.08532
0.188551
0.409658
-0.230357
0.448551
-0.692364
-0.52176
0.317587
-1.68985
1.07546
0.370043
1.17595
0.595446
-0.246128
0.544634
-0.183108
0.578503
-0.743226
0.913409
0.813247
0.450721
1.24654
0.631656
0.739198
-0.0244823
0.60423
-0.0489606
-0.386753
0.565389
0.192092
0.297548
-0.813562
-0.667307
-0.342335
2.85549
3.3623
-0.428616
-0.329729
1.16075
1.65159
1.41353
-1.25207
-1.62843
0.929447
0.0479275
-0.390444
1.3058
-0.750365
2.46112
-0.943456
-0.691332
-1.32157
0.0444985
-0.725348
0.025716
-0.0413258
-1.11833
-0.106666
-1.17366
-0.397337
0.683097
-1.26759
0.0788205
-0.649001
-0.352466
0.144058
-0.51708
-0.420434
-0.337674
0.866658
-0.546614
0.184022
-0.0966043
-0.25504
3.21203
3.66398
0.234257
-0.0230158
-0.928229
-0.317775
1.78949
-0.779021
-0.736664
0.153937
-0.423155
0.400046
0.914126
-0.192884
2.11866
-1.95589
0.205029
-1.56486
-0.904586
0.14817
0.318173
-0.49242
-0.836648
1.68985
-0.669107
0.104437
-0.398322
-0.44635
-0.296493
-1.03162
-0.712092
-0.528821
0.0414608
0.526007
-0.228431
-0.136185
0.781987
0.670681
-0.330955
-0.665019
-6.40232
-6.82205
0.497251
0.855177
0.659684
-1.21642
-2.0384
3.29586
2.23886
-0.132288
0.0153308
-0.880253
-2.25576
0.475986
-3.92942
2.79336
0.522137
2.77045
1.40841
0.446353
-1.40149
-0.170414
1.11105
-2.06886
1.0697
0.4473
-0.60976
1.91503
-0.292117
0.65237
0.309479
-0.585285
-0.792047
0.331563
0.29082
-1.03405
0.398945
-0.5918
0.434023
-0.205341
-0.916255
-0.714494
0.0607993
-0.439597
-0.299208
0.0952891
-0.167836
-0.130459
-0.747231
0.35031
-0.158721
-0.665221
-0.494098
-0.288488
0.0146451
0.814692
0.0629787
0.232827
-0.135917
-0.0238272
0.0517585
0.214466
0.563987
-1.16105
0.2532
-0.540481
0.504429
-0.228515
0.439196
-0.646668
0.0738814
-0.403537
-0.139605
0.238675
0.104772
0.690561
-0.793924
0.212215
-0.127729
-0.226031
0.324271
-0.521074
-0.419532
0.925131
-0.543718
-1.28643
-0.528154
0.767382
1.09312
-0.920959
-0.12448
0.227548
0.0740266
0.553113
-0.312827
-0.691157
0.542719
0.840111
-0.75497
-0.0593899
-0.391317
-0.010144
0.722865
0.203429
1.05684
-0.0478325
-0.182927
1.06445
-0.0269763
-0.1492
-0.203267
-0.698629
0.487038
0.398514
0.300501
-0.687238
