-0.00362852
0.140707
0.379156
0.125524
0.356541
-0.459849
0.186785
-0.260957
-0.444663
-0.62567
-0.45895
0.34463
-0.498503
-0.294869
0.17602
-0.312402
0.160455
-0.15991
0.192489
-0.0559242
-0.215032
0.0499963
0.304261
0.163523
-0.14525
0.335901
0.65425
-0.18303
-0.0737213
-0.530585
0.160076
-0.160108
-0.479339
0.00289302
-0.0940763
0.187259
0.594749
-0.415245
-0.414961
-0.0141273
-0.458606
-0.347751
0.188247
-0.431025
0.230229
-0.0816917
-0.0821472
-0.262011
-0.163018
-0.607587
-0.33307
-0.125048
0.168871
0.273215
0.288485
0.284982
0.131339
0.132795
0.233979
-0.634034
0.453545
0.0164794
-0.32152
-0.247652
-0.155541
0.24672
0.0825858
-0.626594
-0.392615
-0.574881
0.150948
0.487538
0.0989419
0.132107
-0.487608
0.215077
0.222137
-0.810617
0.159809
-0.428895
0.325989
-0.120316
-0.440068
-0.198295
0.245921
0.377103
0.263388
-0.181687
0.428002
-0.390879
-0.151843
0.581714
-0.148398
-0.503502
-0.132397
0.166788
0.547019
-0.213793
-0.153243
-0.262814
-0.19568
-0.125622
0.331713
-0.337167
-0.526272
0.0628843
0.244359
-0.444713
-0.192452
-0.306131
0.517779
0.131757
-0.542156
-0.389796
0.246141
-0.226611
0.260385
0.0703143
0.0153995
0.15572
0.285007
-0.304304
0.298194
-0.0986123
0.155852
0.107162
0.392111
-0.204848
0.224579
-0.169805
0.26963
0.103318
-0.0844034
-0.229219
-0.0972668
0.388586
0.344688
-0.201537
-0.445148
-0.258096
0.271275
0.490129
0.408271
-0.203846
0.0942512
0.28264
0.39467
-0.0012823
0.402793
0.122104
-0.453106
0.00409676
-0.548752
0.0801777
0.366793
0.418844
-0.135416
-0.0573937
0.24132
-0.620499
-0.0640465
-0.00038227
0.269189
-0.3455
-0.381688
0.403694
0.747313
-0.0150799
-0.408138
-0.486263
-0.335182
0.50042
-0.0453378
0.172638
-0.30717
-0.45078
0.670934
-0.064175
-0.403588
0.234179
-0.312581
0.315301
-0.351977
0.413008
-0.340338
0.477111
0.17359
-0.781468
0.174934
0.331139
-0.374257
0.048502
-0.302435
-0.467149
-0.532109
0.476212
-0.23096
-0.1144
0.389576
-0.493426
0.399246
-0.252049
-0.00705834
0.451772
-0.53865
0.102162
0.548679
0.0327787
0.0719042
-0.62034
-0.44978
0.198753
-0.119621
-0.117212
0.0136383
-0.14668
-0.192291
-0.482294
0.456497
-0.155314
-0.450699
0.612799
-0.114032
0.0427419
0.0956428
0.0718163
0.496489
-0.212915
-0.248972
-0.0554941
-0.418823
0.586798
0.20086
-0.119002
0.0292513
-0.441417
0.635824
-0.505843
0.33704
0.274974
0.34823
0.247568
0.30898
0.362097
0.0987161
0.469695
0.378358
-0.172513
0.220042
0.214542
0.266481
0.512566
0.0702721
0.171024
-0.213227
-0.0798039
-0.00595677
-0.125404
0.198317
-0.622375
-0.170446
0.141159
-0.275859
0.350271
0.317933
0.00126457
0.06015
-0.294457
-0.0627084
-0.431741
0.0486408
0.286973
-0.224599
0.0174763
-0.0723949
0.154507
0.347836
-0.184413
-0.00549918
-0.149048
-0.0458852
0.605493
-0.348854
-0.0353043
-0.222607
0.445062
0.452019
0.158396
-0.456044
-0.301618
-0.168839
0.585681
0.275103
0.0372306
-0.0351993
0.0441644
0.357198
-0.433123
0.308714
-0.406387
-0.0253473
-0.267328
0.0310944
-0.460318
-0.196271
0.353653
-0.186755
-0.207673
-0.00572028
-0.219114
-0.462099
-0.292491
0.318113
-0.0631567
-0.415647
-0.366309
0.697769
-0.796966
0.414254
0.243985
0.308075
0.460368
-0.50492
0.0142995
-0.0102373
0.0162523
-0.0658578
-0.133565
-0.191316
-0.253906
0.0330708
0.201674
-0.0727705
0.0157199
-0.451375
0.19655
0.204183
-0.774692
-0.141239
-0.304238
0.38768
0.269017
-0.00782238
-0.120177
-0.454542
0.516189
-0.249811
-0.592006
-0.37218
0.17176
-0.230134
0.125209
-0.551101
-0.109593
-0.694601
-0.043659
0.630769
-0.614053
0.454434
0.288648
0.205247
0.253536
-0.4191
-0.538737
-0.707888
0.498858
0.198305
-0.00307622
-0.36804
-0.442268
-0.341825
0.273872
0.277115
-0.53175
0.0416112
0.0923975
-0.010634
-0.667293
-0.380193
-0.195446
-0.100659
0.30642
-0.0209323
-0.156848
-0.597854
-0.291848
0.658478
-0.562644
-0.237772
-0.358265
-0.0656591
0.42689
-0.0529493
-0.474313
-0.642679
0.347788
-0.172246
0.19685
0.00932133
-0.601416
0.659587
-0.13583
0.253829
-0.373683
-0.239362
-0.00524914
0.272688
0.339829
0.175893
-0.242879
0.0587142
-0.471836
-0.14035
0.0871186
-0.132813
-0.0204868
0.582601
0.0939598
0.0225438
-0.287559
0.280267
-0.444206
0.0575939
0.193663
-0.0333575
-0.430153
0.251489
-0.275242
0.406634
-0.236994
0.103144
-0.00270424
0.326212
-0.365894
0.347742
0.203283
-0.057507
-0.798023
-0.0776592
0.120812
-0.290089
0.295475
-0.0152365
0.545399
-0.194314
0.392357
0.118747
-0.467178
-0.290376
-0.325374
0.435103
-0.00279341
-0.208902
0.24004
0.0969678
-0.388553
-0.0416814
0.19321
0.482584
-0.405243
0.0390997
0.494543
-0.219597
0.362186
0.220847
0.209202
0.767764
-0.660099
-0.0110067
-0.598823
-0.43069
0.446954
-0.12222
-0.308868
0.264837
-0.328532
0.690821
-0.00745343
-0.165312
-0.15416
0.483638
0.291677
-0.0567389
-0.0167111
0.0997157
0.173423
0.616411
-0.353584
-0.0295188
-0.14634
0.0344751
0.0675609
0.0988476
-0.566256
-0.241576
0.030334
0.427052
-0.383498
-0.408473
-0.372625
0.492289
0.399523
-0.470802
0.376086
-0.0834377
0.133718
0.710859
-0.179566
0.310843
0.154644
-0.433943
0.438451
-0.141081
-0.482178
-0.565031
-0.212763
0.611906
-0.547355
0.205434
-0.0623855
-0.247994
0.236215
-0.499571
0.426092
-0.403207
0.121158
0.551751
-0.102607
-0.0736801
0.166245
0.425777
0.43368
-0.484201
-0.368311
-0.214302
0.196794
0.0297135
-0.650941
-0.227959
-0.284521
0.0481508
-0.354336
-0.169311
0.0848296
-0.462027
-0.109747
0.320779
0.0327128
0.129169
-0.106778
0.366057
0.273967
0.117168
0.0782329
-0.0695823
-0.411464
0.342495
0.135195
0.377784
-0.359431
-0.391557
-0.26009
-0.260592
0.275964
-0.360333
-0.177233
0.65153
0.154378
-0.383111
0.113955
0.426509
0.518109
-0.369123
-0.209108
-0.167726
0.00602282
0.163225
-0.438735
0.241727
0.329075
0.105115
-0.0962723
0.167237
0.436714
-0.606319
-0.0192976
-0.0151983
-0.678105
-0.379535
-0.0130337
-0.313219
0.463873
0.149385
0.329611
-0.398523
0.400866
-0.086724
-0.801587
-0.0898542
0.219963
0.178571
0.169875
0.248333
0.158892
0.251454
-0.306616
-0.1518
0.0996249
0.432942
0.21717
-0.230046
0.298757
0.17387
-0.371406
-0.598978
0.385666
0.390676
0.0315461
0.410245
-0.482886
0.53277
0.367185
-0.235603
-0.449566
-0.380446
-0.280793
0.0858363
-0.592338
-0.0178607
-0.246621
0.408794
-0.50925
-0.12341
0.15238
-0.0240792
0.433997
0.224565
0.117232
0.356688
-0.482493
0.630574
-0.243523
0.27844
-0.851704
-0.239728
0.198847
-0.281245
-0.0554061
0.739659
-0.631363
0.424734
-0.226556
-0.0645156
-0.357454
-0.010072
0.417674
-0.186133
-0.0316923
0.375554
-0.0699154
1.04336
-0.15835
-0.532346
-0.904517
-0.164282
0.501254
0.227778
0.294463
0.652059
-0.025142
1.03273
-0.466613
-0.866344
-1.19537
-1.03929
-0.0645626
-0.500947
0.517624
1.02139
-0.18709
0.996856
-0.490296
-0.322719
-0.490374
-1.28983
-0.0575371
-0.076875
0.810372
0.390478
-0.47683
1.3483
-0.849523
-0.141198
-0.726539
-0.715715
-0.2476
-0.466058
0.684399
0.823561
-0.0996029
1.05265
-0.676637
0.0742764
-0.524829
-0.441809
-0.0996737
-0.00835619
-0.332583
0.725647
-0.509118
1.0006
-1.07084
0.3634
-0.663249
-0.133164
-0.126281
-0.625455
-0.38144
0.320962
-0.690035
1.13864
-0.347782
0.357259
-0.770455
-0.145092
-0.688789
-0.305869
-0.281142
0.690968
-0.138071
0.598199
-0.138576
-0.454212
0.0605213
0.257763
0.116733
-0.244036
-0.46395
0.0229611
0.0120187
0.840892
0.162902
-0.478633
-0.846775
-0.681446
-0.211038
-0.170102
-0.814292
0.330831
-1.21093
0.915085
-0.419594
-0.082613
-0.393211
-0.738535
0.431547
0.634904
-0.957362
0.745766
-1.24611
0.549004
-0.338659
0.271204
-0.815303
-0.429778
0.225767
0.565752
-0.567733
0.0942404
-1.09163
0.226765
0.405057
0.370239
-0.37746
-0.206728
-0.120888
0.300331
-0.316223
0.489259
-0.365429
-0.226596
-0.176996
-0.0924043
0.0764124
-0.277911
-0.253451
0.527145
-0.0198712
-0.0303743
-0.18788
0.235963
0.213402
0.0568913
-0.484065
-0.119449
0.302269
0.751319
-0.428091
-0.337281
-0.206095
0.463472
0.398639
0.102224
0.165845
-0.246829
-0.069816
0.227252
-0.528058
-0.376003
-0.488023
-0.317416
0.15687
-0.461694
0.0870496
0.205793
-0.317659
0.655052
0.158228
-0.311148
0.0240198
0.287547
0.0611498
-0.100421
0.124622
-0.59752
0.365817
0.0278278
0.0707966
-0.0780385
0.133631
-0.423238
0.0664304
0.397302
-0.370178
-0.497345
-0.306483
0.404362
-0.0473932
-0.318148
0.335653
-0.376286
0.555552
0.363906
0.236756
-0.193184
-0.280982
0.752213
-0.819261
-0.416473
-0.44929
0.459738
-0.197189
0.161028
-0.242215
0.22031
0.327833
0.219947
-0.703313
-0.0738734
-0.416032
0.520246
0.221707
-0.130846
0.229666
0.156992
0.313492
0.269803
0.142789
-0.196973
0.147188
0.0749807
-0.0657299
-0.556637
0.132926
-0.317557
-0.284912
-0.0520832
-0.667544
0.0165157
-0.249591
-0.396383
0.544224
0.291388
0.0393831
0.30739
-0.424955
0.184258
-0.725884
-0.268208
-0.542778
-0.335094
0.131073
-0.366547
0.116217
0.204683
-0.445733
0.69861
-0.756885
-0.0664923
0.0342184
-0.0767228
0.322059
-0.171892
0.0314791
-0.305405
-0.395728
-0.188796
-0.387582
0.0718137
-0.371339
0.71344
-0.409871
0.273289
-0.0352698
-0.405963
-0.145889
-0.0263938
0.0639174
0.467914
-0.0104404
1.16875
-1.13957
-0.135668
-0.439136
-0.87478
-0.113779
0.269728
-0.0750057
0.837194
-0.827597
1.54839
-0.522178
-0.889715
-0.353262
-0.655503
-0.261614
-0.497324
0.312143
0.224226
-0.332266
1.73543
-0.196216
-0.247724
-1.24216
-0.662595
-1.28172
-0.711993
1.40759
0.883845
0.181345
1.8148
-0.126546
-0.850059
-0.696388
-1.77019
-0.584657
-0.0259956
1.27668
0.375769
0.520476
1.65348
-0.609796
-0.287331
-1.33562
-2.4084
-0.735608
-0.239044
2.08714
0.475505
0.990709
1.79077
-0.840555
-0.514215
-1.36715
-1.80202
-0.358053
-0.667792
1.70394
0.894835
0.915824
1.54313
-0.291512
-0.0164807
-1.22236
-1.83392
-0.276148
0.068711
1.10357
0.142805
0.480385
1.72944
-0.773979
1.13413
-1.22632
-0.733065
0.0505706
-0.365635
0.416948
0.781706
0.302557
1.79315
0.596647
0.452055
-1.56954
-0.449811
-0.337358
-0.423427
0.0426404
-0.19982
-0.00022122
0.454791
0.157628
0.719841
-0.579025
-0.760794
-0.273407
0.319143
-0.576087
0.451705
-0.124488
0.650232
0.36347
0.0914991
-0.348733
-0.041028
-0.130135
0.80067
-0.347484
0.604558
-0.962997
1.01243
-0.0374175
-0.191751
-0.717949
-0.0197976
-0.155627
0.637969
-1.05
0.299638
-1.28434
0.81234
0.29505
0.262332
-0.587607
0.391051
0.247965
0.261274
-0.94334
0.762557
-1.39573
1.3023
-0.156896
-0.021225
-0.511506
0.0100389
-0.703478
1.06604
-0.681544
0.306097
-1.29873
0.653634
-0.281966
0.561092
-0.362424
0.145849
0.359043
0.901826
-0.815394
-0.237172
-0.789345
1.0418
0.466799
-0.541762
-0.522775
0.860505
0.24988
0.431906
-0.389317
-0.195236
-0.289479
-0.0111771
0.12468
0.0838133
0.23681
0.164402
0.0528267
0.327176
0.170535
0.0186961
0.180038
-0.0289531
0.354674
-0.0195318
0.44032
-0.143293
0.307454
0.149451
-0.771347
0.0722133
-0.0926067
-0.205756
0.128215
-0.555754
-0.367591
-0.514079
-0.379182
0.205904
-0.320602
0.0256596
-0.0966532
0.121055
0.34204
-0.0773017
0.279121
0.149488
0.510621
0.221835
0.114665
-0.0776256
0.0666584
0.184701
0.125008
-0.340493
0.410032
-0.185704
-0.447866
0.27431
-0.0513742
-0.0622676
-0.473351
-0.257803
0.537366
-0.418962
0.0422721
-0.191979
-0.410903
0.194226
-0.187379
-0.0910466
-0.63701
-0.274094
-0.0651381
-0.241445
0.439497
-0.246331
-0.0730992
0.672473
-0.798202
-0.252005
-0.565386
-0.294127
-0.14097
-0.364711
-0.464926
0.12482
0.450052
0.678928
-0.723981
-0.418392
-0.400219
-0.381056
0.576985
-0.453103
0.0057769
-0.523554
-0.374177
0.109454
-0.758672
0.206707
0.0699273
-0.0181957
0.510215
-0.0696347
-0.0467152
-0.150634
-0.118588
0.0589884
-0.00855109
0.499792
-0.239683
0.160171
0.17537
0.15717
-0.155082
-0.45483
-0.663288
-0.0197038
0.535261
-0.0906386
0.855577
0.428499
0.302716
1.06087
-0.0723796
-0.348142
-0.473804
-0.735229
0.147288
0.185155
1.23728
0.950868
1.32885
0.652029
-0.205405
-0.0602761
-1.00962
-0.814751
1.31092
0.495519
1.42079
1.4165
0.00795532
0.137862
0.374724
-1.22425
-1.10779
-0.75227
1.60043
0.0776644
1.58386
1.5663
0.0104846
0.944849
0.51582
0.00557096
-1.92538
-1.70069
0.700028
0.233506
1.5871
0.569093
0.427007
1.17008
0.253554
-0.53032
-1.14392
-0.830144
1.29695
0.0194391
1.36835
1.01069
0.341148
1.2572
0.260146
-0.528051
-0.875392
-1.7323
2.13442
-0.205987
0.801967
0.547492
-0.0240234
1.70985
-0.660466
0.0400007
-0.450868
-1.46823
1.88422
-0.420259
1.40844
1.0644
-0.142725
1.45549
0.365725
0.0309658
-0.858846
-1.57795
1.89358
-0.104439
0.653909
-0.128173
-1.25148
1.60959
0.00358103
0.150506
0.772357
-1.16276
1.23833
0.427422
1.1518
0.23094
0.622214
0.470112
0.432482
-0.306849
-0.247774
-0.459171
0.844073
-0.0391566
1.05965
0.0589011
-0.116885
0.471621
0.00584085
0.123375
0.776034
0.830888
0.375802
0.807207
-0.617619
-0.154402
0.112129
1.16168
0.277154
0.069557
-0.620357
0.191257
0.796062
0.0832309
0.842982
0.137196
0.186063
0.388171
-0.494851
0.290785
0.311773
0.692156
-0.533997
-0.115727
-1.27776
0.820083
-0.768134
0.391718
-0.699387
0.224353
0.0320853
0.706897
-0.346144
-0.334085
-1.13585
0.53631
-0.431762
-0.0634261
-0.134237
0.062795
0.279044
1.18652
-1.50846
0.538667
-0.70965
0.481928
-0.714264
0.433449
-0.208249
0.428686
0.509358
1.28949
-1.52671
-0.529057
-1.47368
0.0440196
-0.860734
0.0048413
0.187413
0.418205
0.254834
0.858444
-1.97531
0.453052
-1.44864
-0.538638
0.583311
-0.172175
-0.162139
-0.385722
0.433838
0.69088
-0.522741
0.4436
-0.825362
-0.319677
-0.324717
-0.558627
-0.251897
-0.851093
-0.0966495
0.163388
-0.0308322
-0.261146
0.0937652
0.143011
-0.00782981
-0.159062
-0.254175
-0.0853684
-0.102723
0.536061
-0.292766
-0.344394
0.166138
0.418482
0.021378
-0.180782
0.237493
-0.264779
-0.47867
0.0201471
-0.350437
-0.300999
-0.215072
0.321513
0.218992
-0.133294
-0.119899
-0.028526
-0.0498286
0.495948
0.0488017
-0.493523
0.0961764
0.493257
0.0297819
0.317569
0.0394489
0.239778
-0.0134099
-0.16565
-0.453817
-0.20318
-0.639318
-0.152125
0.0723204
-0.0914959
-0.201027
-0.417244
-0.336442
0.121666
0.0412973
-0.513469
0.185833
-0.0650274
0.690055
0.0879139
0.45405
-0.393785
0.381261
0.157914
-0.531581
0.0434772
-0.321393
-0.0336445
0.693124
0.171448
0.123879
0.28412
-0.367026
0.138593
-0.248189
-0.126563
0.287245
-0.261766
0.64328
0.950528
0.350902
0.226768
-0.741373
0.220297
-0.461375
-0.0706521
1.21363
0.690099
1.80299
1.50466
0.660987
0.157177
-1.46299
-0.755243
0.237981
-0.0790659
1.22807
1.26647
1.25128
0.379389
-0.282283
-0.274378
-1.83168
-0.451737
0.78486
-0.568507
0.569503
1.03952
0.966854
-0.319898
0.316696
-0.34178
-1.16105
0.0163943
1.85955
-0.798371
0.271617
0.823153
1.1211
-0.0571811
0.464166
0.49122
-1.29296
0.0544505
1.32484
-1.17612
0.142068
0.466579
0.794853
-0.254412
0.243716
-0.967321
0.205044
-0.0729754
1.03967
0.531276
-0.00776283
-0.497735
0.204751
-0.00235374
2.02537
0.247798
0.312187
-0.611265
1.41428
0.590471
0.664954
0.570683
0.552739
0.69846
-0.0782313
0.153404
-0.242534
-0.454175
0.7509
0.911037
-0.434152
-0.198557
0.0486222
0.214103
0.423479
-0.209601
-0.131873
-0.783204
1.72519
1.09338
0.877287
-0.0501111
0.421703
0.911666
-0.485145
-0.127137
0.931395
-1.30646
0.561718
1.55585
0.930039
0.980381
0.311535
0.971993
-0.519606
0.365432
0.328655
-1.88594
0.79311
1.41259
1.15328
-0.220925
0.174333
0.776479
0.000108744
-0.617043
-0.149014
-0.922289
1.59032
1.78278
-0.867606
-0.130924
0.483957
-0.724324
-0.934228
-0.0503595
0.793844
-0.789179
2.18889
2.80284
-1.48565
-0.15917
-0.25067
0.294889
-0.366773
0.253217
1.00297
-0.292164
0.135291
2.35279
0.0970643
0.664578
0.163451
0.680317
-0.250496
-0.120729
-0.280138
-1.03851
0.564751
1.06376
-0.911003
0.0167545
0.0434562
0.716229
-0.424087
-0.767241
0.725145
0.13271
-0.647755
1.35349
-0.639924
0.415164
-1.45448
0.759169
-0.388032
-0.188065
0.855677
0.323451
-1.2046
0.39731
-1.22115
0.301728
-0.0772664
0.383053
0.163755
0.306965
0.86337
0.0970928
-1.80417
-0.0870329
-0.953791
-0.101939
-0.458005
0.00656965
0.0923795
0.747989
0.512351
1.601
-2.59728
0.769525
-2.55811
-0.468293
0.546767
0.438747
0.459635
-0.100534
0.180126
1.24358
-1.42236
0.233239
-0.980088
-0.37035
0.561749
-0.424638
0.284643
-0.195502
-0.2992
0.740417
-0.47464
0.417622
-0.597506
-0.184506
0.5081
-0.286165
0.432376
-0.20851
-0.193732
0.730541
0.244837
-0.000506845
-0.380052
-0.42799
0.203593
0.0658997
-0.48262
-0.423843
-0.0114039
0.248737
-0.758739
-0.465645
0.0949515
-0.0236452
0.621366
-0.397773
-0.371562
-0.473284
0.416511
0.448014
0.0556198
-0.36384
-0.598244
-0.304571
0.170827
-0.085758
-0.484697
0.316286
-0.0752473
0.122924
-0.297091
-0.374997
0.276647
-0.176701
0.102216
0.079568
-0.478303
0.350642
-0.198889
0.0948806
-0.593363
-0.115116
-0.141192
0.194743
0.0359735
-0.266905
-0.326829
0.270966
0.0696433
0.371117
0.204208
0.0682444
-0.0781816
-0.180524
0.734445
0.57241
0.379513
-0.706289
-0.326032
-0.316695
0.11688
-1.13658
1.09507
0.571476
2.19009
0.749868
0.181051
-0.749137
-0.978158
-0.402911
0.405449
-1.02414
0.985913
0.966851
2.67127
0.922699
0.0716346
0.0553436
-1.03721
0.291453
0.45958
-1.21794
1.0509
1.0533
1.27775
0.111908
0.400654
-0.44365
-0.645259
-0.0815144
1.07952
-1.03824
-0.870678
0.100092
1.67829
0.109109
0.278001
0.140546
-0.792642
0.224038
1.40488
-2.15317
-0.50903
-0.566796
1.69515
0.0128173
1.3085
-0.210386
-1.61178
-0.000477362
1.469
-1.35738
0.295352
-1.10259
-0.148606
-0.211123
1.05681
-0.778565
-0.298771
-0.937387
1.62447
-0.0256393
0.929762
-1.4239
0.100262
-0.0278695
0.682912
-0.510545
-0.117305
-1.16544
0.468966
-0.333649
1.17732
-0.660793
-0.267305
-0.154482
0.886765
0.223256
-0.369057
-0.777335
1.01657
-0.33682
0.393055
-1.32088
-0.0649576
0.513844
0.675361
-0.267253
0.0983852
-0.939124
1.00732
1.12834
2.49786
-1.29178
-0.769029
-0.280984
1.30216
0.902641
0.366796
-0.682254
-0.0476272
1.88494
2.82608
-1.15355
-0.763332
-1.36837
0.536356
1.49785
-0.305649
0.413858
0.110008
1.29417
1.98827
-0.392238
-0.481194
0.800325
0.236712
1.20513
-1.31879
-1.58623
0.543338
0.29116
3.41816
-2.08533
-0.295707
0.0389114
0.117191
0.308174
0.412211
-0.166514
0.30542
0.289005
1.64704
-1.94638
-0.156669
-0.555603
0.602667
-0.194474
-0.217811
-1.74418
0.417866
1.04117
2.16515
-1.89505
-0.544398
-0.376151
-0.680159
0.244226
1.12227
-0.711975
0.520814
1.1011
0.475648
-0.782128
-0.311202
0.182197
0.156374
-0.856319
0.829386
-1.29238
1.34559
0.660207
-0.54198
-1.26833
0.0449627
0.214791
-0.205406
-0.106991
1.62114
-0.395985
0.31513
-0.50072
-0.491412
-1.26823
-0.0665178
0.0742945
-0.499009
-0.537951
1.76372
0.401964
-1.48906
0.291893
-2.0042
-0.929881
-0.473666
0.239158
0.102029
-0.516341
1.36161
1.43763
-1.79414
0.95224
-2.867
-1.3895
-0.264369
1.31346
0.653149
-1.79231
0.843455
1.61054
-1.02526
1.32134
-1.57677
-1.07151
0.431491
0.332391
1.17493
-1.82884
-0.375675
1.50096
-0.319292
1.14126
-0.602885
-0.0781007
0.115336
0.71067
0.483799
-0.539867
-0.581523
1.00918
-0.248584
-0.04641
-0.60639
0.102414
-0.297145
0.31704
0.5821
-0.211332
-0.615396
0.162449
-0.877463
0.156173
0.00228733
-0.384878
-0.0193493
-0.0619788
-0.123288
-0.381191
0.465991
0.330967
-0.658611
-0.0188067
-0.591157
0.454305
0.495203
0.33133
0.162688
-0.149291
-0.286331
0.0524093
-0.628403
-0.044341
0.208476
-0.189399
0.582335
0.146372
-0.141464
0.28021
0.202796
0.401291
-0.376083
-0.168122
-0.3779
-0.686598
1.12466
-0.032526
0.00973457
0.0586981
0.0245923
-0.123352
-0.64252
-1.1221
0.122053
0.120394
1.92195
0.797464
0.311895
-0.280112
-0.827564
-0.710064
0.355984
-1.03999
1.95799
0.326607
2.54452
1.08135
0.464547
-0.53468
-0.798099
-0.732603
0.941648
-1.58251
0.650814
0.625167
1.38434
1.12587
0.523803
-0.468358
-0.955663
-0.280793
2.19572
-1.81937
0.191003
-0.0453205
1.57797
-0.386964
0.279079
-0.705111
1.07446
-0.217469
1.37799
-2.37371
-1.24718
-0.804224
-0.367772
-0.252891
1.43635
-0.646365
-0.487511
-0.125594
1.80053
-1.56007
-1.07769
-1.92857
0.0618561
-1.1599
1.50221
0.0531771
-0.830511
0.26389
1.15891
-1.52461
-0.277645
-2.03399
0.467733
-0.199445
1.88336
-0.49341
-0.542198
-1.00192
0.464726
-1.99744
0.944194
-1.24737
-1.53291
-0.744865
1.29248
0.374132
-0.289658
-1.5225
-0.132059
-0.75787
0.792989
-1.88357
-1.23304
-0.32082
1.20932
0.160437
0.301786
-1.22913
0.407779
-0.693247
2.75141
-1.70263
0.121688
-0.0882293
1.14913
0.471421
0.129548
-0.49887
0.79485
-0.811544
3.07019
0.278329
-0.703662
-0.562613
0.876617
0.175371
-1.00284
-0.112658
-0.137085
1.53999
3.75187
-0.621291
-0.859525
-0.414027
0.735164
1.88096
-0.574665
0.765143
0.569066
0.500456
3.73652
-0.505863
-0.840733
-0.509254
1.00606
0.997228
-0.738005
-0.549605
0.434564
0.787951
3.84522
-1.46551
-0.232427
-0.603599
0.488676
1.13092
-0.0680101
-0.6623
-0.223511
-0.972024
2.3456
-3.46419
-0.218527
-1.14173
0.394931
1.08666
0.818357
-1.05181
0.198098
-0.60095
0.824728
-2.11178
0.312922
0.0085226
0.860027
-0.31405
0.511978
-1.38061
-0.218202
-0.755345
0.845962
-3.04514
-0.367532
0.824471
1.12422
-0.31612
1.1804
-0.859965
-0.418172
-0.929676
1.1956
-2.29778
-0.433219
-0.199887
0.818406
0.208263
0.250148
-0.878261
-0.656023
-0.345976
-0.200582
-1.2027
-0.522575
-0.685537
0.938096
-0.559713
1.00702
-0.189265
-0.816258
-0.103035
-1.56548
-1.84229
-1.01783
0.268544
-0.0850235
-1.18426
1.84223
1.23836
-1.57752
0.569059
-2.36682
-1.35165
-0.706942
0.407411
1.03654
-1.69025
0.542614
2.10128
-1.06475
1.9592
-2.46288
-1.34668
-0.283692
0.463913
0.416649
-2.08321
-0.350551
2.0221
-0.766669
1.31823
-0.677535
-0.314145
0.537034
-0.218663
-0.171476
-0.531266
0.11354
0.534938
-0.683339
0.605194
-0.523584
0.246699
0.140901
0.214645
0.167697
-0.411296
-0.354073
-0.105585
0.071798
0.0573133
-0.383331
-0.0519207
-0.156471
-0.484714
0.270242
0.161574
-0.0920383
0.503175
-0.520334
0.261225
-0.474989
0.300592
0.411022
-0.086272
0.36497
-0.448934
0.158713
0.772434
-0.21254
0.167724
0.241909
0.0181283
0.705258
-0.63551
0.315038
0.0958382
0.110535
-0.0402408
0.0424602
-0.0617497
-0.233501
0.248061
1.08609
0.592992
-0.101179
-0.495134
-0.261302
0.374138
-0.364041
-0.866318
0.789069
0.491868
1.85207
0.871355
-0.10468
-0.411025
-0.710916
-0.467975
0.800795
-2.02669
1.62358
0.568967
1.649
1.48139
0.220958
0.173091
-0.9938
-0.966212
0.601217
-1.38301
0.21251
0.0166713
0.562821
1.65859
0.568749
-0.678056
-0.172053
-0.835611
1.4863
-1.52719
0.242387
-1.43098
0.303869
0.916203
0.559283
0.264218
0.129978
-0.914861
1.63693
-3.39971
-0.463219
-2.2706
-0.437434
-0.500042
0.963341
0.397963
-0.463517
0.333496
1.06105
-2.57018
-0.703021
-1.35957
0.231113
-1.13057
2.2581
-0.0411283
-0.662755
-1.69432
1.47179
-1.60806
-0.559147
-0.731902
-0.698433
-1.2204
1.02702
-0.992038
0.264755
-1.72168
1.17323
-2.52478
0.0512864
-0.766285
-2.16493
-1.58538
1.7382
-0.853117
0.368806
-1.92426
0.271335
-1.44921
0.954297
-0.461851
-1.62662
-0.183553
2.22746
-1.15286
0.192002
-2.14701
1.06718
-1.13394
1.2171
0.299389
-1.8467
0.547573
1.6471
0.711729
-0.367765
-0.888656
0.0680722
-0.820435
2.37563
0.131738
-1.72888
0.625157
0.72402
0.317024
-1.10928
-0.184253
0.684433
-1.44757
4.861
0.545921
-0.814749
0.149565
-0.60987
0.776466
-1.36856
-0.0273976
0.798761
-0.956748
3.8925
-1.07448
-0.0565128
-0.617875
-0.192659
1.26753
-0.112695
-0.349737
0.697853
0.925566
3.1342
-1.77288
-0.76351
-1.22673
-1.03686
-0.00798182
0.80073
-1.41212
0.0941013
-1.00126
2.07287
-3.31476
1.26095
-0.505187
0.736167
0.181335
0.158713
-1.88973
-0.104411
-0.966796
1.97721
-2.40137
-0.0114936
-0.567047
2.37789
-0.55941
0.327005
-2.07411
0.35878
0.87698
-0.00928513
-2.75672
-0.0761802
-0.822348
1.5589
-1.08192
0.56327
-0.284869
0.0310559
-0.172416
0.197013
-1.64464
-1.32724
-0.878762
1.4716
0.564541
0.701892
-0.988817
0.517162
-0.996276
-0.520771
-1.64473
-0.639061
-0.389254
1.32133
-1.09615
1.57326
-1.23807
0.350091
-0.740571
-0.0804089
-1.67442
-2.14152
-0.307888
-0.257091
-0.958508
2.52202
1.52056
-0.145248
-0.389734
-1.99192
-2.45014
-1.28566
0.539129
0.84955
-1.7052
1.51771
3.02292
-0.80394
1.86589
-1.93017
-0.805797
-1.06665
0.838028
0.403722
-1.82337
-0.189949
1.73867
-0.423646
2.00308
-0.929488
-0.859469
-0.399938
0.108163
0.661845
-0.441124
-0.82412
0.866331
-0.871244
0.49927
-0.198046
0.405895
-0.151904
0.39265
0.520146
-0.47075
0.358399
0.706112
-0.442556
-0.448939
-0.390232
0.103884
0.556096
0.0297961
-0.00132743
-0.51442
-0.0765572
-0.0602581
-0.209713
-0.384886
-0.325851
-0.163365
0.177841
-0.147502
-0.0559771
-0.388296
-0.0207223
0.7543
-0.437598
-0.533544
-0.272344
-0.433037
0.519822
-0.226322
-0.473541
0.0284461
0.424218
0.42221
-0.582364
-1.01147
-0.221352
0.132536
0.864239
0.201558
-0.183351
-0.0835832
0.582219
-0.0440149
0.159771
-1.57487
0.729613
0.535199
1.51885
0.903361
0.187067
-0.354395
-0.21073
-1.03876
0.950674
-1.5533
1.36275
0.849368
0.711561
0.383607
-0.178862
0.59947
0.141901
-1.29985
1.52554
-1.48369
-0.0132485
-1.34118
-0.279094
0.711375
1.48387
-0.0333456
-1.04243
-0.790088
1.52064
-1.18531
0.684156
-1.16174
0.0523608
0.417031
0.459483
0.0359581
-1.04126
-1.54486
1.89224
-2.10086
-0.00942942
-1.81089
-0.344712
-0.775312
0.542283
-0.656527
-0.155181
-1.36616
1.55465
-2.18545
-1.43402
-2.12305
-1.37281
-1.58242
1.703
0.0120314
-0.0942811
-1.4966
0.356858
-2.18475
-0.594569
-1.56946
-1.83484
-2.06711
2.3765
0.292752
0.880216
-1.39782
0.102329
-2.22822
-0.582647
-0.835379
-2.72958
-1.22889
2.50479
0.163998
1.91314
-1.85245
-1.34917
-2.24423
-1.37548
0.925011
-2.12161
-1.19917
1.63535
0.42614
0.805556
-0.476506
-0.76609
-2.47707
0.115721
0.779146
-1.93954
0.0491766
1.67479
0.585185
-0.310517
1.16607
-0.165457
-1.93531
2.49176
1.24214
-1.34963
1.14371
-0.239272
0.344711
-3.29915
1.11775
1.60192
-3.09681
4.26913
0.922788
0.353914
1.06128
-0.395419
0.620866
-3.45788
-0.824451
0.545668
-1.96957
4.79091
-1.2451
1.0268
-0.51023
-0.547205
0.881722
-0.504895
-1.19253
-0.0837045
-0.590844
1.50498
-2.32826
1.05377
-0.692458
1.01597
1.5522
1.16754
-2.81167
1.50632
-1.5959
0.578084
-3.34354
1.41221
-0.380495
1.38496
0.439149
1.2187
-1.75798
0.308094
0.1323
0.294214
-2.64269
0.498097
-1.37466
1.37165
1.11573
1.58528
-1.59777
0.986765
-0.291696
0.0596348
-1.93848
1.4537
-0.346924
1.54123
-0.128974
0.693004
-1.59052
1.94085
-0.513003
-0.0655792
-2.13281
0.17348
0.434986
2.08641
-1.49425
1.11109
-0.504084
0.961744
-0.559001
-0.994961
-2.04057
-1.13577
-0.56408
1.5471
-0.112146
1.11126
0.234805
1.35275
-0.0604673
-0.0135537
-2.6687
-2.42619
-0.296373
0.231146
-2.04493
2.82012
1.69709
1.59661
1.06846
-0.960288
-3.39964
-1.97484
0.44983
0.380272
-4.90417
1.03775
3.68104
-0.644009
1.72706
-0.623171
-2.06496
-0.844525
0.213133
1.14094
-3.15263
0.052092
2.8825
-0.908045
1.71795
0.286332
-1.34863
-0.311957
0.135077
0.504364
-0.962942
-0.418556
0.126509
-0.901173
0.156705
-0.0726002
0.0377628
0.195223
-0.178193
-0.446502
0.0577332
-0.336254
0.393639
-0.436056
0.250857
-0.329127
0.481321
-0.264453
-0.0958783
0.0741094
0.135469
0.476738
0.145099
-0.216108
0.230404
-0.107188
0.397857
-0.190918
-0.284914
-0.194571
0.101332
0.212147
0.136933
0.188113
0.337318
-0.203472
-0.410466
0.748669
0.20688
-0.44998
-0.207757
0.522805
0.0445587
-0.21443
-0.621727
-0.275816
-0.557252
0.15791
0.0950435
0.217345
-0.512905
0.256891
-0.100315
0.560954
-1.83714
0.794097
-0.0263238
1.07881
0.203817
0.582229
-0.340901
0.976749
-0.230144
0.490133
-1.54155
0.564759
-0.353338
-0.161799
0.31198
0.577982
0.501483
0.709281
-0.120544
-0.132015
-1.98436
0.110921
-1.29863
-1.44637
0.0941544
1.15692
0.480623
0.789944
-1.70599
0.850615
-1.50474
-0.542104
-1.54746
-2.2959
0.0861116
0.457241
0.684999
1.27287
-0.605707
0.403952
-0.99533
-2.40191
-0.78267
-2.44584
-1.27007
0.893274
0.272711
0.171566
-1.12085
-0.991437
-0.941377
-2.64347
-0.794278
-3.83896
-2.6001
0.200244
0.503173
1.36236
-0.377044
-0.716928
-1.96196
-3.29234
0.0105688
-2.3648
-0.707183
1.45543
1.45965
0.67634
0.303861
-1.30044
-2.19703
-2.24441
-1.02778
-2.16542
-0.79843
1.89175
0.995975
2.37335
1.1414
-1.01567
-1.92894
-1.28532
-0.855536
-1.68821
-0.936337
1.26636
0.963955
2.71351
3.23967
-0.483533
-0.6866
-1.23562
-0.279493
-1.88112
1.25556
-0.859941
1.27229
0.651104
4.10701
-0.360186
-2.32671
0.724684
0.988353
-2.40169
2.22566
-2.19554
0.0505594
-2.07725
1.6158
0.00348728
-2.73347
2.25716
0.310899
0.467353
1.8563
-1.71984
-0.254464
-2.73582
-0.569566
-1.04891
-3.385
1.19175
-0.804981
1.29988
0.535203
-1.85817
0.670606
-2.43631
-1.80646
-0.713072
-2.67979
1.28702
-1.64512
1.9084
-0.324266
-0.502228
0.0658591
-0.521845
-1.75182
0.738715
-1.96863
0.824293
-3.11192
1.3368
-0.187009
-0.173387
1.37292
0.602725
-1.47912
0.939288
-0.992782
0.0484008
-1.99555
2.13583
0.201697
0.0543259
1.3073
0.512109
-1.55306
0.946652
-0.973812
0.0353605
-1.11354
1.27518
-0.0294101
0.253667
0.649462
1.09225
-0.500388
1.35908
-0.809281
0.917745
-0.707954
0.653643
-0.463485
1.28289
1.08831
0.976437
-1.68211
1.10171
-1.03701
-0.219566
-1.84311
-0.636959
-0.467146
1.63236
1.00146
1.09332
-0.468109
1.00082
-0.542253
0.0342731
-1.90019
-2.34155
-1.55074
0.000109344
-1.203
1.86004
1.18642
1.15214
0.561589
1.11696
-2.04396
-1.90203
-0.494608
-0.735226
-4.47384
1.45589
2.59504
0.350787
2.19674
0.10133
-1.57733
-0.904927
0.752655
0.521353
-3.10166
-0.00177195
2.02081
-0.564818
1.62604
0.781151
-0.439248
-0.514249
-0.189546
0.495748
-0.987687
0.282937
0.820566
-0.608836
0.222095
0.228804
-0.290314
0.371621
-0.256287
0.104268
-0.494136
-0.311792
0.207637
-0.475566
0.337624
0.221883
0.226943
-0.332726
-0.415948
-0.423703
0.157609
0.202343
0.651219
-0.140846
-0.247194
0.0336135
-0.0883799
0.157964
0.198792
0.0577202
-0.0580891
0.257372
0.500991
-0.646534
0.0320836
-0.281836
-0.444129
-0.221884
-0.52295
-0.511973
-0.394543
0.625976
-0.000582934
-0.175744
-0.647338
0.537598
-0.197019
0.435929
-0.271601
0.321185
0.252322
0.632858
0.31647
-0.189892
-1.27205
0.663069
-0.480667
-0.25133
0.37435
0.551403
0.952079
1.22031
0.418075
-1.22151
-1.64751
0.266437
-1.33871
-1.26316
0.346831
0.579708
1.48541
0.583411
0.492643
-1.34365
-0.140022
-1.2598
-2.28074
-2.3678
0.67928
1.21524
1.52072
1.63418
0.622441
-1.14543
-1.04399
-1.60663
-0.954205
-3.50696
0.999728
0.235207
1.5129
1.8875
1.04416
-0.622355
-0.150452
-3.34657
-1.51516
-3.51223
-0.262016
1.00861
1.85099
0.837829
1.21584
-2.56085
-0.443231
-3.1304
-1.71421
-2.4236
0.563788
-0.139904
1.95117
0.809005
2.01137
-1.60967
-1.31545
-2.94933
-0.353926
-0.263649
0.355952
-0.523989
1.30188
2
2.69921
-0.261983
-0.393788
-3.88729
-1.06065
1.39141
-0.0584084
-0.177499
1.45328
1.60558
3.45246
-0.63994
0.0235271
-1.60367
-0.894724
1.86521
1.39495
-1.4007
1.09906
1.98319
4.07125
-1.63481
0.552857
-1.46698
-2.90203
-2.03513
3.57989
-1.37015
0.296277
1.10129
4.1568
0.332051
0.485771
-0.554646
-1.64832
-3.13765
3.96204
-0.45788
1.28785
-1.61016
0.330073
-0.206247
0.503582
0.0675506
-1.00207
0.736185
2.39092
-0.220718
1.66495
-3.80496
-0.975989
-2.11083
-3.08543
0.354485
-0.748496
1.27695
0.659837
-0.522906
0.127064
-3.16199
-1.05873
-2.12617
-1.95157
-0.214413
-0.988443
0.111217
0.409804
0.00338526
1.09665
-1.63378
-0.885638
-1.4217
-1.87056
1.48734
-1.1468
0.216082
0.0312533
-0.219784
2.44168
0.105761
-0.701297
-0.581287
-1.08755
1.04039
-0.515164
0.593736
-0.102216
-0.131802
1.66945
-0.233225
-0.435343
0.802518
-0.244314
0.883285
-0.339337
0.668964
-0.0893886
0.127159
3.32177
-0.024005
-0.950393
1.24552
-1.11197
1.63814
0.378831
0.000890916
-0.44605
-0.0363993
4.5589
0.67681
-0.790198
0.617613
-0.733623
-0.498571
-0.108655
-1.39602
-0.147757
-9.40873e-05
3.50273
0.666579
-0.657698
1.17575
0.303802
-0.170121
-0.0959716
-1.17581
-0.483221
-0.596531
1.72576
0.791161
-0.687311
1.82258
0.39643
0.122329
-0.322719
-0.88692
-0.301352
-0.0268314
-1.04744
0.0935326
0.0838502
1.7348
0.780278
-0.0993783
-0.833421
-1.13553
0.681181
0.213617
-1.89694
-0.583325
0.147645
-0.466813
0.837303
0.557035
-0.124825
0.161996
0.147232
0.585019
-0.798927
0.130873
0.59258
-0.824902
0.221494
0.190584
0.292635
0.156444
-0.543081
0.16089
-0.41321
0.253216
0.556657
-0.0665179
-0.421018
0.161669
-0.238674
-0.168055
0.0830112
0.3347
0.132136
-0.157222
0.491845
-0.416305
-0.284505
-0.125568
-0.390779
0.409126
-0.161938
-0.289605
-0.151814
0.39868
0.555218
-0.705379
-0.569899
-0.30173
0.383173
0.410529
0.16642
-0.337721
0.557306
0.963771
0.000928062
-0.232792
-0.638286
0.438705
-0.570742
0.38504
-0.353193
0.285268
-0.049444
0.39865
0.350199
-0.698886
-0.706122
0.026549
-1.38121
-1.09802
1.18847
1.43996
1.96596
-0.0304739
0.571315
-1.28741
-1.02592
0.0262412
-2.05718
-2.16642
0.779139
0.206472
1.99045
1.32954
1.77451
-2.17318
-0.533558
-0.86227
-2.58937
-3.08024
1.28501
0.673782
2.23087
2.21775
3.13482
-2.61512
0.563679
-2.26959
-2.36332
-1.17466
1.87353
-0.230666
2.54566
1.61713
2.84913
-2.57081
-0.445347
-2.92634
-2.07993
-0.307225
0.175448
-0.365715
1.57678
1.33713
2.78808
-1.4543
-1.43828
-2.32654
-2.36218
1.61832
1.61911
0.0929373
1.91356
0.611551
2.99202
-1.38294
0.142804
-1.94823
-2.30283
2.30849
-0.228971
-1.03465
0.167976
1.66793
4.21565
-0.562038
0.889576
-0.85324
-2.35153
2.34396
-0.214957
-1.60728
-0.141197
2.48731
3.93171
-0.515725
1.39256
-1.26634
-1.88422
2.64952
2.11732
-2.77804
-0.36722
1.53076
1.9638
-2.24387
2.33386
-2.23761
-2.75003
-0.249998
2.7631
-2.40819
1.26673
2.40868
1.91204
-0.322786
3.27835
-2.22885
-2.5527
-1.69089
4.68204
0.647626
1.34382
-2.12486
-0.313233
-0.106485
2.63038
0.231596
-0.176183
-0.256858
1.90466
0.210638
0.866799
-3.82351
-1.02619
-2.78508
-1.98029
-1.56436
-0.0750792
2.02115
-0.00351083
-0.145923
1.79493
-3.10549
0.358755
-1.54657
-2.9677
0.335113
-0.171049
0.89889
0.291914
0.0756714
1.73379
-1.65575
0.0947487
-0.382664
-2.36031
0.501384
0.452955
0.166772
0.497293
-0.00498722
2.4595
-0.673459
0.177381
-0.554286
-0.786328
0.907358
-0.342065
0.423281
0.0274132
1.12132
2.89444
-1.39392
-0.898646
0.403277
0.815609
0.296641
-0.503536
-0.728806
-0.240288
0.377375
4.28505
-1.07585
-0.741938
1.07027
0.490798
0.108249
0.144006
-1.82195
-0.200212
-0.551752
4.08617
0.037405
-0.778315
1.20701
0.557154
-0.259451
-0.0362051
-0.0546505
-0.0969593
-0.385494
4.623
1.48152
-0.423814
1.22421
-0.321238
-1.64057
1.27744
-0.769572
0.0575989
-1.20187
2.1385
1.65007
-0.15132
2.20615
-0.0327361
-1.93451
1.36502
-0.59519
-0.738966
-1.79497
0.00324704
1.3428
-0.550099
1.51946
0.788638
-0.467168
0.142833
-0.00603394
-0.196311
0.257876
-0.573008
-0.268517
-0.410167
-0.0240106
0.489262
0.157106
-0.536705
0.315325
-0.502777
0.0554102
-0.226742
0.212576
0.618393
-0.202733
0.292277
-0.352126
0.316989
0.480249
0.180734
-0.386265
0.328927
-0.336207
-0.183065
-0.822715
0.26218
-0.539466
-0.242815
0.530573
0.115242
-0.0272308
0.0752052
-0.172946
0.159574
0.0670801
0.123625
-0.373234
0.133912
-0.157028
-0.272241
-0.383052
-0.393054
0.203283
0.166235
-0.578632
-0.348115
0.208202
0.0135242
0.428971
-0.442498
-0.509668
0.572777
0.787697
0.419812
-0.288803
-1.11018
0.151496
0.146667
-0.198447
-0.159453
-0.0938728
0.133122
-0.224272
0.144396
-0.731524
-0.353572
0.452172
-1.41962
-0.218996
0.620867
1.44393
1.29551
-0.0196688
1.29158
-1.79961
-0.589435
0.530603
-2.09123
-1.02224
0.960716
0.196495
2.46827
1.8647
3.49168
-3.60276
-0.275966
-1.50144
-1.321
-1.24113
-0.0358162
-0.672561
2.00379
2.56629
3.47001
-2.79997
0.723827
-2.12221
-0.752026
0.123629
-0.320568
-0.720441
1.65212
1.32807
3.00222
-1.66129
0.292757
-0.580347
-0.961819
1.81
0.676718
-0.559486
0.91088
0.260897
2.56182
-1.09199
0.0449958
-0.766931
-0.763851
2.01268
-0.112917
-0.607302
0.853848
0.674185
3.13048
0.156493
0.800767
-1.19035
-1.58963
2.46318
-1.65924
-0.476442
-0.00149472
1.28637
4.05632
0.290532
1.23001
-1.07617
-0.70163
1.58804
0.00391794
-1.36462
-0.2897
1.79564
1.45646
-0.348423
1.75989
-1.34008
-0.489604
1.65918
0.817255
-1.32901
0.73488
1.61743
-0.569741
-1.70991
3.43031
-1.17771
-0.824342
-0.691369
2.06908
0.287554
-0.160665
-0.182007
-0.835326
0.664906
5.71724
-0.149593
-0.472299
-1.18734
3.14391
1.23238
0.577021
-3.84321
-1.12493
-1.21986
2.23082
-0.474358
-0.426315
-0.187202
1.82216
0.602672
2.03125
-3.57295
0.637717
-1.12188
-1.72046
-1.32309
0.497748
-0.338519
1.23274
-0.249508
2.26796
-2.94848
0.349574
-1.30485
-3.71844
-0.720973
0.92996
1.69286
0.171828
0.137426
1.5179
-1.38652
0.104244
-1.47569
-1.64266
-0.3707
-0.389646
0.124989
0.0868951
0.873941
1.11263
-1.1142
0.412568
-0.632884
-0.569848
-1.27538
-0.822586
-0.264628
-0.171624
0.841664
1.84528
-1.56664
0.683739
-0.496499
0.553228
-0.122187
-0.165026
-0.483081
-0.393125
0.00960987
2.38142
-1.00303
-0.129617
-0.459115
1.31564
-0.771054
0.610765
-0.222413
0.724815
-0.679828
3.27224
-1.33214
0.860966
-0.579772
1.35076
-0.826742
0.870029
-0.0916361
-0.219215
-1.32538
1.84275
1.40871
1.45355
-0.485813
-0.385237
-2.04798
2.72472
-0.34259
-0.700754
-2.8937
0.181278
2.55118
0.487268
1.32663
-0.0479885
-3.46521
2.08867
-0.179566
-0.531069
-2.08321
-0.0275017
1.7963
0.294909
1.28577
-0.00286077
-2.1443
-0.273452
0.0107829
-0.257478
0.832528
-0.130008
-0.166166
-0.026425
0.221046
-0.22321
-0.145536
-0.674821
0.472719
-0.369763
0.115535
-0.436228
0.211362
0.356634
-0.306357
0.208196
0.0620772
-0.251343
0.41131
0.337655
-0.0245477
0.354419
0.0530142
0.292657
0.0508338
0.191807
-0.510781
0.510965
0.01932
-0.259913
-0.486421
-0.273922
-0.00689276
0.600952
-0.245131
0.0154885
-0.225602
-0.0362734
0.294721
0.285158
0.481188
0.0767298
-0.0628489
0.0749957
-0.0669812
-0.136471
-0.283178
-0.355312
0.202093
-0.142435
-0.287361
-0.335255
-0.132416
0.696664
-0.515448
-0.884259
0.0345713
0.0355271
0.508671
-0.382057
0.0692619
0.635065
0.0746294
-0.0172319
-0.832176
0.117666
-0.204676
-0.819177
0.835846
0.0913075
0.804021
0.412347
0.00672348
1.10764
-1.57652
-0.0627604
-0.339604
-0.464279
0.0751221
-0.573714
-0.516332
1.05992
1.21638
1.73707
-1.89162
0.745883
-0.461577
-0.537607
0.706022
-0.758703
-0.660914
1.44545
1.05036
2.39124
-2.44481
1.23336
-1.19675
0.842571
1.01312
-2.65528
-0.880215
0.519323
1.912
1.58477
-0.605914
1.55858
1.21418
1.12383
2.01165
-0.189196
-1.256
-0.827182
1.42065
1.78329
-0.441167
1.94133
0.0432633
0.848373
2.18073
-0.889339
-0.515451
-0.555354
1.09976
1.13614
0.0974914
2.35802
0.588594
0.612698
0.766179
-1.70103
-1.28099
-0.28102
1.61935
1.53977
0.276925
2.0979
-0.77549
0.426346
0.964153
-0.996125
-1.60432
0.748658
0.920899
-0.668659
-0.395021
2.04099
-1.2217
1.2778
0.301254
1.14495
0.176097
1.44505
0.194169
-1.68311
-0.632363
3.84833
-1.59592
0.452415
-0.0308624
1.42027
2.05493
0.662131
-3.00493
-0.919123
0.522101
4.51657
-2.20685
0.421904
-2.08114
2.48177
1.47435
-0.202783
-2.2697
-1.20866
0.0402902
-0.286699
-2.00857
0.470951
-0.258838
2.15206
1.05759
0.907696
-2.52064
0.595481
-0.525959
-1.88209
-2.12725
1.65095
0.0103683
0.93738
0.48601
1.11379
-2.33954
-0.812232
-1.86644
-2.29237
-2.17234
-1.20826
1.44354
0.558859
1.0812
0.896292
-0.755971
0.0631
-1.07275
-2.21864
-0.368133
0.176634
1.97931
-0.331711
0.639792
1.73064
-2.15669
-0.28344
-0.6756
-2.3986
0.764558
1.15344
2.08712
-0.908289
-0.209924
1.56357
-1.28044
0.275218
-0.337078
-2.4086
0.83599
0.485392
1.212
-0.234223
-0.882714
1.57349
-1.11113
0.893666
-0.896051
-0.928315
0.784765
0.605095
1.04479
1.10601
-2.0739
0.905633
-0.115137
1.48424
-0.779447
-0.89587
0.316998
1.44733
0.192871
-0.259968
-2.09962
-0.140733
0.810839
1.42226
-0.00897788
-1.04802
-1.45739
2.21606
1.06041
-1.38374
-2.9008
-0.550594
2.78756
1.69821
1.59551
-1.31399
-1.86155
1.10006
-0.147525
-0.341453
-1.72625
-0.495103
1.24648
0.647764
0.527688
-0.340202
-1.14715
0.345514
0.521423
-0.0350656
-0.260958
0.328156
0.268047
-0.70314
0.610536
0.154209
-0.00874836
0.73299
-0.181509
-0.0662184
0.731125
-0.244
-0.605753
0.11564
-0.00613922
-0.078216
-0.105091
0.318073
0.305803
0.354763
0.441659
0.210891
0.256342
0.219817
-0.826918
0.348826
-0.297814
-0.211381
0.167221
-0.54368
-0.453472
0.369467
-0.108426
0.672854
-0.222276
-0.299696
0.28056
0.189824
0.0702235
0.12133
-0.0326668
-0.546961
-0.267496
0.717532
-0.715131
0.263735
-0.339341
-0.359635
-0.0656594
-0.085734
-0.387583
0.195191
0.0635771
0.149806
-0.0369063
-0.264256
0.293657
0.532037
0.0861787
-0.556046
0.685581
0.62426
-0.478182
0.512538
-0.626903
-0.0765545
-0.453802
-0.48692
0.0362734
-0.13094
1.00753
0.421815
-0.265723
-0.386599
-0.390086
0.321767
0.0746617
0.769644
0.614425
-2.22602
-0.22111
1.39415
0.779876
-0.146403
-0.0783703
0.61411
1.29391
2.58233
1.33998
-1.51167
-0.08696
2.1018
-0.226164
0.248652
-1.48176
1.88204
0.928307
2.0779
1.34187
-2.13821
-1.32261
0.987376
1.59344
1.35735
-2.01305
1.35207
0.221958
1.35732
1.66714
-1.55076
-0.788264
-0.173841
1.5988
1.53048
-1.62223
2.38044
0.320217
0.641281
1.13922
-1.39358
-0.959737
0.111942
1.66997
1.02868
-0.357719
2.3496
0.600248
0.979363
0.448552
-0.558206
-0.926548
0.034486
1.37219
0.688777
-0.595446
1.60897
-0.209171
0.991398
-0.233984
0.0350502
-0.860671
0.817205
0.0479385
-0.216227
-0.652838
1.10417
-0.299889
-0.15546
1.13188
0.353707
0.702106
-0.207113
-0.375377
0.0319965
-0.246224
4.33521
-3.20046
0.957616
-0.429007
2.37808
1.78873
-0.178222
-3.27669
-2.14005
0.193737
2.00705
-2.15862
2.07768
-0.684166
2.03196
0.466268
0.512804
-1.89181
-1.52224
-0.856471
-1.02686
-2.53922
0.565965
1.06195
0.757528
2.5427
1.20712
-2.35154
-0.49558
-0.463663
-2.177
-1.85356
1.59594
0.854652
0.509345
0.851688
1.0425
-1.66105
-1.48056
-2.03887
-1.49627
-1.08095
0.622491
2.06355
-1.73439
0.809986
2.26783
-0.639112
1.0979
-0.521379
-2.04139
-0.310202
0.421603
0.876411
-0.601641
0.517115
1.52945
-0.537485
1.05127
-0.313881
-1.66606
0.568946
1.81885
1.72272
-1.13602
-0.657228
0.64394
-0.62694
1.67259
-0.906823
-2.14416
0.234253
1.26589
1.3907
0.680373
-2.10946
-0.0573839
0.255866
2.6427
-0.257568
-2.27507
1.43692
2.20917
0.124803
0.411298
-1.89708
-0.124475
0.276983
1.44695
-0.889701
-2.2609
0.952606
1.05754
2.40861
0.500034
-1.88528
-0.11274
1.02299
1.21731
-0.36983
-2.19688
0.573184
1.31805
0.816831
-0.613102
-0.985336
-0.23424
1.04271
1.41555
0.484046
-1.1124
-1.03421
1.0651
0.350076
-1.63606
-0.238679
-0.870539
1.01921
0.149838
1.32138
-0.354535
-0.945908
1.26528
0.0614311
-0.515627
0.0396195
-0.707425
0.504893
-0.592197
0.676089
-0.273231
0.417178
0.417124
0.261752
-0.634409
0.281633
-0.481175
-0.192089
-0.779294
0.167715
-0.381445
0.659836
0.0685634
0.215358
-0.338246
-0.407824
-0.315441
0.24054
0.140022
-0.15002
0.49248
0.277117
-0.450372
-0.016133
0.300786
-0.176625
-0.386102
0.484432
0.759547
-0.724392
-0.028731
-0.0512174
-0.418788
0.349204
-0.296472
0.130284
0.23473
-0.332368
0.584744
-0.496312
-0.121132
0.265476
0.144366
0.532608
0.395927
-0.120898
-0.634364
-0.286235
0.621013
-0.472886
-0.126683
0.439943
0.0166098
-0.068593
0.597109
0.75135
-0.891163
-0.292138
-0.174866
0.0841336
0.4753
0.134422
-0.230993
0.139726
-0.589828
-0.0286338
0.274612
-0.334349
-0.516974
-0.234985
-0.269527
1.64706
1.65157
0.943174
-1.33669
-0.435332
0.587775
0.436572
-0.584208
-0.385811
1.32437
1.28457
2.77556
1.41278
-2.59985
-0.260842
1.65665
-0.0178816
-0.17758
-0.02037
0.809975
1.08645
2.3045
1.59752
-2.32432
-0.745589
3.3141
1.41669
0.225316
-0.193526
1.34023
1.64006
1.33489
0.753316
-2.01832
-0.613331
3.81728
0.56971
-0.635209
-0.845462
2.24145
0.136922
2.18272
-0.292155
0.274841
-1.06723
1.51912
0.445419
-0.973572
-0.244691
1.20663
-0.0776488
2.52846
-0.883439
-1.27829
-1.34011
2.24523
-0.00771492
-1.29497
-0.114369
1.26529
-0.140535
1.29618
-0.505441
-0.117359
-0.284561
1.40212
-1.08014
-0.659757
-0.074772
1.98568
-1.07666
0.2433
0.963402
0.537503
0.534452
-0.121331
-2.24638
-0.626921
0.291769
2.44048
-1.90576
1.81185
-0.790711
2.21967
1.03714
-0.862082
-4.03838
-2.16256
-0.358322
-0.887324
-2.896
1.68935
0.161628
1.03366
0.962461
-0.510916
-2.08801
-2.01959
-1.85956
-1.11213
-2.49998
1.44892
0.884825
-0.0949117
0.634329
1.62848
-1.20407
-0.622186
-1.62011
-1.59439
-2.65935
0.567245
1.41221
0.195793
1.5334
1.64321
-0.667956
-0.545545
-0.513018
-2.17105
0.0401855
1.02634
2.83996
-1.74364
0.778578
1.73013
-0.247289
0.640878
-0.427177
-1.23179
0.711126
1.36547
1.98454
-0.772016
0.396089
1.16023
0.0450092
1.45876
-0.424178
-1.46341
1.28355
1.37598
1.879
0.483498
-1.18029
-0.435999
-0.218012
2.42715
-0.0698829
-1.77798
1.57305
1.3538
1.37654
0.327628
-0.891337
-0.499993
1.47098
1.95484
0.654237
-1.71027
0.0911328
1.62218
1.5506
0.571681
-0.995495
-1.45946
2.02775
1.04781
-0.32175
-1.36843
1.01227
0.946275
1.20748
0.563319
-0.877611
-1.18594
0.427931
0.75508
0.301253
-0.507085
0.981139
1.42828
0.923605
0.234517
-0.582775
-1.19961
1.21878
0.434945
0.768736
-0.631294
-0.369498
1.877
0.307599
-0.534411
0.139274
-2.0352
0.531414
-0.0608176
1.19794
0.49718
-0.43073
1.88505
0.0289562
-1.00982
1.08714
-0.139804
-0.328901
-1.45176
1.6657
-0.149145
0.995354
0.983667
0.100016
0.0538607
0.88064
0.0249209
-0.169396
-0.747892
0.183311
-0.220888
0.824995
0.60658
0.266438
0.0287032
0.31353
0.254891
0.249941
-0.233611
-0.610012
-0.284103
-0.470366
-0.106958
0.0389899
0.0715599
0.487122
0.154993
-0.0585974
0.137691
0.161928
-0.414901
-0.601295
0.144006
0.108979
0.295434
-0.205236
0.0216785
0.416428
0.36879
-0.127803
-0.482221
-0.265316
0.366496
0.282968
-0.146155
0.347273
0.160468
0.025683
0.35503
-0.405238
-0.230026
-0.080431
-0.0759115
-0.155099
0.370582
0.0164259
-0.606148
-0.682583
0.122257
-0.403833
-0.11898
0.378363
0.245374
0.16977
0.0995096
0.243185
-0.0978848
-0.104984
-1.13813
0.558133
-0.0265998
2.0345
0.22509
0.715213
-2.02191
-0.472495
-1.42305
1.43962
-0.552217
0.701034
0.496127
1.78741
2.13017
0.66758
-2.17647
-0.87133
-0.776867
1.80035
0.246972
0.716629
1.59518
0.584822
1.79343
1.1209
-1.5259
-0.00472126
2.08362
0.287987
-0.669642
-0.025918
1.68455
0.794278
1.31505
-0.426713
-1.64347
-0.495487
5.83537
-0.321529
-2.04238
-0.105903
1.4282
-0.32354
2.53663
-1.24551
-2.49418
-1.1722
4.22644
-0.526124
-2.064
-0.358757
1.31049
-1.64879
2.20951
-3.11702
-2.3531
-2.15776
4.10058
-1.32507
-1.42035
-0.991259
1.03608
-1.53592
1.61029
-1.42771
-1.87833
-1.51489
3.05892
-2.02813
-0.926904
-0.505849
1.26918
-2.51829
1.16952
-0.324254
-0.596376
0.287601
2.77703
-3.50364
-2.30624
0.0159177
0.0910803
-2.71686
1.12892
-1.74554
0.240584
0.902703
2.28511
-3.24153
-4.16374
-1.22729
-1.47573
-3.4307
2.89755
0.179843
0.0939767
-0.150863
1.82578
-1.63408
-2.93799
-2.55571
-1.89651
-2.65765
1.81951
1.26294
-1.71255
0.522656
1.1426
-0.994711
0.70382
-1.45734
-1.30565
-0.513987
1.235
1.37233
-0.884556
0.195194
2.18817
-0.126102
1.43154
-0.171783
-0.165503
-0.14047
1.22098
1.38041
-0.935524
-0.294685
0.725882
0.180185
1.33394
1.25278
0.914466
0.825581
1.58557
1.8534
-0.0512417
-0.747274
-0.247504
0.885331
2.25568
-0.0562387
-0.476058
1.53541
2.0969
0.782623
1.00257
-0.579626
-1.17462
0.381159
2.21242
0.0962084
-0.894397
1.53049
2.04681
1.21854
0.285738
-0.314965
-0.942383
1.41171
1.35258
0.201384
-0.772733
0.975345
1.10831
1.15793
1.77185
-0.0432853
-0.98212
0.700763
0.967855
0.444684
0.227436
0.911771
0.945663
1.47703
0.767733
-0.0833676
-1.27577
0.810557
-0.0338255
1.30343
-0.411542
0.932982
0.773609
0.522724
-0.228583
0.109714
-0.648077
1.00913
-0.262649
1.60863
0.179258
-0.293937
1.60459
0.119248
-1.79742
0.591659
-1.14254
-0.00367476
-1.33026
1.95774
0.361511
0.633773
1.29978
0.160494
-1.66344
0.614292
-0.39852
-0.513723
-1.67886
1.79176
0.244803
1.60592
0.0399892
0.491585
-0.291227
0.807123
0.188192
-0.11019
-0.144111
0.237764
0.100148
0.588488
0.17359
-0.107785
-0.306978
-0.00489022
-0.216037
0.401787
0.678885
-0.133081
-0.519538
-0.153548
0.17828
-0.236459
0.065696
0.301434
0.262314
-0.383604
0.0514104
-0.711387
-0.106946
0.188591
-0.196864
0.0838477
-0.161805
-0.18307
0.0518585
0.132599
0.0521882
0.157962
-0.162305
-0.493538
0.0679088
0.562582
0.458246
-0.267714
0.259063
-0.368627
0.391876
-0.617867
0.278688
0.441436
0.337105
0.243285
0.543058
0.876621
-0.871211
-1.21502
-0.360795
0.289382
-0.0479302
1.25682
0.403513
0.395588
-0.0990508
0.130479
-1.69884
-0.561312
-1.34403
1.02931
0.167071
2.57141
0.859774
0.115915
-0.85871
0.499544
-0.820733
0.482362
-0.480731
0.281378
0.332775
2.33663
0.505681
0.632022
-1.5979
0.387658
-2.08241
0.993925
1.35211
0.641082
2.40474
0.739468
2.4891
1.17705
-1.93222
-1.41821
0.498525
1.84501
-0.105638
0.135247
1.39355
0.00246242
1.82446
-1.18518
-1.38424
-1.28351
1.83642
0.542226
-1.18269
0.122729
1.35953
-1.77072
1.24226
-1.91664
-2.41804
-1.17732
3.26864
-0.689161
-2.15309
0.228879
1.02305
-2.83762
0.794312
-2.61086
-2.95834
-1.75038
3.95191
-2.27202
-2.09761
0.319303
0.607854
-1.51859
0.383843
-2.78148
-3.41273
-0.953473
3.66321
-3.3944
-2.42976
-1.0029
0.138841
-3.36532
2.83324
-0.94549
-2.69204
-1.39023
2.35679
-2.89731
-3.58129
-0.509798
-0.678814
-4.22829
1.04755
-0.988221
-1.94402
-0.0832446
1.58565
-2.2279
-3.22256
-1.90809
-2.58499
-3.35761
1.36932
-0.342253
-0.941873
0.217273
0.797246
-2.04241
-1.18126
-2.10447
-2.60779
-1.27685
1.42777
0.943613
-1.11519
0.0568184
1.35385
-1.18199
0.696892
-1.56157
0.0648869
0.901396
2.18981
2.03058
-1.38645
-1.12642
0.305119
-0.66481
1.19786
0.596541
1.54159
1.33367
1.48752
-0.0459011
-0.335283
-0.482946
-1.35218
1.20555
1.58562
0.186679
0.913031
2.12733
1.774
0.110345
1.00102
-0.718078
-0.323611
1.04573
1.00481
0.482258
0.799986
1.69107
2.13332
0.707208
1.02701
-0.920657
-1.17907
0.617357
1.08675
0.988599
0.56955
1.52949
1.05552
0.168288
0.753604
0.402664
-0.0555857
0.363447
0.850343
0.241291
1.71797
-0.013481
0.669451
0.822388
1.20807
-0.835904
-1.21689
0.755981
1.11628
0.52876
0.0434245
0.878304
0.908192
0.168397
0.184552
-1.06397
-1.41758
0.695632
0.320673
2.4013
0.254574
1.15968
2.5688
-0.237386
-1.04805
-0.395606
-1.89271
0.372453
-1.27784
2.10082
1.38264
-0.237785
1.88854
-0.566473
-2.2327
0.492923
-1.68626
-0.619179
-1.7261
2.19268
0.611725
-0.302073
0.828979
-0.200983
-0.861101
0.427002
-0.399153
-0.579961
-1.28939
0.662814
0.202542
0.227183
0.185854
0.0814362
-0.127689
0.0138991
-0.364242
-0.378887
-0.401196
-0.445339
0.0330671
0.17043
0.550511
-0.0157786
0.0330187
0.236371
0.267918
-0.212963
-0.41186
-0.796418
0.362272
0.35941
0.213226
0.0573898
0.274008
0.0584499
0.147497
0.395774
0.0241071
0.158383
0.243405
-0.163332
-0.306951
0.0989738
0.289976
0.329172
-0.151334
0.292754
-0.218894
-0.332031
0.227535
0.14142
-0.265866
0.25281
0.0129051
0.583952
0.0735644
0.308369
-0.00777266
-0.744376
0.355552
-0.00832947
0.463902
1.04942
1.22188
0.347876
-1.46244
-1.67841
-0.486166
0.0446797
0.119272
1.54542
0.00850673
-0.418549
0.201299
0.0533864
-1.73517
-0.298073
-0.737595
0.662509
0.203127
2.92914
0.500108
-0.937073
0.289431
0.136685
-1.40621
0.786784
0.147022
1.02092
0.87062
2.50503
-0.431485
0.363573
-0.207271
0.572995
-2.18176
1.61805
0.892077
0.95261
2.00172
1.90205
0.574241
-0.80295
-0.582854
-0.246535
-1.28276
0.985061
0.0762208
0.974073
2.82896
0.524948
-0.30776
-1.34942
0.103855
-0.333274
-1.07519
0.998023
-1.01101
1.31996
1.57934
-0.778304
0.864906
-2.02105
-0.297878
-1.44176
-0.400128
-0.583297
-2.03594
1.68929
1.69228
-1.10809
0.728264
-2.0491
-1.29898
-2.57146
-0.681892
-0.779783
-1.58551
0.669156
-0.0196557
-1.70749
1.8733
-2.63019
-2.45892
-2.66351
-0.863389
-0.884882
-1.33452
-0.487594
0.0812828
-2.17716
1.62152
-2.28308
-1.14543
-2.81889
-1.00188
-0.759487
-2.33139
0.567219
-0.175109
-2.27286
2.09909
-1.90863
-0.675397
-1.52411
-1.38129
-1.53315
-1.44216
-0.702897
-0.557925
-1.94202
1.87162
-0.325316
-1.14963
-1.47379
-0.812587
-1.12404
-0.280094
-0.784243
-1.65464
-0.733105
2.60133
0.208511
-0.120661
-1.34222
-1.47878
-0.628808
0.699456
0.140029
-0.12373
-0.466806
1.96699
0.951764
-0.399324
-1.47033
-0.937599
0.484587
0.75601
0.216931
0.826247
0.468878
2.60636
0.815312
1.04304
-1.98486
-0.702904
0.803986
-0.043662
0.187355
0.522224
2.09936
1.7305
-0.163117
0.659938
-2.01232
-0.341942
1.11797
0.305103
0.249695
1.67012
0.441718
1.70932
0.225574
0.715478
-0.663107
-0.37077
0.810433
0.332629
-0.079139
0.913271
0.946837
1.99038
0.0454302
1.01107
-0.881023
-1.76591
0.756946
0.302472
0.739229
1.81501
0.496706
0.84671
0.251993
0.750663
-0.369272
-1.00613
0.809068
-0.266214
1.53988
1.37173
0.000569672
0.995247
-0.849922
0.58778
0.238715
-1.45106
-0.370205
-1.56921
1.96152
1.05193
0.474413
1.50996
-0.403724
-0.179884
0.236596
-1.63312
-0.676191
-1.85204
2.22192
1.25138
1.00929
1.68592
-0.330067
-1.44963
0.238026
-0.883075
-0.0394909
-1.64057
1.19285
0.333588
-0.327384
1.10281
-0.234632
-0.653883
0.425684
-0.400951
-0.809605
-1.20173
-0.111979
-0.0627868
0.294963
0.347799
0.0942206
-0.355872
0.323219
-0.393276
-0.460771
0.15997
-0.562686
0.186669
-0.03292
-0.00185369
0.612476
0.199544
-0.0600806
-0.450932
-0.0184391
-0.150148
-0.748753
0.136662
-0.520583
-0.161801
0.0635516
0.13159
-0.344813
-0.207175
-0.383763
0.21229
-0.604856
-0.231583
-0.154288
-0.45953
-0.0686521
0.302957
-0.500472
-0.513531
0.348891
0.70721
-0.78661
0.307893
-0.545822
0.173396
0.50678
0.354108
0.240909
-0.506316
-0.0892148
0.419009
0.0930104
-0.27173
-0.132265
0.54326
0.941534
0.352935
0.513389
-0.952684
-1.19674
-1.08149
-0.22312
0.407131
1.25032
0.337569
-0.129553
-0.364681
0.431769
-0.781963
-0.606901
-1.49451
1.20471
0.301136
2.65626
0.0122011
-1.31724
0.749349
0.523911
-1.22551
1.11024
-0.686587
1.62121
1.35674
3.09859
0.43193
-1.22601
1.73035
0.462293
-0.255825
0.514961
-1.83324
2.09055
1.75185
2.29442
1.28869
-2.07387
1.19088
0.959061
-0.385294
0.0625393
-2.20654
2.79418
3.10522
0.886989
1.12829
-2.52963
1.36751
-0.955849
-1.97808
0.0681059
-1.24348
1.51652
2.1929
0.794936
0.509912
-2.40477
2.22292
-1.09887
-1.80391
0.0530839
-1.07168
2.57412
0.826197
0.45256
0.822731
-1.40249
-0.240924
-2.22049
-0.759106
1.09512
-0.68424
2.28016
-0.704886
-0.433522
2.32538
-1.69131
0.945017
-2.62596
-1.66912
0.41782
-0.898451
0.932987
-0.544323
-0.423622
1.46872
-2.31195
-0.196748
-2.47961
-1.2483
1.19001
-0.297629
1.21563
-0.548993
-0.598671
1.76664
-1.8266
0.115264
-2.42794
-1.24829
0.317779
0.414791
1.21694
-1.19506
-0.341694
1.77176
0.189167
0.876401
-2.5193
-0.438563
-1.01594
0.257547
-0.553646
-1.16798
-0.292484
1.66716
0.114605
0.568893
-1.49809
-1.5762
-0.966074
-0.37264
1.13493
0.495791
-0.799687
1.62665
0.81089
0.983788
-1.18565
-0.842575
-0.13206
-0.354325
-1.47845
1.99522
-0.478573
1.06598
0.0963594
1.2052
-1.04385
0.14937
-0.0391647
-0.386855
-0.108257
1.83861
-0.897571
2.42846
0.964922
1.84987
-1.89389
-1.21377
0.598683
-0.388425
-0.26889
2.41946
-0.0360071
1.73086
0.765351
0.350255
-0.399516
-0.097497
0.38164
-0.958687
0.915324
1.65984
0.343661
1.08745
1.05807
1.47083
-0.455125
-0.736939
-0.508077
-0.748706
1.61141
1.54113
0.864695
0.707193
-0.578059
0.272586
0.368004
-1.07667
0.489473
-1.00879
2.04936
1.60008
0.0331125
0.646762
-0.72894
-1.095
1.28337
-1.59864
0.364722
-1.09829
1.16157
1.68369
-0.0997054
1.80153
-0.263386
-1.09711
0.221651
-1.14833
0.154846
-1.17126
1.26864
1.25806
-0.110222
1.7338
0.428265
-0.770008
-0.141396
-1.1403
-0.980896
-0.903438
0.737923
0.172313
-0.190521
0.329282
0.63943
-0.1691
0.0512516
-0.00333686
-0.0628099
0.0519052
0.575369
-0.337773
0.621964
0.490364
0.0996477
-0.433081
0.0383413
-0.606628
0.0162334
-0.301592
-0.264863
-0.288106
0.225705
-0.0199519
0.479218
-0.222632
0.357229
0.0134543
-0.389559
-0.168248
-0.431111
-0.214044
-0.548586
0.181307
0.108652
0.187762
-0.129375
-0.115915
-0.154472
-0.144157
-0.64348
-0.445694
0.039804
0.391904
-0.185027
-0.226846
0.00802279
-0.00966366
0.150483
0.106615
-0.255332
0.315757
0.249976
0.503221
0.599038
0.0612511
-0.281066
0.156733
-0.458
0.0881023
-0.666499
0.356167
0.0737273
-0.0901817
0.0276157
1.12591
0.721613
-1.05831
-1.35188
-0.761183
0.0197816
0.627712
0.639234
0.265601
0.434523
0.611661
1.15631
-1.67537
-1.1051
-0.829469
0.603165
0.246216
1.89763
0.59358
-1.59131
1.55024
-0.0805241
-0.302552
0.596806
-2.31061
1.08343
0.438599
2.41458
-0.622876
-2.32044
1.65176
0.803411
-0.210715
0.141987
-1.6396
1.72801
1.56633
2.72137
-0.0564116
-2.22924
1.15111
0.208939
-0.714941
-0.158628
-1.12503
2.04427
2.40747
1.23298
0.50203
-2.39785
0.670613
0.235582
-1.24096
0.00555146
-0.922043
1.63617
1.8777
1.07165
0.890137
-1.43406
0.574525
-0.483939
-0.227133
0.133636
-0.785714
0.592724
0.746301
-0.26338
0.540505
-2.11847
0.915561
-1.89501
-0.91884
1.97088
-0.509611
-0.0384088
-0.000548358
-0.746208
1.25003
0.16629
1.06428
-1.42072
-0.422918
1.10498
-0.565993
1.04945
-1.29787
-0.675066
1.44928
-0.91601
0.7169
-1.88954
-1.09554
1.12802
0.0616194
1.53391
-1.05177
-2.2169
0.75294
-0.71926
0.800495
-1.03747
0.0777699
0.213085
0.0240048
0.888049
0.277467
-1.69518
1.19293
-0.49312
1.31885
-2.00979
-0.862384
-0.797072
-1.07095
1.0085
0.778862
-1.12577
0.430834
-0.497044
1.08236
-1.66654
-0.82491
-0.401575
-0.146456
0.30378
0.33877
-1.45987
-0.0128156
0.6111
1.06804
-2.17095
-0.375353
0.134064
-0.117768
-0.00614446
0.0376071
-0.163346
1.14975
1.15129
0.464317
-2.03222
-0.762577
0.291975
-0.998362
0.449884
0.71894
-2.14144
0.863808
0.454858
0.596442
-2.23382
-1.01503
1.1013
-1.65185
0.688126
2.22404
-1.48371
0.656578
0.414581
0.113182
-0.226278
0.0823781
0.116215
-2.03408
0.663263
1.9329
-0.678267
0.209234
-0.362624
-0.0779509
0.143989
0.0807215
1.06849
-0.390639
0.792456
1.61261
-0.976319
-0.83107
-0.929076
-0.568537
1.65521
-0.307763
0.225672
-0.537009
0.832273
2.01075
-0.697298
0.702376
-1.12378
-1.57007
0.799906
-1.59393
0.740573
-0.452339
0.833672
1.29913
-0.0784525
0.946986
-0.572445
-1.33208
0.168528
-1.60501
-0.64094
-1.27273
0.325839
0.985248
-0.539074
1.51981
0.421739
-1.39198
-0.224561
-0.662533
-0.223124
-0.247233
0.179773
-0.271315
-0.162791
0.818732
0.408034
-0.127553
-0.15674
-0.147958
-0.183334
-0.0144789
-0.354227
0.12316
-0.33714
-0.318356
0.134264
-0.494954
-0.536574
0.369059
-0.162103
0.0674425
-0.434773
-0.258886
-0.574394
-0.125891
0.0586578
0.0211164
0.117648
-0.260038
0.147574
0.509711
-0.191581
-0.0608583
-0.304156
0.401673
-0.189
-0.0668555
-0.12628
-0.0909556
-0.449728
-0.0102326
0.030708
0.429995
-0.0941558
-0.0622823
-0.164515
0.285631
0.369034
-0.136236
-0.152815
0.236316
0.101018
0.393605
-0.015167
0.206271
0.643036
0.243248
0.535162
-0.13481
-0.275077
0.237048
-0.218648
0.311993
0.257067
0.0527211
-0.0903846
-0.0422571
0.542988
-0.193645
-0.534257
-0.262321
0.365498
0.201329
0.686408
0.652964
0.554687
0.862866
0.0438494
-1.6749
-1.55745
-0.800219
-0.0313299
0.0616704
1.68281
0.2736
-0.760481
1.56808
0.352781
-0.58938
-0.927557
-1.80466
-0.117545
0.326607
1.62664
1.13381
-1.2558
0.330971
0.522331
-0.724346
-0.159199
-2.74193
1.73148
0.859941
1.91713
-0.167719
-0.866598
0.600128
-0.555022
-0.25623
0.0396587
-2.35031
1.29641
-0.268016
1.05591
-0.881527
-0.740009
-0.519848
0.232672
-0.326163
0.843123
-1.43005
0.729014
0.242437
0.460796
0.161214
-0.264656
-0.828181
0.100705
-0.149763
0.525035
-0.88554
-0.0611089
-0.761516
0.357331
-0.12653
-0.310686
0.359361
0.235152
-0.711654
0.197388
-0.757544
0.0480646
0.611033
-0.0836193
0.0149932
0.403158
-0.192856
-0.186143
-1.13977
1.11629
0.453175
1.51456
0.873481
0.196244
-1.18963
0.720376
-0.909405
-0.779988
-0.649958
0.892973
0.64534
1.69433
0.185083
-1.54468
-0.0826629
0.14708
-0.120438
-2.04659
-0.946123
2.02589
0.211281
2.82879
0.749618
-1.63804
-1.50814
-1.16352
0.509336
-1.53066
-0.299776
0.19017
-0.505588
1.36523
0.0677275
-1.12018
-0.0190007
0.130913
0.505186
-1.15219
-0.0679691
-0.329609
-0.846273
0.912028
-0.370239
-0.976086
-1.28922
-0.160933
0.269655
-1.14853
-1.20112
0.023705
-1.51367
1.18847
1.15448
-0.596913
-0.355537
0.289968
2.32144
-1.12912
-0.724277
0.488399
-0.812053
-0.833165
0.0853305
-1.12734
-0.444122
0.378607
0.452396
-1.16637
-1.77284
1.04634
-1.91576
-0.109683
2.09157
-0.848277
-0.299169
1.53214
0.00372811
0.023886
-0.846028
-0.0707974
-1.8776
0.516237
1.18157
0.301815
1.16771
0.955187
-1.67392
0.0098225
-0.515702
0.210426
-1.70672
0.183804
1.75293
-0.3038
0.217795
0.00234206
-1.60141
0.603005
-0.347878
-0.0955308
-1.10786
0.706083
1.17096
-0.465731
-0.0273349
0.641949
-1.31858
0.0941697
-0.577993
-0.903357
-1.01376
-0.244913
1.18219
0.296963
-0.141267
0.386148
-0.700732
0.470865
-0.249598
-0.126266
-0.63531
-0.263848
0.927769
0.367308
0.323892
0.286795
-0.945598
-0.165798
-0.622036
-0.262698
-0.5947
0.388122
0.508599
0.200139
0.186508
-0.0309648
-0.58959
-0.210023
-0.290457
0.0246061
-0.331039
0.312095
0.45226
-0.0684291
0.461045
-0.194274
0.378985
0.0557247
-0.291234
0.30376
0.17419
-0.749977
-0.425869
0.357062
-0.134465
0.377512
-0.00352176
-0.0394438
-0.406129
0.474779
0.352982
-0.562625
0.186228
-0.565413
-0.236518
-0.280039
0.26124
0.143017
-0.316079
0.407512
0.648858
0.138465
-0.369434
-0.491907
0.00168226
0.247162
0.076011
-0.499485
-0.447976
-0.353107
0.00476631
-0.624272
-0.234037
-0.603157
-0.314557
-0.0375075
0.466338
0.174366
0.0992786
-0.293172
-0.0197396
-0.113613
0.553055
-0.451779
-0.223822
0.7079
0.453984
-0.192772
-0.567625
-0.142939
0.192647
-0.367435
-0.0702031
0.397989
0.484244
0.0781083
0.60674
-0.0518186
-0.545267
-0.826751
-0.423333
-0.306584
-0.521515
1.47544
0.834123
-0.381133
1.05655
-0.615207
-1.81307
-0.88037
-1.32153
-0.185313
0.00534889
1.61519
0.443361
0.0150951
1.3252
-0.779902
-0.822034
-0.200239
-1.84986
-0.542855
-1.0881
0.562641
-0.587083
0.49889
0.295982
-0.325386
-0.0305866
-0.274738
-0.515196
0.0190504
-1.15706
1.66461
-0.661712
-0.266465
-0.0849181
-0.206627
-0.18601
0.468507
-0.666973
0.0154752
0.640836
-0.175462
-0.65507
0.524225
-0.455054
-0.653911
-0.845332
0.327859
-0.570215
0.691181
0.76074
-0.698944
-1.792
-0.177799
-1.03965
0.691566
-0.3432
0.583787
-0.0676384
0.262746
0.973275
0.187103
-1.74669
-0.219945
-0.327847
0.146015
-0.337493
0.671943
-0.891627
0.965045
1.30597
-1.05785
-2.19503
-0.694266
0.147675
0.60467
-0.0624744
1.05686
-1.09577
0.784016
1.50101
-1.79074
-2.56772
-0.231158
0.0164898
1.19607
-0.0689978
1.04419
-0.672508
1.81596
1.03064
-1.48581
-3.22121
-0.501073
-0.105403
1.09759
0.226635
1.59136
-1.15216
2.01383
-0.39267
-1.93398
-1.64161
0.539774
1.62283
-0.386112
-0.434657
1.02661
-0.756913
1.58807
0.21075
-2.0939
-3.34694
-0.392656
0.874462
-0.159393
-0.376735
0.749811
-2.02708
0.899667
1.14209
-1.58365
-2.45776
-0.841468
1.11057
-0.11348
-0.101639
0.53515
-1.47544
-0.417452
0.43728
-1.32181
-0.932352
0.482753
0.158596
0.205898
0.710535
0.0606696
-1.8207
-0.328841
1.62303
-1.19471
-0.118462
-0.0631265
-0.733927
0.1561
0.0186994
-0.538966
-1.18868
0.216862
1.56521
-1.15637
0.0424231
0.579651
-1.35902
-0.0170959
-0.608801
-0.50263
-0.943141
-0.945556
1.07942
-1.52662
0.641149
0.851842
-2.26883
0.719211
0.323067
-0.288046
-0.504899
-0.558466
0.991807
-0.293464
0.257293
0.206449
-1.07442
0.381156
-0.271267
-0.625361
-0.258731
-0.457609
1.25629
0.185964
-0.0793642
-0.247439
-0.360857
0.530237
0.140017
0.102005
0.415449
-0.0570309
0.93891
0.340838
-0.162172
0.220297
-0.803246
-0.487516
0.11966
-0.314924
0.188156
-0.486532
0.15812
-0.236843
-0.331876
-0.154914
-0.595349
-0.494458
-0.239553
-0.0255723
-0.0410254
-0.110486
-0.105476
0.220375
-0.0907152
-0.129087
0.403545
0.227428
0.291101
-0.0902187
0.295808
-0.147033
-0.275429
-0.532144
-0.129066
0.505342
-0.152317
-0.306785
-0.317272
0.257694
-0.175357
-0.639229
0.450804
-0.00683672
-0.263614
-0.116157
-0.413141
-0.342912
0.100185
0.134037
0.288536
-0.386891
-0.123897
-0.00743045
0.367312
-0.120039
-0.0737423
0.0749916
-0.0188803
-0.429556
0.702993
-0.0584286
0.430829
-0.123398
0.381466
-0.031885
0.311769
-0.0716047
0.307063
-0.480496
-0.249891
0.00861621
-0.0488007
-0.599447
-0.050775
-0.0831501
-0.457148
-0.464003
-0.00998856
-0.0157079
0.674683
-0.547868
-0.393026
-0.215521
0.284469
0.0374957
0.369371
0.137961
-0.492267
0.0153996
0.319535
0.0817393
-1.04114
1.07739
-0.59515
0.516964
1.0362
0.516082
-0.0989152
-0.362753
-0.416901
-0.464718
-2.29433
1.90777
-0.67064
0.942998
1.41455
-0.0191255
-0.407356
-0.343738
-0.286335
-0.429905
-2.64012
1.68454
-1.36278
0.930994
0.338449
-0.141603
-0.113755
-0.57905
0.617924
-0.250997
-1.80616
2.09495
-1.27841
0.681191
-0.0144134
0.594337
-0.497138
0.593684
0.779341
0.541577
-0.875836
0.845273
-1.59717
-0.384867
0.764239
-0.456144
-1.19109
0.414239
0.524419
0.685305
0.191335
-0.358994
-1.88531
0.869863
0.548942
0.327001
-0.511301
0.0415662
0.468432
0.445796
0.468777
0.465335
-2.00407
-0.528837
0.086778
0.549468
-0.729386
0.594777
0.323385
1.3616
0.380789
-0.642753
-1.43624
-0.666536
-0.0658281
0.0581109
-0.945835
0.279714
-0.312494
1.29497
0.291408
0.141464
-1.76923
0.524666
-0.0586627
0.274087
-1.46215
0.326217
-0.361978
0.756007
0.231554
0.177522
-1.72832
-0.280706
0.631526
0.401043
-1.45262
0.353548
-0.127227
1.56237
0.100094
-0.389382
-1.93817
-0.767369
-0.35712
-0.45087
-0.454514
0.374878
0.0414457
1.6158
-0.370757
-1.50778
-1.89592
0.293094
-0.320295
0.255598
-0.588662
0.0761471
-0.182822
2.22975
0.706522
-1.36689
-1.54791
-1.03131
-0.307806
-0.247611
-0.308529
0.79065
-0.501551
0.677715
0.165277
-1.34625
-1.21546
-0.564842
0.169924
0.117506
0.431413
0.560049
0.0882181
0.163309
1.11386
-0.647639
-1.5756
-1.31524
-0.28859
0.779581
0.70996
-0.328602
0.773347
-0.0938968
0.951779
-1.12109
-0.92312
-0.691682
-0.698513
0.98521
0.873247
-0.569301
0.196785
-1.02609
0.38995
-0.969192
-0.893808
-0.393588
-0.298829
0.843166
0.353274
-1.13728
0.501185
-1.43327
0.583046
-0.508684
-0.885487
-0.444375
-0.617872
0.118455
0.208562
-0.474621
0.616386
-0.808628
0.66169
-0.182916
-0.66922
0.298861
0.294321
-0.130273
-0.0275344
-0.581455
0.699806
-1.22692
0.797006
-0.169273
0.171124
-0.149719
-0.348087
-0.347713
-0.329184
0.462708
-0.171426
-0.349786
-0.0547733
0.235345
0.373592
0.559487
0.389006
0.449511
0.24857
-0.417943
0.619949
-0.218395
-0.112272
0.238483
-0.330043
0.464021
0.293333
0.268778
-0.0738548
-0.0930427
-0.0803401
0.0347597
-0.0279143
-0.53338
0.143685
0.0493894
-0.0151165
0.103565
0.0512282
0.486195
0.566653
-0.289022
-0.385511
-0.506759
-0.435681
0.0768464
0.0305643
-0.330862
0.295889
-0.0104101
0.119395
-0.130311
-0.507703
-0.121617
0.363535
0.363514
0.056848
0.372456
0.302736
0.452607
0.631485
-0.202102
-0.0990513
-0.0595137
0.0723307
0.264996
-0.53029
-0.405115
-0.582423
0.128797
0.407008
-0.0411882
-0.0262974
-0.415927
0.29035
-0.0399528
-0.227133
0.0973758
-0.0684713
0.0989841
0.628406
0.065707
0.475392
-0.471105
-0.396872
0.447699
0.37702
0.313728
-0.485484
-0.374339
0.525189
-0.508713
-0.678922
0.151658
-0.398896
0.383685
0.578987
0.336477
-0.129714
-0.102714
-0.0302025
-0.367094
-1.11194
0.390458
-1.20834
1.00273
-0.0124848
0.915845
-0.104396
0.136703
0.848259
-0.42065
-1.26785
1.60514
-1.39502
0.425874
1.06862
0.519012
0.115753
-0.733967
0.974589
-0.410299
-1.44269
1.25971
-1.31604
0.545012
0.633735
2.01931
-0.12909
-0.388343
0.853282
-0.626408
-2.71595
3.03537
-1.79701
-0.108834
1.12141
2.6237
-0.858345
-1.21487
0.214404
0.26028
-1.72826
2.55571
-1.22177
-0.125177
1.01052
1.43493
-0.658233
-0.40049
0.603831
1.14516
-1.37314
2.44627
-1.51189
0.656808
1.35057
1.59229
-1.35026
-0.641524
0.537326
0.653462
-1.781
2.06353
-1.91775
-0.26877
1.13548
1.9784
-0.689245
-0.670852
0.468029
0.659195
-1.75477
2.60982
-1.86463
0.0893328
0.052385
2.01532
-0.542257
0.0308881
0.315314
1.22161
-0.770968
1.6242
-1.61144
-0.413534
0.480263
1.73578
-0.273794
0.211192
0.205588
0.532033
-1.55207
1.44543
-1.45191
-0.321319
-0.329481
1.08186
-0.132992
0.388467
0.908583
1.09635
-1.56455
0.586026
-2.76542
-0.506435
0.0992799
1.83867
0.53509
0.6969
0.629099
0.708864
-1.4277
1.7401
-1.59435
-1.24961
0.435103
1.15051
0.211039
1.24143
0.856596
0.91669
-1.14286
1.41327
-2.05214
-1.34012
1.27873
1.12646
0.761745
-0.204501
0.796541
0.0522325
-1.58267
1.77257
-2.64928
-0.956628
0.670828
1.2891
1.09119
0.354071
0.951531
-0.536912
-1.62844
1.66442
-1.88314
-0.879963
0.582894
1.10411
0.567821
-0.290565
0.958767
-0.636752
-0.367487
0.687945
-0.807199
-1.00109
0.685129
1.19959
0.465624
0.199364
0.862685
-1.15407
0.667487
0.910878
-0.960176
-0.484068
0.140034
0.495726
-0.161929
-0.350052
0.951359
-0.368213
0.060979
0.25971
-0.313149
-0.176887
-0.157848
0.584508
-0.523243
0.202744
0.238171
-1.09721
0.411408
0.456693
-0.469377
0.0952467
-0.140057
-0.152941
-0.303331
-0.312377
-0.100187
-0.306731
0.141241
-0.115951
0.344921
-0.064511
-0.52334
-0.38798
-0.0681883
-0.0466847
-0.211739
-0.209426
0.0980887
0.175438
0.0458
-0.123394
0.340781
-0.514958
-0.0811435
-0.430852
-0.125811
-0.532156
-0.0761282
0.0960669
-0.416687
0.0735213
-0.0447461
0.305049
0.219696
0.468586
0.244485
-0.470386
-0.407983
-0.461843
-0.0371262
0.542536
-0.426876
-0.493818
0.217444
0.455264
0.514552
-0.561048
-0.499324
0.150641
0.223244
-0.262779
-0.0725585
-0.306768
-0.029461
0.398778
0.593173
0.158268
0.402261
0.0711037
0.0582549
0.105716
-0.0551422
0.00426539
-0.553681
-0.433631
0.475017
0.109269
0.316596
-0.524322
-0.388953
0.10383
-0.303495
-0.482575
-0.444566
0.346555
0.411812
-0.188057
-0.434165
-0.540254
-0.132703
0.648194
0.324042
0.430719
0.107586
0.089989
-0.0404764
-0.471707
-0.589649
-0.0554907
-0.247851
0.108738
0.27139
0.331391
-0.0893196
0.0321084
0.843004
-0.244835
-0.0857787
-0.0992003
-0.62887
0.44101
0.0459054
0.733199
0.358238
-0.545541
0.734496
-0.679363
-0.0442023
-0.00484223
-0.468638
0.080799
-0.0182119
0.579765
0.875565
-0.471677
0.100228
-1.16644
-0.496286
0.732606
-0.487035
-0.0291724
-0.0985559
0.271434
1.34712
0.063192
-0.0417591
-0.708213
-1.08574
1.14975
-0.456174
-0.419928
0.821808
1.58134
0.698062
-0.505802
0.125079
-0.943369
-0.802865
1.53786
-0.432501
-0.350376
0.257102
0.627975
0.745709
-0.838258
0.332848
-0.194119
-0.732355
1.89054
-1.04909
-0.824802
-0.232163
0.619412
0.221101
-0.699745
-0.265162
-0.0428389
-1.33222
1.64047
-1.09778
-0.807713
-0.0939606
1.19348
0.73169
0.150922
0.0903075
-0.0868709
-0.0920732
1.61529
-0.934545
-0.824695
0.181061
1.57478
0.170377
0.412373
0.763565
-0.543252
-0.790318
1.96781
-1.56749
-1.17771
0.332457
1.19309
0.941568
-0.498964
0.570537
-0.360298
-0.696468
2.59825
-0.972885
-1.09213
0.169859
1.3919
0.35532
-0.39974
0.293033
0.303602
-0.669834
2.21936
-1.1614
-0.733212
0.183019
1.02093
0.0381468
0.0373389
0.385646
-0.416935
-0.454479
2.24773
-1.08322
-0.0796709
0.208923
0.835702
0.837532
0.0686003
0.277762
0.161371
-1.53991
1.75577
-0.593608
-0.204828
-0.000300701
0.970521
0.892654
0.582052
0.413825
-0.278864
-1.96978
2.33453
-0.523267
-0.447354
0.0423197
0.283288
0.201431
0.26184
0.692995
0.26076
-0.989382
0.821344
-0.554039
-0.348133
0.0859993
0.827038
0.58552
-0.469846
0.299019
-0.680474
-0.657221
0.685723
-0.213339
-0.0734674
-0.286294
0.801864
0.294108
-0.182676
0.108765
-0.95027
0.16104
-0.0607979
-0.428291
-0.314495
-0.483972
0.0815202
0.0556751
-0.256126
0.43559
-0.528072
0.115908
0.565438
-0.122882
0.101749
-0.407511
-0.0923819
-0.364149
-0.114929
0.00335888
-0.16159
0.27701
-0.491911
-0.0919556
-0.297603
-0.440058
0.217388
0.153568
-0.189562
-0.0812932
-0.0606574
0.467906
-0.168685
-0.164159
0.0158868
0.245605
-0.344827
-0.22126
-0.313986
0.274266
0.129265
-0.341663
0.296135
0.056469
0.525726
-0.318281
0.420421
-0.218491
0.170393
0.447618
0.0634118
-0.074816
0.179911
0.16726
0.550171
-0.39779
-0.460283
-0.201261
0.304148
0.187885
-0.0792894
-0.31596
0.243805
-0.0880265
-0.157809
-0.305429
-0.22764
-0.422894
-0.314324
0.447961
-0.182404
-0.279855
-0.223954
0.38238
0.000969122
-0.144138
0.487956
-0.0373592
0.227046
0.743285
-0.456831
-0.168624
-0.028616
0.188403
0.495844
-0.431373
-0.0194218
-0.00870325
0.066792
0.18389
-0.639254
-0.147752
-0.15329
-0.404028
0.551863
0.202152
0.0074263
-0.00796424
0.50333
-0.0517714
-0.321366
-0.452372
-0.512159
0.0233046
-0.161576
-0.328204
-0.388445
-0.254993
0.0547433
0.555581
-0.0778426
0.241658
-0.374827
0.25939
-0.271173
-0.153357
-0.440323
0.213672
0.00670693
0.0539722
-0.780632
-0.438399
-0.0993446
-0.013878
0.633284
-0.295374
0.0650508
-0.391672
0.301008
0.345973
0.16609
-0.465721
-0.131429
0.41271
0.00538134
0.0522477
-0.167729
0.309994
0.155116
0.102941
-0.479526
-0.232546
-0.123529
0.212381
0.0832623
-0.104657
-0.337547
0.0388645
0.0819861
0.1922
-0.473597
0.215551
0.21127
-0.266809
0.280834
-0.189937
0.558282
-0.171131
0.397555
0.405309
-0.252417
-0.303454
0.0120194
0.0867991
-0.0560627
0.241092
0.15457
-0.00451114
0.158613
0.0370764
-0.540821
-0.161144
0.418837
0.113341
-0.186732
0.124573
0.065895
-0.116295
-0.109878
0.0922287
-0.480792
-0.387783
0.0467624
-0.617745
0.00744849
0.230818
0.0154175
0.394941
-0.442265
0.165615
-0.086582
-0.276717
0.151891
-0.370298
0.536308
0.124555
-0.0140302
-0.433185
0.509608
0.0754355
-0.0574669
-0.459797
0.477626
-0.556696
-0.571351
0.239301
0.478179
0.477409
-0.329624
-0.149526
0.221454
-0.179561
0.619197
0.087621
0.127255
-0.257802
0.266724
0.215066
-0.465123
-0.127299
-0.163541
0.187909
0.197504
0.36984
-0.192192
-0.548173
0.636027
-0.201626
-0.0959277
-0.125324
-0.169752
-0.233982
-0.0733047
-0.387526
0.385628
-0.460971
-0.282901
-0.0273762
-0.0944256
0.152231
-0.643352
-0.20497
0.234152
0.310459
0.0981437
0.122821
-0.0917027
-0.131542
-0.218922
0.366652
-0.392599
0.0513709
0.692104
-0.349866
0.497935
0.299915
-0.442368
0.365187
0.106075
-0.202694
-0.357947
-0.0522346
0.0858516
-0.215468
0.173693
0.00358708
-0.44248
-0.4448
-0.150293
0.518082
-0.134596
0.270428
0.00605961
0.29154
0.118883
0.227972
0.0407595
-0.179969
-0.0533284
-0.218587
-0.787283
-0.403674
-0.443141
-0.326351
0.512251
0.0611863
-0.0167819
0.0633935
0.392249
-0.0818447
-0.62144
0.232767
-0.212969
0.457646
-0.250302
0.33349
0.129777
-0.11458
-0.140828
-0.205601
-0.733574
0.404693
-0.465266
0.468749
0.0936664
-0.377932
-0.0706287
-0.466103
0.428962
0.0866433
-0.623056
-0.241204
-0.0415271
-0.213206
0.62543
0.339425
0.288473
0.0636907
0.130692
0.492211
-0.407
0.0341398
-0.0841842
-0.0943524
-0.144219
-0.168216
0.470954
-0.16414
-0.425614
-0.0108084
0.101616
-0.21915
-0.221866
-0.406182
-0.341455
-0.3974
0.0184435
0.255824
-0.391946
0.648568
-0.155207
-0.42167
-0.285414
