0.0801074
-0.0606097
0.141926
0.21407
-0.108537
0.130022
0.0162114
0.158903
-0.460646
0.649132
-0.411811
-0.276096
0.216426
0.373833
-0.291605
0.374628
0.0101911
-0.560616
-0.185301
-0.215374
0.129596
-0.171461
-0.413375
0.378016
-0.0130048
0.347021
-0.133821
-0.360988
-0.38322
0.454874
-0.0418542
0.400831
0.228679
-0.210603
-0.102163
0.101713
0.116238
0.0218726
0.3904
-0.507635
-0.130309
0.124746
-0.542707
-0.014873
0.571729
-0.269596
0.467209
-0.508921
0.268185
-0.148401
0.171889
0.189838
-0.481456
-0.0908341
-0.18135
0.243497
0.302844
-0.173138
-0.284586
0.13169
0.310706
0.295586
-0.514133
-0.205846
-0.357793
0.0988291
-0.27112
-0.138693
-0.134318
0.182836
0.0393481
0.379909
0.384986
0.0490395
-0.333234
-0.424222
0.223018
-0.295428
-0.274477
-0.0933644
-0.227447
0.408609
0.127789
0.387197
0.173966
-0.147219
0.0755427
0.274761
-0.517283
0.165666
-0.412959
-0.404367
-0.0367048
-0.321644
0.189731
0.329483
0.0121077
-0.735777
0.043835
-0.437592
-0.0476559
0.574636
-0.508704
-0.109988
-0.0683357
-0.150467
-0.143759
0.0585405
-0.133375
-0.218512
0.177843
-0.259045
-0.250656
-0.00839341
-0.412054
-0.132522
0.456257
-0.229555
-0.474943
-0.315719
-0.219204
-0.127019
0.219428
-0.307855
0.570295
-0.35794
0.351512
0.332814
0.45541
0.498921
0.107517
0.160855
-0.526715
0.328186
0.424832
-0.0351648
0.180336
-0.186726
0.424967
-0.385027
0.578741
0.0347038
-0.245901
0.00502711
0.422769
0.194576
0.144857
-0.407522
-0.132189
0.162406
0.269818
0.138168
-0.133075
-0.125982
-0.433368
0.136644
0.112176
-0.314626
0.0989471
-0.460664
0.264556
0.435533
-0.00545192
-0.456745
0.133715
-0.262446
-0.226536
-0.015617
-0.307464
0.454877
-0.443469
0.13643
0.305164
0.0687857
0.403793
0.161943
-0.49961
0.00711607
-0.0858451
0.157333
0.537125
0.471095
0.338298
-0.544947
-0.0451254
0.337677
-0.386398
-0.476583
-0.183257
0.187015
0.355398
0.162767
-0.161992
0.184301
-0.18164
-0.0961894
-0.502119
-0.172653
0.148449
-0.48421
0.263469
0.0911015
0.205454
-0.22259
0.384765
0.0449387
0.107112
-0.103293
-0.384195
0.500742
-0.0933937
-0.0530366
0.103551
-0.392208
0.106228
0.230883
-0.337224
-0.00977391
-0.142848
-0.108204
-0.0620703
-0.134853
-0.298216
-0.0611634
0.571058
0.354354
0.540068
0.264645
-0.488834
-0.0258945
-0.32024
-0.270889
0.279463
-0.281935
0.349165
0.283879
0.0547551
-0.021445
0.401421
-0.355399
0.117028
0.295187
-0.260955
-0.341112
0.332155
0.147981
-0.170885
-0.379188
-0.427649
-0.0686569
-0.416193
0.547678
-0.370125
-0.106163
-0.11361
0.0781259
0.0635485
-0.854933
0.455654
-0.520839
0.650863
0.199442
-0.0934185
-0.376333
-0.341713
0.0471306
0.282037
0.358332
-0.164713
0.645162
0.469725
0.419936
0.145528
-0.536244
0.103548
-0.413218
-0.0428808
-0.686029
-0.157077
0.0989101
0.655464
0.295235
-0.212049
0.410418
0.283112
0.577227
0.234078
-0.217435
-0.384104
0.429723
0.0895235
-0.0958644
-0.064231
-0.444354
-0.290869
0.278129
0.320733
-0.577772
-0.0610286
-0.123308
0.598782
0.116204
0.276841
-0.0616875
-0.322721
0.263082
0.37501
-0.343033
-0.536788
0.644253
-0.19475
0.522571
0.259127
0.253883
0.395521
0.361897
0.195244
0.118223
-0.528198
0.0465013
0.508555
-0.0969341
-0.360842
0.111515
0.405783
-0.158182
0.487144
0.305862
-0.505593
0.440026
0.226603
-0.373634
-0.0730353
0.275696
0.00490612
0.274599
0.292718
-0.513735
-0.499993
-0.275632
-0.293216
-0.124629
0.00724945
0.115319
-0.0219463
0.300935
-0.180233
-0.13864
0.225788
0.474898
-0.386575
0.169054
-0.453977
0.020659
0.0372221
0.0507129
0.0374774
-0.143481
0.300376
-0.498092
0.167503
-0.490891
-0.390656
-0.285671
0.0297723
0.217006
0.31485
0.252154
0.581888
-0.447898
0.0617925
-0.393996
-0.273458
0.220717
0.121764
0.0592306
0.161702
0.439342
0.312817
0.0958753
0.322919
-0.354544
-0.279067
-0.418127
-0.611665
-0.0510043
-0.11761
0.92559
1.52299
-0.57843
-1.00483
-1.46054
-0.696739
0.361397
-0.302013
-0.937401
1.69836
1.05702
0.347507
0.653474
-0.105309
-0.866133
-0.406112
-0.0649838
-0.0465187
-0.596277
0.0122948
0.630914
2.95359
-1.078
-0.847288
-2.18982
-1.48087
0.421809
0.025853
-0.913726
1.76127
1.20963
0.820087
0.507609
0.267739
-0.409245
-1.45078
-1.16293
0.144711
-0.567162
0.129926
1.20378
2.86704
-0.532465
-1.5197
-1.48258
-1.69762
0.457137
-0.552557
-1.42394
1.80095
0.635319
0.656588
1.20234
0.791059
-0.763225
-2.50402
-0.375488
-0.500655
-0.629496
0.530514
0.831167
4.07556
-0.429323
-1.81645
-0.497445
-2.33771
0.7646
-0.227037
-2.98271
1.80011
1.22597
0.445195
1.3621
1.85379
-0.906115
-3.03956
-0.733454
-0.572774
-0.670852
0.773603
0.705119
3.9689
-0.194632
-2.75485
0.0181056
-1.68538
-0.132463
-0.658377
-3.16884
2.15463
0.0565224
1.21738
1.39741
1.27224
0.090062
-2.26711
-0.867762
-0.206577
-0.331407
0.499161
0.192286
2.27611
0.156326
-2.0406
-0.173192
-1.46086
0.447223
-0.00383226
-1.75839
1.06508
-0.0215402
0.307211
1.11208
1.04961
0.229081
-1.13716
0.0556297
-0.0563621
-0.366454
-0.247808
-0.0870529
0.77654
0.440314
-0.302811
0.00565337
-0.366273
-0.226493
0.0707795
-0.964872
0.656902
0.107743
-0.407722
0.692456
0.0335108
0.345985
-0.036479
0.0411291
0.114702
0.607171
-0.150951
-0.178107
-0.152457
0.189489
0.371732
-0.304072
0.389432
0.133439
0.0238499
-0.652983
-0.296283
-0.389708
-0.0252571
-0.124908
0.359257
-0.109013
0.26522
0.0233613
0.32794
-0.091134
0.512987
0.124777
0.0684956
0.444432
-0.184412
0.368543
-0.360578
-0.257843
-0.406579
-0.228184
-0.407275
-0.0606743
-0.365293
0.134102
-0.103025
0.0964128
0.172581
0.0152489
-0.0454561
0.614226
-0.285177
-0.0773317
0.309739
0.0672912
0.444229
0.365916
0.344366
0.198359
-0.158872
0.0697322
0.00485739
-0.849366
0.412925
0.0808878
0.177447
0.447504
0.167529
-0.420104
-0.144324
0.484467
0.402821
0.121713
-0.114054
0.35516
-0.262891
0.436539
-0.0624836
-0.0870328
-0.322126
-0.228829
-0.169896
-0.488256
-0.463206
0.176929
0.354684
0.299556
-0.203286
-0.647325
-0.132458
0.40526
0.114291
-0.402363
-0.336865
0.139378
0.247566
-0.326848
0.319328
0.388187
-0.0817608
0.306212
0.289607
-0.252526
-0.180249
-0.47867
-0.648173
0.0874429
0.511236
0.152371
-0.289086
0.0230996
0.0368475
0.409871
-0.0564752
-0.6699
1.16496
-1.46675
0.188793
0.131606
0.133057
0.811098
1.3
0.731001
-0.895046
0.0742045
-1.32351
-1.20713
1.13457
-0.709195
-0.2706
-0.576559
-0.405193
0.0146962
0.331833
-0.924876
0.658067
-2.49848
-0.163827
0.433637
-0.385509
1.48349
1.54525
2.05345
-0.46466
0.376437
-1.23162
-1.21305
0.677271
-0.267961
-0.448035
-1.55321
-0.624828
0.82106
0.467202
-0.752178
0.020528
-2.88392
-0.851037
0.899751
-0.263114
2.01081
2.14145
2.12825
-0.485163
0.0303598
-1.54876
-2.23309
0.237083
0.0599879
-0.846565
-1.69899
-1.22447
0.668749
0.385047
-0.512504
-0.0239327
-2.58184
-0.524658
-0.177897
0.924115
2.74009
2.52756
2.84085
-1.44958
1.16602
-0.78203
-2.59522
-1.8318
-0.327765
-1.92899
-2.4134
-1.30242
1.10829
1.62841
-0.896273
-0.831379
-1.55299
-0.875114
-0.487716
0.768632
1.23792
2.56269
4.20559
-1.59498
2.66354
1.00131
-2.81186
-2.73322
0.593194
-1.57802
-2.09605
-0.0932962
1.80229
2.67531
1.10922
-2.62411
0.276098
-2.26496
0.138452
0.600723
-1.17588
1.68026
3.27629
-0.840155
2.9665
1.96784
-0.982728
-2.46116
-0.23672
-1.6876
-1.18639
0.704118
1.15548
2.56596
1.81201
-3.4741
1.46241
-1.87318
-0.917478
0.315361
-1.06522
0.613538
0.977182
-0.431518
1.51917
2.03454
0.145947
-2.54907
-0.468417
-0.103188
-0.342808
0.211924
0.0945257
1.11252
1.5622
-3.06366
1.18648
-1.0263
-1.08513
0.0388026
-0.375835
-0.632645
-1.5504
0.07087
0.99632
1.68942
1.26429
-1.74423
-0.369044
-0.0468932
1.05566
1.01707
0.586469
0.920208
2.3124
-2.44064
1.51325
-0.364277
-1.01608
-0.238962
-1.1357
-0.871652
-2.46994
0.0616717
-0.331906
1.23734
1.24834
-0.638024
0.455906
0.00486651
1.05335
0.485925
-0.33658
0.0311295
0.871755
-1.13186
0.427447
-0.120829
-0.15435
-0.428333
-0.160632
-0.712826
-0.876464
0.309126
-0.944772
-0.263399
0.424006
-0.409251
-0.31488
0.46098
-0.221447
0.200617
-0.14516
0.217536
0.457556
-0.259715
0.24224
0.258304
-0.462182
-0.124047
-0.383354
-0.33019
-0.221438
-0.296122
0.0283901
-0.197032
-0.175651
0.290303
0.241952
0.588925
0.453809
0.446985
-0.307346
-0.53325
0.611602
0.325141
-0.365949
0.0661677
-0.425132
0.199263
-0.00921306
0.0566301
0.0990954
-0.102309
0.18426
0.155521
0.0464401
0.503993
-0.380715
0.48021
0.347217
0.190714
-0.109404
-0.107857
-0.271775
0.665022
0.193868
0.638312
-0.309865
-0.184421
-0.322403
-0.00930377
-0.173442
-0.413661
-0.0433318
-0.591612
-0.510208
0.888651
-0.522623
-0.343216
0.034758
0.295654
-0.410295
-1.19745
-0.373674
2.14524
-1.49872
-0.064807
-0.134669
-0.126715
0.748495
0.687167
0.560255
-0.458719
-0.428182
-1.59539
-0.572844
0.219356
-0.689798
-0.398484
-0.463367
-0.356307
0.327199
-2.05166
0.537753
1.34881
-1.61384
0.059116
0.148664
-0.498833
0.489095
1.71993
1.43507
-1.49303
-0.143238
-0.915128
-0.523978
0.876231
-0.171576
-0.704897
-1.42773
0.252018
-0.105592
-1.83432
1.48364
1.60783
-2.2233
-0.426275
1.07566
-0.447106
0.225891
1.89319
1.51123
-1.33563
-0.302659
-2.02903
-1.37332
1.59226
0.203794
-0.595627
-0.544417
-0.482347
-0.337342
-1.7614
0.0186803
1.90629
-1.93612
-0.1504
0.595577
-0.280785
2.06221
0.997383
2.59976
-1.45386
-0.123319
-2.87961
-1.03306
2.63032
1.46159
1.2617
0.672759
-2.24946
-0.487746
-0.454605
-4.22446
2.71045
-1.0331
2.34878
-0.908085
1.49494
5.14459
-0.758538
2.21392
0.239138
-0.21641
-2.7708
-1.54175
4.83578
2.24233
1.73916
1.29246
-2.88677
-0.69855
1.30044
-8.19708
3.69424
-0.442209
3.08655
0.180527
1.44407
4.34463
-1.69502
2.11361
1.25593
-1.02969
-2.16256
-0.698415
4.15792
1.99853
1.24784
0.484709
-1.19211
-1.16306
-0.984134
-4.19325
2.34492
1.23945
2.89612
0.458969
0.668538
3.26557
-2.45462
1.166
1.79801
-1.29388
-1.26038
-0.11318
2.64488
1.48289
-0.174348
0.111456
0.289538
-0.612046
-2.1562
0.840427
-0.736884
1.22803
0.950277
0.463517
0.397139
1.51861
-1.57596
-0.321652
0.878653
-0.268921
-0.282862
1.2164
1.86821
0.988008
-0.712151
-0.443303
0.715735
-0.473308
-1.30676
2.78955
-1.69547
-0.0756633
-0.292155
-0.320481
0.061935
0.717661
-1.75315
-0.559545
1.07106
0.172233
1.14726
1.22796
1.04097
0.84869
-0.793438
0.642279
0.915947
-0.033758
0.42653
3.13246
-4.02148
1.19413
-1.27226
-0.571495
-1.44712
-0.168929
-1.74481
-1.87757
1.51835
-0.140399
0.797447
1.84864
1.08111
0.9683
0.484674
0.299747
0.19195
-0.291118
1.38626
1.52193
-3.93816
-0.0346768
-0.834663
-0.151153
-0.962915
-0.101734
-1.83493
-2.19092
1.50511
-1.56534
0.404669
0.685348
0.362374
0.0200904
0.521585
-0.361185
0.075886
0.444365
0.251167
0.148166
-0.496712
0.26209
-0.358729
-0.0780389
-0.451877
-0.0272822
0.215724
-0.176284
-0.205937
-0.675401
0.604603
0.539881
0.291926
0.393696
-0.116032
-0.317617
0.484952
-0.186784
-0.573738
-0.135291
0.520355
0.01188
-0.182554
0.0657242
0.253573
0.0556995
-0.360896
-0.777505
0.454375
-0.436242
-0.123307
0.634486
0.185751
-0.159033
0.598983
0.453973
0.00745748
-0.411198
-1.32915
-0.136331
1.24435
-0.34064
0.116533
0.619865
0.433865
0.535538
-0.175237
-0.302084
0.108636
-0.170793
-1.6267
0.0319385
1.50573
-0.393915
0.363131
-0.196263
0.325348
0.060046
-2.95412
0.471111
2.55557
-1.46229
1.04128
0.29355
-0.20318
1.51874
0.140711
0.444559
-1.19788
-0.759542
-0.666368
0.251809
0.314058
-0.288357
-0.983689
-0.931434
0.287864
-0.67998
-2.525
2.23053
1.74873
-0.493274
0.271646
0.177811
-0.14249
0.178346
-0.0829915
-0.0487971
-1.42724
-0.116103
-0.515002
0.955533
0.0424137
-0.165127
-0.428201
-0.331877
0.0577526
0.162265
-2.71594
2.17349
0.674616
0.606762
1.16744
-0.711943
0.0917531
1.09959
-0.83689
-0.875544
-1.65194
-0.363059
-0.151971
1.20596
0.918031
0.836287
0.469623
1.26061
0.118675
-0.661843
-2.52649
1.17102
1.26062
2.82971
1.91609
-1.16857
-0.867062
0.191257
-2.06745
-1.46721
0.646028
-1.11502
-1.1763
1.22151
2.23183
0.120245
0.485473
0.662076
-0.741635
-1.41946
-1.11194
-1.54002
2.42036
2.19249
2.13078
0.506139
-0.390902
-0.639868
-1.33789
-1.45957
1.98065
-0.918218
-2.51231
0.944692
3.42755
-1.26876
2.02484
-0.232074
-2.03553
-1.06386
-2.03175
-4.83231
6.37774
-3.83168
2.61428
0.794969
1.84766
2.26452
-0.329595
0.136926
0.410788
-1.25159
-3.94887
0.319552
4.97612
-0.583592
0.12386
-0.117756
-0.376253
-1.23823
-4.3376
-2.51969
6.28695
-1.68284
2.44792
2.37709
0.313253
1.79227
-0.636902
0.816413
0.0912676
-1.80898
-2.78095
-0.172202
4.4227
0.490822
-1.40206
-0.334281
0.00760587
-1.78249
-4.59878
0.307146
2.71194
1.40419
2.00377
0.999052
-0.533294
1.48875
-1.11746
0.773469
0.277087
-0.234351
-2.68642
0.0244495
3.69481
1.62156
-1.40507
-1.17568
-0.412046
-1.10555
-2.43587
0.595633
0.571428
0.383992
1.2185
0.618929
0.309607
2.15113
-1.77875
1.49076
0.467568
0.134172
-1.84356
0.10599
2.56805
0.740874
-0.950027
-0.548109
-0.208971
-0.502668
-0.307543
1.32049
-1.91977
-0.0228672
0.499071
0.260138
-0.32287
1.06826
-1.55032
0.872229
1.20539
-1.00228
-0.60888
1.42999
1.93432
0.650736
0.0764952
0.490531
-0.405589
-0.124248
2.28099
0.697098
-3.82407
0.125119
-0.595362
0.463137
-0.89418
0.857353
-1.07898
-0.967539
2.71164
-1.80637
-0.158391
0.400164
0.588927
-0.308038
0.418949
0.334633
-0.185986
-0.244787
-0.0586124
-0.190825
-0.21809
-0.621798
0.0680833
0.297491
-0.499183
0.518188
-0.00290967
0.234091
0.310689
-0.340363
-0.0612822
0.295584
-0.128628
0.314012
-0.253986
-0.0835162
0.35106
0.216022
-0.194008
0.150225
0.525934
-0.370711
0.104005
-0.314334
0.0949534
0.235494
-0.422069
-0.480552
0.382565
-0.111316
-0.642523
0.768999
0.744714
-0.292776
0.416571
-0.0120233
0.195534
0.177526
-1.81001
0.263023
0.966811
-0.480662
0.150544
0.56223
-0.371704
0.338242
-0.609795
-0.914173
-0.498818
-0.168015
-0.517593
1.18783
0.488151
0.369869
0.608526
0.954923
-0.0534915
-0.731702
-1.49448
1.04205
1.29052
0.4555
1.3054
0.328034
-0.290444
0.257711
-1.39073
-1.48054
-0.678136
-0.806829
1.05583
2.44836
-0.15006
0.914507
0.310894
1.51231
0.485624
-0.2912
-0.712625
1.56368
-1.27796
2.45259
0.441067
-0.532125
-0.625181
-0.0330573
-2.36444
-2.64874
0.98791
-1.45977
2.05952
3.05326
-0.560985
1.18576
1.04243
2.48841
-0.109204
-0.855899
-0.552094
2.13718
-1.86369
3.62627
1.49958
-2.01093
-0.534018
0.217959
-3.23767
-3.95873
0.305426
-1.65857
1.35807
3.02748
0.475611
1.78858
-0.0997923
2.93965
1.07998
-1.04543
-0.32396
3.57915
-3.76665
7.31327
0.156012
-0.316568
-1.9445
-3.32766
-4.30527
-3.93782
2.87739
-2.52496
0.676337
2.90418
1.44321
0.340274
1.39684
1.06072
-0.0269516
-0.601704
-0.791265
2.08506
-0.930738
1.73591
0.778863
0.0406967
-0.346202
-1.47805
-3.4263
-4.11146
1.78265
-3.26116
0.300243
1.74272
0.80596
-1.93864
2.2377
-0.410947
-1.89387
-0.889211
-3.14873
-0.697813
3.77259
-4.32816
1.46878
0.602415
1.71779
2.98505
-0.28371
-1.9942
-1.47229
-2.68007
-0.576331
1.05582
0.769662
-1.37394
0.272109
0.417807
-0.247561
-0.714945
-5.73918
1.23703
5.1029
-1.0837
1.5681
-0.35484
0.655716
2.00016
-0.190572
-0.930245
-2.53575
-0.644819
-1.26662
-0.544985
0.777724
1.18772
-0.429153
0.477118
0.436265
-0.133744
-5.18784
-0.206341
4.50656
2.03862
2.82293
-0.52133
0.974848
1.74899
-0.535849
1.00021
-2.49065
1.03915
-2.0547
-1.93753
1.21075
1.00243
-1.25698
-0.473066
-0.962638
-0.278046
-1.71742
-1.15158
3.17492
2.51678
2.69522
-0.957034
0.828814
1.54686
-1.23248
2.24489
-0.640739
1.09608
-0.840653
-0.527072
1.55501
0.540808
-0.733444
-0.626532
-0.397895
-0.37851
-0.455196
0.0680604
0.11919
2.00886
0.481814
0.317044
0.164416
-0.460119
-1.16166
1.61272
0.262727
0.785286
-0.816216
-0.412598
0.860635
-0.18733
-0.715512
-0.712624
-0.491742
-0.531342
0.635641
0.0336709
-1.05794
-0.108319
-0.0688694
0.848531
-0.69713
0.527505
-0.448631
0.872604
0.439915
-0.837903
-0.153134
-0.106066
0.0488182
0.383042
0.381798
0.236126
-0.131942
-0.526172
0.376473
0.587191
-0.109921
0.0158176
0.11957
0.366603
-0.218737
-0.0107651
-0.194341
-0.771994
-0.415048
-0.316465
0.570881
0.14155
-0.114604
-0.466077
0.447475
0.493295
-0.260103
-0.305678
-0.324961
0.261195
-0.370883
-0.080135
0.140671
-0.219726
-0.0547537
0.0211628
-0.315993
-0.431583
-0.440281
-0.303629
0.0614036
0.607113
0.544224
-0.150344
0.727894
0.501184
0.244144
-0.152756
-0.888416
-0.242807
0.603465
-0.336761
0.316722
0.123676
-0.205835
0.578471
-0.590328
-0.291961
-0.648151
-0.63749
0.667749
1.3533
0.538737
0.793293
0.414206
1.33414
0.213741
-1.08753
-0.598884
0.987501
-0.221121
2.41072
0.0170054
0.242126
-0.923295
-1.05872
-2.37426
-2.08476
1.21075
-0.897655
2.05174
2.44027
-0.364977
0.795405
0.895836
2.29767
0.718864
-0.690785
0.771256
0.154243
-2.11292
4.69006
0.36741
-0.618686
-0.572211
-1.09117
-4.21204
-4.08982
1.4587
-2.20041
1.91198
2.23182
0.626354
0.771473
1.255
2.68883
0.783731
-0.470239
1.11552
0.684512
-3.14523
3.52367
0.144898
0.20812
-1.58306
-1.76501
-2.76946
-2.45275
2.23634
-2.47118
0.286732
0.684735
2.16107
0.586466
-0.0520943
1.74521
0.980507
-0.943598
3.30948
2.09042
-5.00467
3.9824
-1.70211
1.73814
-3.18603
-4.09555
-2.06965
-1.09308
4.37581
-3.15967
4.94657
0.710643
-3.42382
1.40903
1.32851
0.78371
-0.757156
1.01555
5.25358
-0.532953
-7.07839
0.995525
-2.06916
-2.49583
1.43726
2.29549
-2.51272
-1.80456
0.367225
-1.17721
4.94331
2.28255
-4.17819
-0.849483
3.5832
0.937607
-1.28808
0.915913
1.08778
-1.55213
-1.63449
-3.37401
0.518195
-4.71749
2.92417
6.51631
-1.15685
-3.26615
-2.89603
-0.0926447
2.98485
1.26094
-5.04045
-0.13568
2.53719
2.59055
-0.13795
0.387166
-2.86591
1.30228
1.33108
1.33507
1.81177
-3.58344
1.75576
3.4085
-0.822929
-2.24018
-4.09975
0.640137
1.60474
-0.0691592
-3.77648
0.445004
1.14172
2.11561
0.451713
-0.38159
-2.56148
0.2752
2.27511
2.78398
1.62089
-3.38297
0.793608
1.5377
-1.03016
-0.407506
-3.51289
1.68201
0.731601
-1.07647
-2.29283
0.142505
0.106384
0.618526
-0.19917
0.0232653
0.10342
-0.609676
1.25338
3.29836
1.40309
-1.74364
1.1028
-1.32013
-0.705699
-0.0387286
-1.01519
1.39589
0.173762
-0.711089
-0.603701
0.107095
-0.8166
-0.759196
0.487986
0.32249
1.82527
0.721594
-0.826425
2.96845
-0.873615
0.950443
-0.445342
-5.04324
0.460541
-0.261532
1.56721
0.445311
0.316065
0.0578964
-0.600713
-0.437916
-0.374601
-0.229285
0.28548
0.414129
0.967095
0.586475
-0.870146
0.614994
-0.227129
0.769307
-0.737843
-1.73869
0.00362361
0.115959
1.29728
-0.346634
-0.288052
-0.102799
-0.000120996
0.0736202
-0.170848
0.0275535
-0.437962
0.431528
0.256652
-0.102427
0.348186
-0.144164
0.397691
0.376874
-0.153302
0.38782
-0.598687
-0.0775791
-0.490303
-0.569207
0.47853
0.506686
-0.431015
-0.540077
0.604377
-0.109507
0.502003
0.321577
-0.230108
0.0629347
-0.366721
-0.388569
-0.305122
0.0111583
0.435196
0.27751
-0.18427
0.0645217
-0.365871
-0.212825
-0.286637
0.530692
-0.130383
-0.434708
-0.0376904
-0.233602
-0.0855515
-0.403585
-0.556418
0.367638
0.323524
-0.00364941
0.296473
0.0678204
0.525889
-0.298771
0.181295
-0.90231
-0.0246211
-0.142228
0.455189
-0.189877
0.0210336
0.784667
-0.465354
0.333426
0.65976
-0.882955
-0.0737829
0.839055
0.131195
2.64935
-0.0254762
0.375942
-0.61578
-2.82619
-1.41985
-1.33754
0.544673
-0.368544
1.2512
-0.0622914
-0.347932
0.69718
-0.656938
1.32708
1.00472
-0.0481928
1.08414
0.279065
-1.08387
4.19063
-0.796297
0.309952
-0.68834
-3.89268
-1.78059
-1.38783
1.38919
-0.787122
-0.544156
-1.05618
0.852204
0.428291
-0.0573781
1.53835
1.57796
-0.40313
2.58918
-1.1358
-0.948209
2.61058
-1.31904
1.7692
-1.97493
-4.70572
-0.055029
-0.240907
2.2289
-0.410516
1.69713
-1.40373
-2.11156
0.361377
-0.250482
1.30616
1.34076
0.189783
4.3893
-0.849202
-3.65939
1.45669
-2.42048
0.24925
-0.690247
-3.46239
1.51282
0.9386
1.28426
0.986472
5.14365
-0.339424
-6.12657
1.00989
1.2447
1.13186
-1.11631
1.67522
6.07432
-2.18317
-6.03131
-0.135927
-1.44619
-4.2801
2.22072
3.45952
0.286288
0.357265
-1.36135
2.90303
5.66661
1.799
-7.62542
-1.40137
2.67062
1.93722
-1.20277
1.53466
-0.164423
0.782766
-1.06409
-2.52345
0.0830197
-5.81325
2.42829
5.00233
0.646959
-3.45142
-5.56363
2.14089
1.88881
0.712785
-2.79027
-0.516343
0.980015
2.19596
0.856852
-0.57325
-2.51267
1.73788
1.40146
1.61659
0.413013
-2.07053
-0.308981
0.22915
-0.518343
-2.04968
-2.85777
0.0114755
1.00312
0.446046
-1.46466
-0.851979
1.14657
1.87015
0.74919
-0.657763
-2.92535
0.660548
2.66183
1.57033
0.719511
-0.239148
-0.508528
-1.35573
-0.463905
-1.76768
-1.14944
-1.11138
0.330729
0.627064
-1.0824
-0.83148
0.211332
0.146582
1.32555
0.154959
-0.361197
1.76494
0.794745
1.36463
-0.620576
1.3768
-0.944698
-4.34774
0.00601304
-1.09487
0.159685
-0.210279
1.00235
-0.307097
-1.36259
-1.21634
-1.12553
-0.631276
1.00086
0.482741
1.74716
1.35162
-1.37981
2.2766
-1.55049
1.66786
-0.875567
-5.60914
0.208134
-1.05486
1.52634
-0.315529
-0.0342985
-0.11992
-0.755976
-0.669162
-0.879541
-0.040154
0.374649
0.253482
0.434395
0.598383
-0.948336
0.583344
-0.328224
0.739155
-0.112824
-2.60133
0.178353
-0.131226
1.0016
0.00372667
-0.333984
-0.0173521
-0.0664286
-0.0803856
0.504762
0.14005
-0.0711481
-0.43715
-0.222123
-0.206
0.621042
-0.367436
-0.318868
-0.0839947
-0.446873
0.0278578
0.248429
0.141571
-0.394462
-0.353654
0.0689858
0.521856
0.213894
-0.249787
0.394994
-0.33871
-0.093207
-0.285733
0.313259
0.413922
0.512828
0.372576
0.154931
-0.452928
-0.0722753
-0.174645
-0.0541754
-0.659097
0.293003
-0.0190977
-0.576115
0.294018
0.581394
-0.153075
0.407868
0.378329
0.286093
0.13291
-0.432225
-0.278038
0.428249
-0.375793
0.459383
-0.198286
-0.207528
0.892342
0.150658
0.119938
-0.461606
-0.341009
-1.88507
-1.3559
0.904345
-0.520405
-1.0276
-0.0925034
0.377031
-0.111589
-0.99559
-0.522848
1.53115
0.438747
0.272488
1.67567
-0.798864
-1.16375
0.415891
0.875886
-0.139626
-0.0271901
-0.947301
-1.71686
-0.475693
0.167254
-1.09487
0.533825
0.955638
0.376459
-0.255499
-0.428586
0.379574
2.76784
-0.874778
0.82504
-1.10188
-3.7961
0.797755
0.861719
0.500528
1.23381
0.733812
-2.01002
-3.37159
-0.145979
-1.36931
0.315673
0.729739
1.25247
1.14472
-1.03035
0.486186
3.94588
-0.456448
-0.191048
-0.366747
-4.47823
1.00599
0.601027
0.579052
2.70864
1.36232
-1.86949
-5.27323
1.5082
-0.822722
1.04369
-0.279483
1.45423
2.76052
-0.970424
-1.57632
4.12722
0.305111
-2.68452
0.479325
-2.01535
1.50139
0.988605
-0.792215
4.32492
5.63564
0.873345
-9.16976
-0.389123
1.33193
0.352749
-0.365346
2.51725
-0.272008
1.58744
-1.67827
-0.288175
0.615031
-5.99387
2.30931
3.15123
1.76543
-1.01181
-5.10535
5.30816
4.63559
1.44935
-8.27236
-1.24973
0.385201
0.7859
0.817586
1.32055
-0.737857
2.86251
-1.4026
0.548726
0.403421
-4.70391
1.95504
0.619135
1.80884
-2.65427
-4.35952
4.20728
-0.389286
-0.40871
-0.953681
0.00349955
0.096421
1.44938
1.25329
-0.433784
-2.84537
1.30362
2.04432
2.63253
-0.0860958
0.442469
-1.49632
-2.90762
-0.245708
-0.81979
-0.479206
-0.286086
-2.06754
-0.145419
1.6808
-0.782464
-0.128086
0.216398
0.995389
-0.50856
-0.632487
-0.409881
2.01775
0.218866
-0.878466
2.4321
-1.90003
-3.99412
-0.331834
0.00550377
0.524244
-1.49568
-0.584611
-0.598599
0.521162
-1.46068
-0.307386
-0.578428
0.456742
0.223051
0.21942
-0.280202
0.619999
-1.47233
-1.13811
1.70589
-1.42699
-3.32096
1.17412
-0.0349944
0.598019
-1.21336
-0.295097
-0.84367
-0.619628
-0.878891
-0.227032
-0.869116
0.38767
0.354902
1.23904
0.466364
-0.0804483
-0.37841
-1.15567
0.970188
-0.948294
-2.39089
1.65047
1.00373
0.483584
0.0425155
-0.750402
-0.793734
-0.0573255
-0.276501
-0.864972
-1.06869
-0.242426
0.460659
0.79174
-0.122668
-0.167416
-0.296497
-0.476169
0.232834
-0.499994
-1.37299
1.1492
0.605924
0.418544
0.816236
0.044646
0.284842
-0.195674
0.415709
0.0927047
0.223318
-0.236374
0.366046
-0.313139
0.139432
-0.0875166
-0.0326822
-0.3888
0.279706
0.128917
0.272751
0.342793
-0.175238
-0.417764
-0.34468
0.428089
-0.149268
-0.144577
0.0230479
-0.335458
0.652239
-0.324289
0.337184
-0.059411
-0.0501876
-0.286186
0.305266
-0.450208
-0.240624
-0.448163
0.2806
-0.397495
0.0935298
0.436322
0.00117351
-0.186286
-0.440158
0.82149
-0.0514558
0.218294
-0.488006
-0.0187956
0.389736
-0.493552
-1.25342
1.10738
-1.78802
0.487702
0.0905995
0.0249959
1.04615
0.975905
0.413529
-1.0892
-0.524978
-2.80409
-1.01471
3.35818
0.230993
-0.770015
-1.32401
0.22546
-0.0396544
-0.408753
-1.50598
1.54081
-3.0318
-0.555336
2.17665
-0.763255
0.375929
1.52384
2.15224
0.91264
-0.162843
-2.12484
-1.40194
1.9702
0.0366662
-1.40058
-0.466975
-0.00339736
0.373736
0.767214
-1.02055
-0.423189
-0.624167
-0.251859
0.918607
-0.739415
-0.125409
0.857057
1.7794
1.01324
1.09487
0.806328
-2.62087
-4.04211
0.760598
-1.3716
-0.972916
-0.631579
1.45944
3.0226
-1.00258
-1.54705
1.32086
-0.743168
-1.38403
0.853968
-0.97909
2.24114
2.3547
0.0872019
4.22182
1.10338
-2.28686
-5.67642
0.347742
-1.7493
-1.83231
-0.233686
2.15903
3.43586
-0.685244
-1.25737
1.13075
-0.154027
-1.71933
1.23398
-1.0524
3.34238
2.42474
-1.18043
5.03579
2.03758
-0.87546
-6.0956
-1.64223
-0.947641
-0.963314
-0.260894
1.48591
1.37141
0.531907
-0.235519
-1.33019
0.142999
-2.3604
1.04206
-0.477518
3.4942
0.732763
-2.78252
4.63661
0.854353
-0.417454
-4.08908
-1.49851
-0.241988
-0.101373
0.719062
0.474869
0.565141
1.28505
0.311627
0.303726
-0.707949
0.160534
-0.526717
-3.26615
2.38162
-0.225654
-0.987621
2.23329
-1.53857
-1.7648
0.348272
0.0854165
-1.00197
-0.284372
0.797538
1.08282
2.97838
-1.00662
-0.638952
-0.528536
-1.27483
2.44093
-0.650559
-3.46779
2.04638
2.20321
1.1924
-0.0739921
-1.81333
-2.88106
0.985821
-0.879438
-0.950808
-1.57654
-0.0134304
0.31727
3.83522
-2.83279
-0.0561939
-2.47917
-1.82883
2.7064
-0.346833
-1.42819
3.005
3.70097
1.2902
-0.380263
-1.47126
-2.14702
0.0394455
-0.0297711
-0.966672
-0.84713
-0.314827
0.744504
2.62801
-1.66716
-0.521299
-2.58653
-1.30486
1.304
0.265726
0.193075
2.56222
2.63722
0.831161
0.413194
-1.64634
-1.73073
-0.295227
-0.723616
-0.733252
-1.98209
-0.609768
1.2535
1.45391
-1.09936
0.0939222
-2.19054
-1.55575
1.32093
-0.320719
-0.721645
2.91465
2.46361
0.361073
1.85529
-0.2751
-1.58146
-0.234124
0.113841
-1.30637
-1.31918
0.226954
0.328545
0.920758
0.129396
0.0200181
-0.809454
-0.513637
0.124002
-0.322768
0.238772
2.43891
1.56903
-0.42417
1.71407
0.074314
0.00994553
-0.514534
-0.224467
-0.00737084
0.443021
-0.0834203
0.0504437
-0.475427
-0.254276
0.252019
-0.0326511
0.0511793
-0.0415759
0.368425
-0.500499
0.197947
-0.317712
0.0962261
0.32684
-0.0970172
0.515836
-0.164427
-0.0487429
0.301196
0.0650008
0.250224
-0.0204069
-0.501881
-0.220961
-0.212682
0.34741
0.250302
-0.334234
-0.266153
-0.231864
-0.146422
-0.489229
0.105856
-0.480816
-0.567239
0.160481
0.86928
-0.814245
0.25192
-0.778366
-0.842549
0.43755
-0.101601
-0.807533
1.44535
-2.39789
-0.273887
0.474129
0.587217
1.56558
1.06897
0.477669
-1.03126
-0.573623
-3.07299
-0.949265
2.73496
-0.635619
0.0266586
-1.97917
-0.686176
-0.135828
0.274238
-2.07521
1.45739
-4.12718
-0.0966398
1.8543
-0.0602259
2.32263
1.6652
2.28407
-0.21214
0.237192
-2.29887
-1.19727
3.66177
0.0923576
-0.639402
-2.03429
-1.33549
-0.27779
1.12821
-2.42948
-0.674453
-4.55776
-0.0549957
1.89064
-0.134521
2.70125
1.27588
3.02782
1.22551
0.130435
-1.37039
-0.894326
1.38085
-0.668211
-1.11033
-3.16017
-0.888775
0.496128
2.79265
-0.512473
-1.527
-3.73938
-1.37839
1.16877
0.106166
1.30532
2.21998
2.97243
1.14691
1.13987
-0.757338
-1.03217
-0.473203
-0.964259
-1.97877
-3.41563
-0.384706
1.08382
4.01403
0.688589
-1.75135
-2.02358
-1.87685
2.17301
-0.107519
-1.9281
2.36906
2.7684
1.37774
0.794798
0.104161
0.514671
-1.03886
-1.5276
-0.586608
-1.95809
0.309643
0.805961
2.52429
0.5733
-1.7404
-1.92206
-1.23675
0.739748
-0.569515
-2.35462
2.07691
0.115373
0.827686
0.170247
0.549419
0.13591
-0.568916
-0.496436
-0.648946
-0.953043
-0.231484
0.244074
3.28286
0.501017
-1.8681
-0.973182
-1.50354
1.52612
-0.96776
-3.10556
1.42136
0.402932
1.24478
-0.197645
-0.0800529
-1.00654
-0.889118
-0.115188
-0.972831
-0.783144
-0.414413
0.488696
4.63571
-0.779359
-2.67046
-1.11852
-1.82818
1.17865
-0.259419
-1.83676
1.8132
1.77993
0.697617
0.353659
0.0747692
-2.02128
-0.300266
-0.304974
-1.07438
-0.770387
-0.0826111
0.641941
3.4403
-1.67261
-2.49695
-1.487
-2.04207
0.566838
-0.463473
0.376083
2.17502
2.05096
0.669258
1.21327
-1.14989
-1.92264
-0.0242929
0.195052
-1.24835
-1.10921
-0.58449
0.674671
1.55578
-0.94014
-1.34554
-2.08413
-1.27589
0.881208
-0.210264
0.764757
1.89158
2.71137
-0.205338
2.00682
-1.03786
-1.92316
-0.452227
0.0660093
-1.24285
-0.883059
0.150596
0.877748
0.76768
-0.939313
-0.63302
-1.52736
-1.11858
0.407864
0.437188
0.393056
2.6993
3.18788
-0.133037
2.46871
-0.315228
-1.0037
-0.985557
0.0722997
-0.364813
-0.79177
-0.289477
0.754646
0.0731406
0.204007
0.546425
-0.689105
-0.275795
0.0686601
0.0386389
-0.692327
1.55899
0.983605
-0.839083
1.18686
0.604303
0.239526
-0.0675351
0.0310056
-0.360312
-0.188114
-0.109546
-0.106825
-0.635717
0.27202
0.267457
-0.347981
0.448615
0.270447
0.0858374
0.0478093
0.0628495
-0.682221
-0.0736345
0.386793
0.447534
-0.0851831
0.397999
-0.310356
0.0440955
0.253843
0.498624
-0.0863243
0.0423102
0.415779
-0.185687
0.267044
-0.162857
0.262917
-0.38894
-0.500726
-0.580231
-0.235483
-0.411963
0.207566
-0.615309
0.375786
0.453385
0.0313552
-0.197837
-0.405502
0.0426555
-0.449734
0.311152
-0.0728777
0.478385
-0.907707
0.0434838
0.320579
0.296433
0.0970311
0.359635
-0.173308
-0.307308
0.25546
-1.71687
-1.0135
0.747063
-0.989257
-0.0962583
-1.05516
-0.556162
0.46316
-0.453877
-1.96981
1.85675
-3.05347
0.344242
0.821148
0.830139
1.78481
2.20683
2.12777
-0.53557
0.685561
-1.74144
-0.819483
1.78677
-0.496017
-0.252278
-2.11689
-0.824427
0.326952
-0.249804
-2.08726
2.01502
-3.71996
-0.257417
0.93376
1.10336
2.19523
1.40788
1.82797
0.143037
-0.321091
-2.69803
0.242674
3.85075
0.0646687
0.289807
-2.14111
-1.18796
-0.592462
-1.41527
-0.473838
1.73034
-3.16629
0.959511
1.60799
0.0191915
2.09263
0.207095
1.00932
0.47508
-0.890312
-2.30138
0.700686
4.92152
0.106504
-0.504132
-0.720912
-1.13339
-1.38141
-0.895734
-0.508448
0.173469
-0.352456
0.328115
2.00549
0.259787
1.55565
-1.3914
0.734201
1.99291
-1.71744
-0.851333
0.524193
3.94147
1.45878
0.0218693
-0.573737
-0.408752
-0.727135
0.480993
-0.227014
-0.617469
1.10185
0.404777
0.45421
-0.467321
0.796257
-2.2502
-0.340335
2.28988
-2.29858
0.049625
0.835321
2.29447
0.879927
-0.204882
-0.606087
-1.50839
-0.928322
-0.553984
-0.0285545
-0.80743
-0.0652352
1.12875
-0.359158
0.149672
2.28779
-1.71892
0.228983
0.519848
-1.5374
-0.000691153
0.301487
0.818454
0.283679
-0.288028
0.139254
0.018871
-0.730965
-0.811009
1.5409
-1.27593
-0.310625
0.537915
-1.41108
0.487076
2.83407
-1.541
-0.597553
-0.64173
-0.554129
0.538526
0.338933
0.37809
0.88574
-0.300173
1.00821
-0.219364
0.093223
-0.34438
0.140696
-1.86175
1.5287
-0.236163
-0.962869
0.0775023
2.03593
-1.2576
0.116514
-0.167089
0.356485
-0.281669
-0.506641
-0.860744
0.608499
-0.706616
0.374668
0.0714103
0.57795
0.886917
-0.356322
-1.27891
0.465587
-0.56958
0.0668982
-0.697396
0.0741796
0.0136286
0.25514
-0.0944618
1.24839
0.213211
-0.500822
-1.12553
-0.304821
-0.153323
-0.0289858
0.476576
-0.104319
1.03102
0.152131
-0.551482
0.10976
-0.662614
-0.711541
0.13898
0.106343
0.912531
0.592611
-0.260571
1.22057
0.0979191
0.0520926
-0.572637
-0.344229
-0.417758
0.34844
-0.234117
0.159262
-0.344472
0.355115
0.0349998
0.0675403
0.153148
-0.234414
-0.428784
-0.43222
0.0743999
0.107309
-0.601216
0.230073
-0.283656
0.30708
-0.432572
-0.286854
-0.196658
-0.155508
0.163224
-0.267088
0.0912759
0.177541
-0.251126
0.504788
0.226725
-0.264349
0.342727
-0.498786
-0.0828651
-0.214239
0.42066
0.300958
-0.0429842
-0.222898
-0.319126
0.251065
0.110069
-0.00941517
0.239842
-0.484604
0.0825892
0.67157
-0.472326
-0.217074
-0.220426
0.009741
0.241672
-0.079498
0.204622
-0.0826703
0.000979718
-0.282879
-0.157192
0.0623078
0.495026
-0.292808
0.411034
0.408323
-0.0999953
-0.459411
-0.0954661
0.5134
-0.27604
0.332698
-0.248766
0.0796325
0.350896
-0.540681
0.345809
-0.2222
-0.236987
0.126484
0.00429064
0.29326
0.625031
-0.0736547
0.777007
0.17814
0.408764
0.0202058
-1.45448
-0.205738
1.48288
-0.948462
0.771568
0.621288
-0.295497
0.35909
0.41004
-0.523577
-0.348535
-0.14919
-0.518944
0.409104
1.17733
-0.168512
0.598705
0.315056
-0.576102
-0.110624
-1.71196
-0.34196
2.3895
-1.62426
1.06365
0.460117
-0.217905
0.950704
-0.0620101
-0.524043
-0.047941
-1.18271
-1.01068
0.513179
1.63455
-0.308926
0.553327
0.0668989
-0.266221
-0.240238
-1.74958
-0.592567
2.64996
-1.17736
1.34932
0.944738
0.344929
1.09467
-0.0110469
-0.221156
-0.349338
-0.957868
-1.10775
0.143656
2.02483
0.418696
-0.310404
-0.0672239
-0.774316
-0.257775
-0.48394
0.00703584
0.988939
-0.290542
1.25479
0.626888
0.184865
1.28191
-0.632997
0.986797
0.615055
-1.32643
-1.65092
-0.619616
1.75539
0.928222
-0.32691
-0.832913
-0.973242
-0.52073
-0.166976
-0.270491
0.126968
-0.267822
0.770039
0.085201
0.648762
1.35528
0.107101
1.91758
0.245899
-0.757902
-0.588991
-0.192863
1.34239
0.451259
-0.180465
-0.967497
-0.010324
-0.342135
-0.641239
0.193093
0.438177
-0.787688
0.861365
0.398713
-0.0870777
1.51163
-0.689057
0.855509
0.103523
-0.258622
0.478147
1.26347
0.508484
1.06598
0.616633
0.390577
-0.32663
-1.02757
-0.393368
0.684234
-0.603833
0.742246
0.755044
0.131261
0.323349
1.14721
-1.59097
-1.14247
-0.0592281
-1.57283
1.50762
0.907641
-0.000148717
0.627473
0.750719
1.4108
-0.14139
-0.215137
-0.057397
-0.679038
-1.23019
1.52304
0.851963
-0.702187
-0.343902
1.18996
-2.15607
-2.42398
0.551538
-1.52166
1.25013
1.35875
0.141079
0.897559
0.565095
0.946383
-0.154134
-0.130195
-0.0138417
0.0986443
-0.416337
1.19296
0.221374
-0.929324
-0.408558
0.601192
-1.25511
-1.61764
-0.1851
-0.276065
-0.119258
0.0692033
0.119603
0.406554
0.470817
0.193155
0.0192113
-0.322837
-0.51031
-0.321694
-0.524573
0.537878
0.158159
-0.386554
-0.200637
0.538429
-0.542575
-0.375738
0.407914
-0.314581
0.569133
-0.0852632
-0.105046
-0.538918
0.371998
-0.22936
0.365565
0.0914605
-0.0467607
-0.199988
-0.412774
0.353687
0.111197
0.235761
-0.252568
-0.444056
0.0294425
-0.186459
-0.0696839
-0.05495
0.52002
-0.0649838
0.183403
0.38392
0.130884
0.0163462
-0.356623
-0.378465
0.11544
-0.0898949
-0.40339
-0.0962155
0.433229
-0.165191
-0.511939
0.178031
0.340442
-0.802845
-0.483203
-0.551274
0.266847
0.214919
-0.370851
-0.0365685
0.0141374
0.499176
-0.00834718
-0.245762
-0.341119
0.64606
-0.177752
-0.113371
0.0733809
-0.385644
0.135707
-0.491408
-0.0306412
-0.0548483
0.232311
-0.130628
0.184982
0.177394
0.262113
-0.347916
0.57116
0.371225
0.394169
-0.177432
0.183823
-0.225445
-0.405578
0.0745614
-0.00213014
-0.481229
-0.21915
0.224685
-0.417401
-0.29942
0.210933
0.177076
0.325023
0.356186
-0.244144
-0.0152108
0.0548054
0.14639
0.425071
-0.444752
-0.204538
0.0188684
0.539983
0.569652
-0.285507
-0.326514
0.144345
0.21801
-0.114877
-0.368674
0.209007
-0.0377294
-0.217541
0.333707
0.586404
-0.000738541
0.52439
0.577431
0.2589
-0.419497
-1.78775
0.0772309
1.37813
0.666692
0.714936
-0.0561132
0.0494652
0.206266
-0.931437
-1.11491
-0.41171
-1.03355
-0.386986
1.04083
0.80485
-0.435011
0.691487
0.774747
0.34424
-0.467548
-2.37381
-0.0844527
1.79982
0.632214
1.15077
0.486018
-0.293053
0.137176
-1.22461
-1.59925
-0.334275
-0.639544
-0.0221733
0.82704
1.58517
0.230401
0.829524
0.567027
0.339273
-1.20426
-2.3848
-0.214821
1.41027
-0.110147
0.848696
-0.205621
-0.156683
0.351766
-1.00854
-1.66976
-0.560587
-1.30796
-0.260997
0.946513
1.59824
-0.21791
1.08783
0.31787
-0.302329
-1.3121
-2.29232
0.347879
2.2126
0.0507296
0.984411
0.189464
0.0756053
1.02881
-1.70153
-1.82327
-0.655814
-1.25318
-1.19448
1.57763
1.45121
0.191649
1.01871
0.754387
-0.623095
-0.605982
-2.82897
-0.296687
2.77231
-0.151837
1.03218
-0.437806
0.139301
1.04901
-1.39424
-1.70413
0.151898
-1.40907
-0.674426
0.646766
1.78258
0.372942
1.02177
0.790085
-0.531296
-0.529309
-1.70761
0.0130477
1.6161
-0.0946924
1.04794
0.0658578
0.280604
1.03347
-1.08602
-1.25052
-0.414699
-1.38384
-0.32216
0.54297
0.617407
-0.23039
1.13734
0.924516
-0.398688
-0.806357
-0.717227
-0.581439
1.03919
0.486704
0.914833
0.252315
0.304567
0.973866
-1.30897
-0.895467
-0.377577
-0.766165
0.171322
-0.0141625
0.424269
-0.12955
0.266053
-0.0600442
0.0291754
-0.450453
0.131391
-0.0380776
0.12001
0.533006
0.743391
-0.281636
-0.143914
0.527119
-1.00334
-1.06613
-0.305782
-0.551628
0.323396
0.649393
-0.200323
0.171896
-0.2743
0.292003
-0.348186
-0.49367
-0.357826
0.615319
-0.185174
0.526628
0.241783
0.456902
0.366447
-0.258061
-0.228197
-0.515708
-0.402969
0.0902431
0.289879
0.495658
-0.107332
-0.379199
-0.193427
0.0111093
-0.0297396
-0.0897675
0.284753
0.216367
0.0721748
-0.332215
0.498243
0.378782
0.459017
-0.205028
0.00595195
-0.145596
-0.461731
-0.470552
0.61403
0.320525
0.120456
0.0247109
-0.152478
-0.141213
0.182095
0.0350532
-0.463073
-0.233981
0.214544
0.226393
-0.451697
-0.147878
0.386784
0.358141
-0.389013
-0.186317
0.326545
-0.423717
