-0.253218
5.1239
4.74742
2.10717
5.21561
-4.87851
0.252128
-1.05617
3.96962
-3.15833
-2.82201
5.65956
-1.09804
1.18925
1.06708
2.34201
0.268875
1.5168
2.39198
-5.18184
-2.19069
-2.19013
-4.04813
-5.69155
-7.61863
9.68732
0.8118
5.21177
-5.34975
-0.166197
-2.54165
-2.41325
3.01189
-3.40321
-2.08071
0.671275
-0.113859
1.19056
0.821272
-0.642774
1.09314
2.49347
1.41285
1.31645
3.71433
3.28228
0.759428
-1.7971
1.87624
-3.81021
-1.87699
-0.123701
2.90582
-1.1666
6.47107
2.38285
0.723315
1.52649
2.17757
-3.66163
-1.24331
-0.277287
-1.42654
-0.454239
3.54285
-2.12428
1.1389
3.076
-1.20681
0.190072
2.4906
0.449928
1.38702
1.2751
-0.0419079
-3.75305
-0.777824
-1.90433
-0.968876
1.17307
3.78137
5.77763
9.19026
-3.71897
-1.51862
-2.20426
-1.40105
-2.68006
-5.82101
3.70511
-3.79701
3.35772
-5.77609
0.100629
-0.318485
-6.31424
0.837749
5.60393
2.57439
-3.36784
0.533899
-6.38566
-8.18642
4.28163
4.68677
5.58865
-0.872819
-4.27901
2.58261
2.75513
-8.49123
-2.51767
3.79235
-5.60305
6.03743
-1.02949
-1.92877
3.8794
5.60344
3.11858
-2.77921
-2.90071
-1.3434
1.17101
-0.579857
4.1219
-1.6389
-1.52742
4.67492
-1.40119
0.621591
0.55467
-4.91576
-3.59218
-0.465793
3.59876
0.685568
2.44603
-6.38836
3.50059
1.37829
-0.296996
1.40062
2.78079
-1.20757
-0.682103
-0.721252
-4.30876
3.40994
-0.30832
2.9556
-2.08588
1.92615
3.62425
-8.2008
1.62872
1.50585
-3.41918
3.38519
-7.60571
5.87032
-1.19859
-3.22596
3.23383
-0.352503
-4.94026
-0.0532171
-3.92966
-6.29605
3.44438
3.5194
-5.34122
-1.15269
-2.15166
-5.77068
-2.50124
-0.170968
-2.76058
-4.72112
4.73739
-3.44767
3.04899
2.21232
-5.39355
-1.76299
4.23437
-0.668432
2.99633
-5.23266
3.06731
1.27069
-4.80605
1.93014
4.34793
0.310297
-7.16861
-2.0298
-3.36888
-0.462641
4.27755
